sent_0 -0.340606 -0.012943 0.659159 0.080727 0.380052 -0.741166 -0.423405 0.099389 -0.119821 -0.539867 0.206842 0.471741 -0.174715 0.036725 -0.019812 -0.615673 0.811647 0.337915 0.191538 0.594806 0.268542 -0.075350 0.171049 -0.543696 0.588667 0.500905 -0.191818 -0.219042 -0.174024 1.094586 0.352936 0.256382 -0.460654 0.162572 -0.807865 0.418394 1.036108 0.166642 -0.619706 -0.829461 0.615731 -0.447108 0.715649 0.219708 0.623945 0.611630 -1.030128 0.548505 -0.131460 -0.088570
sent_1 0.001774 -0.236639 0.484121 0.003263 0.299337 -0.744927 -0.162115 -0.062644 -0.052127 -0.466422 0.159654 0.594313 -0.458295 0.053607 -0.114312 -0.372707 0.609210 0.073047 0.499840 0.611848 0.274969 0.116337 -0.081648 -0.379055 0.340505 0.095523 -0.137655 0.026361 -0.165166 0.452335 0.184919 0.341042 -0.244968 0.200097 -0.708821 0.375902 0.639162 0.283364 -0.253063 -0.853121 0.854403 0.150999 0.623910 0.279862 0.612990 0.082272 -0.869606 0.575364 -0.058212 0.027596
sent_2 -0.652280 -0.258717 0.056968 0.985613 -0.073912 -0.775662 -0.466871 0.261334 -0.127172 0.167567 -0.299162 1.044314 -0.042932 -0.066019 0.269248 -0.441179 0.153338 0.124361 0.768326 0.138435 -0.157610 -0.368214 0.215435 0.086783 0.216386 -0.306199 -0.512316 -0.062190 -0.297968 0.881113 0.469448 0.321728 -0.475144 -0.169136 -0.455387 1.024800 0.654574 -0.620043 0.080063 -0.454892 0.245131 -0.755680 0.509073 0.600783 0.092254 -0.169852 -0.742955 -0.005836 -0.389144 -0.023774
sent_3 -0.437910 -0.288157 0.790792 0.086343 -0.117842 -0.645648 -0.479343 0.220117 -0.286477 -0.370801 0.531086 0.678331 -0.333223 -0.099016 -0.150040 -0.078402 0.846543 0.168441 0.256540 0.615506 -0.014136 -0.555030 0.080098 -0.298021 0.130667 0.122184 -0.316792 -0.265468 -0.309529 0.738043 0.016963 0.252171 -0.022559 -0.124336 -0.652333 0.281550 0.589543 0.423406 0.018167 -0.401892 0.781913 0.178383 0.305227 0.095987 0.490576 -0.028989 -0.565729 0.497185 -0.108767 0.026400
sent_4 -0.299940 -0.623713 0.394162 0.017393 0.169994 -0.517369 -0.910075 0.590078 -0.340405 -0.173109 0.162317 0.935550 -0.353118 0.086995 0.138562 0.031205 1.040851 0.541382 1.024178 0.231408 0.139858 -0.398815 0.240860 -0.341826 0.197887 0.021316 -0.180796 -0.129406 -0.351096 0.622432 -0.102819 -0.144101 0.231124 -0.100953 -0.474888 0.477700 0.486277 0.026694 -0.108516 -0.807095 0.525218 -0.113973 0.924945 0.477393 0.597749 0.134307 -0.580244 0.977574 -0.391061 -0.002433
sent_5 -0.437770 0.448258 -0.157740 0.509946 -0.189390 0.146019 0.561155 -0.034694 0.769403 0.733524 0.347213 -0.167663 -0.266713 -0.684192 0.033891 0.120332 -0.357338 -0.594637 -0.197689 0.065823 0.602250 -0.349087 0.641610 -0.123977 0.462796 -0.142400 -0.029545 -0.181057 0.119746 0.810762 -0.633508 -0.038313 0.439221 0.367856 -0.615601 -0.141584 -0.000993 0.307567 0.075208 0.132925 -0.471037 0.082056 -0.236605 0.466659 0.480882 -0.642805 0.689141 -0.140040 0.125661 0.192359
sent_6 -0.372404 0.196573 -0.301143 0.478314 -0.317760 0.235908 0.272455 -0.212283 0.076531 0.578558 -0.001927 -0.415598 -0.352603 -0.582852 0.385216 -0.141895 -0.584744 -0.688182 -0.251429 0.274772 0.767818 -0.209374 0.177845 -0.134260 0.205244 0.159003 -0.374515 0.057495 0.117439 1.457141 -0.491421 0.342536 0.320994 0.647923 -0.653825 0.148565 0.403744 0.615249 0.371846 0.486431 -0.489103 0.314724 -0.562096 0.634271 0.024172 -0.876947 1.101596 -0.090804 0.154201 -0.016819
sent_7 -0.399609 0.089399 -0.144691 -0.378887 0.297703 0.144843 0.959453 -0.097079 0.423938 0.382471 0.041414 -0.707035 -0.469228 -0.912086 0.135372 -0.185956 -0.723618 -0.559862 0.062907 -0.451328 -0.058982 -0.520740 0.637253 -0.476495 0.344719 -0.031336 -0.526765 0.225141 0.680960 0.779791 -0.005432 -0.108760 0.231251 0.471571 -0.830398 0.059114 0.376245 0.897505 -0.041160 0.505311 -0.560806 0.259187 -0.361547 0.644494 -0.268273 -0.317665 0.900080 -0.198050 0.133774 0.097703
sent_8 -0.232780 -0.701388 -0.486657 -0.305228 0.182773 0.765625 0.542031 -0.220636 0.245235 -0.238130 0.274403 -0.466788 0.195758 -0.819727 0.108194 -0.885315 -0.073933 -0.587294 0.014656 -0.157855 0.044333 -0.545242 0.945845 -0.576826 0.422787 -0.561733 -0.382383 -0.191653 0.079795 0.925680 -0.070021 0.845792 -0.474013 0.772212 0.618266 -0.544104 0.427342 0.375855 0.164785 0.323069 -0.622632 0.094038 0.142945 -0.048060 -0.140393 -0.547920 0.661002 -0.173490 -0.444760 -0.157403
sent_9 -0.722127 -0.087616 -0.362042 -0.160573 0.314736 0.233925 0.856557 -0.282117 0.572183 0.784988 0.062518 -1.032265 -0.835710 -0.920446 -0.670016 0.154464 -0.404050 -0.219347 -0.211969 -0.267779 0.370501 -0.307747 0.600509 0.191797 0.659437 0.005988 -0.083224 0.000126 0.899033 0.739456 -0.840482 0.121297 0.045894 0.433717 -0.845050 0.155145 0.376458 0.637644 0.212171 0.868952 -0.490663 0.142464 -0.800054 0.183919 -0.172308 -0.004707 0.592892 -0.422018 0.185154 -0.114956
sent_10 -0.663758 0.088880 -0.039289 0.089065 0.210119 0.046745 0.734482 -0.060136 0.231628 0.256967 0.570019 -0.685849 -0.363534 -0.528515 -0.103624 -0.442524 -0.571671 -0.847530 0.015597 0.004940 0.219759 -0.217632 0.474069 -0.045578 0.316335 -0.511622 -0.196992 -0.213397 0.470097 0.516562 -0.496438 -0.038934 0.042487 0.565747 -0.362518 0.184372 -0.160990 0.286073 -0.058228 0.057420 -0.449565 0.008117 -0.459499 0.365733 -0.032554 -0.355817 0.585282 -0.377677 -0.005478 -0.018544
sent_11 0.092634 0.045487 -0.082290 -0.014496 0.631369 -0.010201 0.966064 -0.281005 0.158555 0.408285 0.832819 -0.211862 -0.404820 -0.681255 -0.192564 0.097491 -0.949399 -0.414454 -0.021237 -0.042483 0.178705 -0.564905 0.079377 0.170595 0.484920 -0.050038 0.216961 -0.154873 0.007719 0.797023 -0.525019 0.076936 0.380450 0.590481 -0.740276 0.050058 0.002608 0.632973 0.418820 0.415516 -0.799324 0.218426 -0.436567 -0.302606 0.002645 -0.440306 0.647650 -0.070656 -0.061988 0.136403
sent_12 -0.664115 -0.315265 -0.307906 0.069640 0.661217 0.356800 0.368360 -0.480332 0.125451 0.451813 0.352442 -0.484395 -0.197495 -0.178761 -0.307440 0.096351 -0.643165 -0.765199 0.140673 0.354173 -0.467535 0.401917 0.024505 0.442180 0.411893 -0.305371 0.034398 0.116757 0.230914 0.858534 0.074051 0.349169 0.334326 0.686110 -0.346431 -0.277485 -0.057275 0.566974 -0.027622 0.360340 -0.734279 -0.401369 -0.723567 0.306274 0.363477 -0.729274 0.853418 0.383842 0.175670 0.034075
sent_13 -0.126448 -0.409829 0.108761 0.342523 -0.459070 -0.717391 1.088019 -0.182794 -0.346383 0.205849 -0.520305 -1.110591 0.210535 1.150527 -0.533371 0.306594 0.532105 -0.487248 -0.227554 -0.224603 -0.245321 0.384777 -0.875564 -0.724765 -0.053371 0.352831 0.306281 0.533814 -0.050866 0.104636 -1.153156 -1.429018 0.748119 -0.844449 -0.159651 0.529806 -0.278759 -0.589346 -0.280460 -0.249941 -0.529865 -0.636968 -0.028391 -0.393051 -0.113637 0.769290 1.091299 0.494045 -0.361109 -0.474183
sent_14 -0.289870 -0.955160 0.508291 0.294208 -0.584032 -0.291088 0.220807 0.169994 -0.008084 0.542030 -1.068895 -0.316181 -0.080234 0.735500 -0.236932 -0.022821 0.826582 0.129854 -1.323309 -0.325209 0.117427 -0.561285 -0.904860 -1.157535 -0.259243 0.426188 0.347781 -0.071950 0.231048 -0.218006 -1.046791 -0.986895 0.684873 0.226564 -0.249786 0.996124 -0.793919 -0.229311 -0.006033 0.277828 -0.692000 -1.142404 0.192660 -0.738113 -0.557897 0.047121 0.844621 0.431396 -1.326292 -1.323056
sent_15 -0.101054 -0.090309 0.285859 -0.239268 -0.790825 -0.115110 0.262764 -0.352583 -0.110806 -0.044747 -0.708926 -0.343650 0.076730 0.471732 0.313757 0.329432 -0.498776 -0.065851 -0.735085 -0.648695 -0.757419 -0.428994 -0.131578 -0.472645 -0.198099 0.554236 0.394417 0.049427 -0.486547 0.606819 -0.672207 -0.356963 0.304334 -0.126111 0.211369 0.412655 0.108864 -0.093821 0.350919 0.465209 -0.343509 -1.161009 0.846765 -0.574900 0.058593 0.659598 0.546146 0.625246 -1.152877 -1.146154
sent_16 -0.017720 -0.768630 0.552774 0.266695 -0.214719 -0.596205 0.057161 -0.150116 0.463529 0.178281 -0.440158 0.111100 1.057880 0.640255 -0.747344 -0.339711 -0.100584 0.015128 0.714020 0.011120 -0.476963 -0.799714 -0.073767 -1.021652 0.367757 -0.193574 -0.477055 0.249533 0.557963 0.571697 -0.054091 -0.061918 0.438646 -0.181676 0.816182 -0.788462 -0.670699 -0.116767 0.015513 -0.589176 -0.468156 -0.475865 0.622391 0.073313 -0.412277 0.302533 -0.039292 0.135054 -0.706069 -0.534746
sent_17 -0.114354 -0.778172 0.349444 0.162306 -0.405728 -0.679349 0.511848 0.374521 -0.071861 0.797016 -0.506270 -0.407617 0.405794 0.661101 -0.317990 0.757428 0.217640 -0.283509 0.251305 0.033227 -0.266012 -0.006258 -0.743546 -0.294300 -0.357732 0.460052 0.529940 0.440060 -0.237840 0.269109 -0.666367 -0.893502 0.851470 -0.586163 0.055761 0.422774 -0.000485 -0.192182 0.061993 -0.097749 -0.822886 -0.635487 0.061963 -0.242028 0.031291 0.337455 0.822939 0.188992 -0.187729 -0.208461
sent_18 -0.077777 -0.701325 0.170629 0.076359 -0.688855 -0.401508 0.247006 0.369377 0.163406 0.609469 -0.341772 -0.700387 0.433489 0.903848 -0.092871 0.816962 0.085862 -0.385497 -0.385527 -0.377996 -0.342440 0.196751 -0.728597 -0.621598 -0.363058 0.391667 0.738341 0.214540 -0.192576 0.387226 -0.586931 -1.064056 0.974996 -0.216177 -0.228174 0.581813 0.034272 -0.277022 0.192319 -0.041204 -0.866979 -0.820005 0.160543 -0.394428 0.162091 0.332723 1.177594 0.384608 -0.576881 -0.453636
sent_19 -0.055406 -0.448155 0.404637 0.445631 -0.604292 -0.692592 0.411428 0.128399 -0.000945 0.114763 -0.473526 -0.399069 -0.106846 0.778868 0.274042 0.319981 -0.598217 -0.198272 -0.122210 -0.254293 -0.393960 -0.140573 -0.490497 -0.063758 -0.443070 -0.555741 0.300370 0.297151 -0.207374 -0.050063 -0.522165 -0.386891 0.625734 -0.597144 0.347254 0.300202 -0.249562 -0.071521 0.715978 0.261844 -0.339276 -1.000262 0.004377 -0.243444 0.447269 0.336607 0.240851 0.010643 -0.252058 -0.639568
sent_20 -0.106123 -0.815683 0.255198 0.134325 -0.631133 -0.821029 0.234727 -0.271703 0.222514 0.291314 -0.601952 -0.469034 0.164074 0.882091 -0.354657 0.479737 0.024445 -0.283359 -0.039374 -0.250321 -0.117816 0.054050 -0.913837 -0.738490 -0.431077 0.691913 0.497518 0.070827 -0.104341 0.524390 -0.739084 -1.121635 1.132250 -0.233189 -0.173033 0.736671 -0.233773 -0.406423 -0.097781 -0.139666 -1.034048 -0.858168 -0.133666 -0.468302 0.361019 0.425410 0.647165 0.107933 -0.148284 -0.397110
sent_21 0.350598 -1.083194 0.592966 0.007991 -0.576296 -0.406180 0.365373 0.358837 0.042244 0.574861 -0.512142 -1.178940 0.032084 0.670770 0.177847 0.357954 -0.235803 -0.647261 -0.023095 -0.048384 -0.266555 0.097540 -0.695338 -0.753822 -0.235140 0.435638 0.510019 0.191789 -0.184404 0.165676 -0.942548 -1.129105 0.660715 -0.014170 0.023438 0.859699 -0.339076 -0.309093 -0.005962 -0.222744 -0.727924 -0.821933 -0.082804 -0.497600 0.363415 0.089234 0.804974 0.054682 0.002132 -0.767831
sent_22 -0.277378 -0.257953 0.228189 0.299098 -0.724448 -0.222820 0.619035 0.344863 -0.415564 0.358666 0.038498 -0.756887 0.309855 0.796040 -0.321630 0.317700 0.568858 -0.274789 -0.257142 -0.575945 -0.304833 -0.097417 -0.756526 -0.527094 0.102762 0.272196 0.378983 0.411381 0.107259 -0.089038 -0.671219 -1.096577 1.165489 -0.491982 0.284173 0.516076 -0.196840 0.022978 -0.060797 -0.097932 -0.385187 -0.693355 0.293686 -0.135357 -0.464038 0.366571 0.795668 0.571472 -0.360790 -0.731132
sent_23 0.142999 -0.665637 0.393467 -0.157792 -1.337452 0.062926 0.617366 -0.231057 -0.342525 0.885842 -1.010419 -0.057120 -0.235923 0.313338 0.055206 -0.024045 -0.073755 -0.354254 -0.514192 -0.558411 -0.553271 -0.010049 -0.648089 -0.887518 -0.985821 0.729818 0.737242 0.039198 -0.124183 0.223172 -0.435219 0.180303 0.483192 -0.047078 0.658038 0.716683 -0.353100 -0.428930 0.078693 0.335736 -0.513349 -0.559572 0.032354 -0.472335 -0.187938 0.100659 0.474433 0.747562 -0.616916 -1.363714
sent_24 -0.198673 -0.692796 0.332105 0.056808 -0.558777 -0.815182 0.698393 -0.064378 0.108888 0.327126 -0.579273 -0.597219 0.457080 0.765134 -0.428322 0.642674 0.248515 -0.227796 0.209711 -0.020128 -0.274764 -0.083262 -1.064517 -0.563558 -0.175301 0.278502 0.630466 0.346679 0.051887 0.290228 -0.812621 -1.295596 1.063568 -0.107979 0.005110 0.559937 -0.255502 -0.232755 -0.099883 -0.284256 -0.688023 -0.979281 0.133583 -0.188693 -0.070361 0.440119 0.783749 0.232608 -0.268698 -0.123374
sent_25 -0.288036 -0.325548 0.223228 0.178536 -0.451825 -0.334831 0.264648 0.330656 -0.533430 0.287361 -0.526366 -0.677610 -0.020768 0.434165 -0.159767 0.003878 0.160704 -0.096831 -0.334610 -0.162829 -0.058018 -0.042370 -0.219686 -0.475112 -0.245848 0.213274 0.305731 0.149942 -0.235584 0.086306 -0.329485 -0.440059 0.489748 -0.219030 0.203221 0.679578 -0.312845 -0.217003 0.028220 -0.108744 -0.695479 -0.677454 0.449029 -0.261747 -0.405782 -0.058723 0.657318 0.456000 -0.241043 -0.710515
sent_26 -0.103725 -0.728541 0.110406 -0.095752 -0.767744 -0.887693 0.445135 -0.147976 -0.568903 0.570921 -0.164826 -0.184519 -0.124536 0.937767 0.197973 0.306159 1.256172 -0.197956 0.369305 -0.245932 -0.686727 0.174915 0.002152 -0.720540 0.789897 -0.151328 -0.030769 0.138787 -0.370509 -0.231980 -0.402839 -0.713286 0.668599 -1.269802 0.533580 -0.287723 0.362143 -0.268694 0.353019 0.324204 -0.490174 -0.897462 0.689365 0.338027 -0.341438 0.275223 -0.203348 -0.069180 -0.580476 -0.612788
sent_27 0.020943 -0.665592 0.464721 -0.033180 -0.811588 -0.575312 0.468587 -0.054705 0.206958 0.256406 -0.378803 -0.321804 0.215231 0.663572 -0.199531 0.322080 -0.111802 -0.427421 -0.427565 -0.657200 -0.884434 -0.272864 -0.926176 -0.586989 -0.687810 0.185707 0.985607 -0.000359 -0.213062 0.444069 -0.796188 -0.571552 0.916658 -0.146534 0.050675 0.763589 -0.546663 0.004329 -0.022610 0.230265 -0.312670 -1.033825 0.095816 -0.767746 0.151149 0.550912 1.301121 0.728662 -0.658866 -0.972836
sent_28 -0.165489 -0.580843 0.307241 0.020731 -0.659600 -0.468316 0.502058 0.127034 -0.140172 0.480677 -0.323102 -0.571729 0.296417 0.695083 -0.101989 0.506309 0.157656 -0.372096 0.031368 -0.154807 -0.269569 0.073918 -0.793580 -0.322577 -0.188494 0.256148 0.375920 0.304851 -0.144476 0.175673 -0.553489 -0.869798 0.799673 -0.273837 -0.047225 0.376574 -0.027225 -0.280991 0.060686 -0.101106 -0.583282 -0.782529 0.095315 -0.391439 -0.046700 0.326489 0.597013 0.145216 -0.255349 -0.331480
sent_29 -0.342883 0.144863 0.101111 -0.033689 -0.822662 0.392690 -0.514628 0.253674 -0.267560 -0.352853 0.094392 0.272405 0.447685 -0.155437 -1.141241 0.300225 0.539473 0.026765 0.245621 0.034946 -0.552034 -0.366356 -0.110781 0.363304 0.330416 0.445783 -0.045978 -0.172648 0.086679 0.086528 0.337117 0.089824 1.334892 -0.564220 0.014412 1.067543 -0.158572 0.038421 0.287146 -0.436783 -0.741115 -0.507438 -0.077847 -1.021238 -0.145954 -0.101678 0.776951 0.228356 -0.033603 -1.091260
sent_30 -0.171980 0.401089 -0.031533 0.067421 -0.897955 0.337421 -0.355379 -0.017182 -0.122513 0.329625 0.085246 -0.006612 0.566846 0.320373 -0.782206 0.526034 0.651636 -0.116541 0.273243 -0.051529 -0.418347 -0.496465 0.007961 0.515166 -0.094956 0.429228 -0.185996 -0.358131 -0.221798 0.127569 0.135392 -0.072063 1.352446 -0.522873 -0.476104 0.961964 -0.460073 0.235680 -0.137354 -0.176814 -0.464620 -0.791700 0.138089 -0.980752 -0.287298 -0.391769 1.013561 0.265714 0.076817 -1.364536
sent_31 0.177215 -0.119521 -0.123027 0.105722 -0.711968 0.243247 -0.026059 0.042651 -0.195082 -0.305640 -0.039585 0.167810 0.091008 0.186587 -0.560330 -0.031198 0.592888 -0.067939 0.388013 -0.308520 -0.490419 -0.218842 0.006634 0.452085 0.211689 0.192582 0.009629 -0.499145 0.242512 -0.163112 0.370381 -0.001706 0.623871 -0.083457 -0.040706 0.718543 -0.176990 0.284152 -0.123392 -0.334417 -0.086852 -0.789755 0.016280 -0.615821 -0.143626 -0.423669 0.775736 -0.159706 0.280358 -0.864993
sent_32 -0.264510 0.228478 0.320721 0.127802 -0.999058 0.383503 -0.520994 0.101839 -0.597819 -0.209386 0.185477 0.312822 0.573663 -0.161867 -1.181336 0.566002 0.515402 0.137709 0.229984 0.190029 -0.546140 -0.316983 -0.075732 0.452345 0.282113 0.569576 -0.048799 0.022757 0.184022 0.100189 0.371326 0.288054 1.490010 -0.581661 -0.135321 0.952205 -0.141634 0.151367 0.146789 -0.323356 -0.713207 -0.477539 0.126584 -1.125804 -0.247387 -0.070101 0.772004 0.241518 -0.270752 -0.963584
sent_33 -0.100698 0.172255 -0.118793 0.189509 -0.761540 0.518208 -0.381026 -0.016345 -0.422504 0.002257 0.170166 0.296200 0.580746 -0.213599 -1.029059 0.304708 0.636131 -0.011654 0.204333 0.343581 -0.886305 -0.422630 -0.179954 0.449805 0.130209 0.038750 -0.124849 -0.419676 -0.104270 -0.274869 0.312509 0.269805 1.412088 -0.533717 -0.587910 0.722094 -0.284358 0.327857 -0.071750 -0.457503 -0.949485 -0.368987 0.360474 -1.002922 -0.412445 -0.410058 0.836257 -0.042951 0.108513 -0.842263
sent_34 0.196884 0.549254 0.808849 -0.167699 -0.899548 0.398459 -0.509814 0.583329 -1.029949 0.302752 -0.941740 -0.284465 -0.169593 0.743430 -0.663768 0.167093 0.377665 -0.070951 0.006187 0.343377 -1.122346 -0.411831 -0.225230 -0.028081 0.492403 0.431659 -0.001312 0.065149 0.073961 -0.160163 0.252607 -0.381305 1.179951 0.467398 -0.330787 -0.074808 -0.258955 0.434093 -0.372938 -0.333965 -0.089075 -0.963324 0.069675 -0.857695 -0.256227 -0.881978 0.880656 0.053371 -0.542179 -0.895924
sent_35 0.051808 0.231466 -0.328279 0.036498 -1.101714 0.127343 -0.079325 0.063902 -0.502286 0.040146 -0.006209 -0.233213 0.324116 -0.034959 -0.910904 0.314857 0.533872 0.137243 0.160206 -0.160690 -0.705526 -0.614184 -0.006537 0.221679 0.282673 0.569562 -0.052734 -0.198689 0.105218 -0.045713 -0.013974 -0.253415 1.392348 -0.656314 -0.044519 0.676126 -0.148116 -0.008442 -0.027644 -0.347387 -0.455030 -0.563581 0.202664 -0.828499 -0.373477 -0.338518 0.749744 0.609491 0.186649 -1.083912
sent_36 0.132498 0.498648 0.065478 0.199215 -0.937268 0.160594 -0.311507 -0.124522 -0.303735 -0.141903 0.050672 0.167161 0.687434 0.111807 -1.323636 0.404778 0.786275 0.049484 0.469770 0.102863 -0.459208 -0.273602 -0.107490 0.299586 0.201669 0.461977 0.010130 -0.135960 0.253372 -0.149060 0.326124 0.138124 1.241767 -0.541279 -0.398320 0.774571 -0.039621 -0.076680 0.091203 -0.446452 -0.512357 -0.419408 0.208897 -0.742373 -0.238274 -0.354691 0.628774 -0.100146 0.375675 -0.470240
sent_37 0.016992 0.266988 0.056512 0.054374 -0.948916 0.741536 -0.397654 -0.151768 -0.360194 -0.004615 -0.104729 0.083718 0.280276 0.184329 -0.517020 0.274520 0.609799 0.118737 -0.076448 0.385135 -0.682577 -0.108911 -0.184474 0.272678 -0.068179 0.618113 -0.058588 -0.170198 0.165186 -0.246981 0.543809 0.286868 1.321434 -0.214920 -0.467748 0.427034 -0.125067 0.155128 -0.012732 0.016674 0.075686 -0.559276 -0.210635 -0.761163 -0.033717 -0.281004 1.007953 0.190214 0.056607 -1.027987
sent_38 0.007116 0.247322 -0.247467 0.225223 -0.711410 0.395293 -0.263541 0.287347 -0.347338 -0.405968 0.013554 0.325959 0.555324 0.223548 -1.261681 0.104451 0.402241 -0.179148 0.295262 0.407728 -0.650652 -0.707637 0.053906 0.063713 -0.099792 0.396380 -0.155469 -0.200506 0.291719 0.038418 0.139192 0.105063 1.096428 -0.120127 -0.389221 0.819849 0.150561 0.034191 -0.095791 -0.119955 -0.514267 -0.428014 0.166684 -1.159837 -0.080671 -0.187929 0.844562 -0.511726 -0.275364 -1.239677
sent_39 0.341124 0.082446 -0.751762 -0.504729 0.891275 -0.143891 -0.055746 0.189392 -0.157410 -0.457933 -0.424743 0.120580 0.456343 -0.099261 0.510770 -0.009842 -1.007790 -0.640489 -0.150746 -0.215653 -0.427721 -0.149454 -1.003301 -0.113500 -0.016581 0.581121 -0.666276 -0.059899 0.055152 0.302602 -0.074365 0.264634 -0.302198 -0.084996 0.134571 0.562751 -0.075738 -0.177587 -0.081073 -0.011191 -0.655405 0.356562 0.368312 -0.112054 0.215315 -0.087986 -0.029458 -0.302875 0.358359 -0.034164
sent_40 0.086498 0.085817 -0.706313 -0.655171 0.546166 -0.178898 -0.032154 0.180549 -0.534313 -0.345161 -0.450828 0.085949 0.554180 -0.573384 0.450233 0.072574 -0.860093 -0.521431 -0.890939 -0.314844 -0.697609 -0.250911 -0.637497 -0.310236 0.083525 0.229820 -1.307935 0.165828 0.415296 -0.011767 -0.006151 0.377089 -0.341092 0.363127 -0.148481 0.809865 0.146445 0.426060 -0.178573 0.183453 -0.259514 0.519506 0.528119 0.250563 -0.000885 0.078489 0.390483 -0.540559 0.190170 0.256030
sent_41 0.592529 0.108191 0.332048 -1.448379 0.808802 1.460995 -0.376725 -0.143861 0.826788 0.366941 -0.781515 -0.215316 -0.278203 -0.245548 0.239237 -0.358081 -0.227322 0.059218 0.526524 0.036488 -0.365948 0.508134 -0.668231 -0.056571 -0.252659 -0.356216 -0.613759 -0.325747 -0.530939 -0.197915 -0.144278 0.050304 -0.663653 0.341851 -0.009725 0.239987 0.259360 0.372939 0.228962 -0.772992 0.027005 -0.262594 -0.258770 -0.274550 0.176370 -0.425347 0.438427 0.144709 0.116175 0.742726
sent_42 0.055471 -0.135301 -0.384985 -0.635535 0.854300 -0.296258 0.140554 -0.179190 0.350023 -0.553363 -0.079406 -0.088262 0.739691 0.090576 0.062481 0.278711 -0.103276 -0.385824 0.199444 0.099193 -0.445689 0.493624 -0.723912 0.527252 0.209200 0.539378 -0.460145 -0.046627 0.039834 0.179185 0.064965 0.028545 -0.123404 0.079635 -0.022901 0.180746 0.234229 0.109794 0.134749 -0.316911 -0.542222 0.113639 0.134817 0.163278 -0.392120 -0.399948 0.427478 -0.373479 -0.002618 0.494511
sent_43 0.418390 -0.499365 -0.465692 -0.307981 0.680211 -0.285304 -0.223405 -0.071387 0.087378 -0.400850 -0.202345 0.150405 0.177545 0.031011 -0.179638 -0.236736 -0.133336 -0.142035 0.216411 0.032753 -0.483616 -0.229602 -0.394075 -0.249092 -0.060109 -0.209160 -0.762717 0.030199 0.258431 0.285148 0.479499 0.289949 -0.099592 -0.200138 0.253422 0.035235 0.102688 -0.160677 -0.173934 -0.033745 0.104641 -0.679530 0.363364 0.038881 0.077025 -0.087086 0.070030 -0.559061 0.034261 0.488734
sent_44 0.023382 -0.197471 -0.610533 -0.198002 1.089856 -0.070492 0.142689 -0.572217 -0.043623 -0.426047 0.134860 0.168198 0.440412 -0.224035 0.270011 0.042054 -0.105180 -0.259773 0.041201 -0.207837 -0.250247 0.278098 -0.187550 0.525893 0.205491 0.255949 -0.079348 -0.075411 -0.165907 0.260538 0.139464 0.734057 -0.426791 0.297437 -0.060463 0.116939 0.133757 0.114094 0.311955 -0.161547 -0.702352 -0.062510 0.260452 -0.112875 -0.308704 -0.648432 0.595161 0.477635 -0.289063 0.508644
sent_45 -0.153876 0.012351 -0.312248 0.119469 -0.175778 -0.403628 -0.097865 0.083810 -0.483287 0.873085 -0.221255 -0.015877 -0.429443 1.077371 0.157580 -0.308717 1.079384 -0.232940 0.715684 0.103182 -0.075670 0.237118 0.457746 -0.694998 0.945755 -0.426924 -0.034011 -0.353321 -0.264902 -0.296813 -0.405861 -0.723236 0.752528 -1.580036 0.422173 -0.252889 0.467330 -0.262819 0.426121 0.299882 -0.088691 -0.729395 0.512727 0.928285 -0.227358 0.268757 -0.687045 -0.548235 -0.302925 -0.647042
sent_46 0.009858 0.406981 -0.307993 0.011435 -0.412591 -0.244762 -0.001601 0.468149 -0.543912 0.840996 -0.111591 0.237486 -0.374100 0.895524 -0.035483 -0.467664 0.282269 -0.179111 1.071721 0.127065 0.225368 -0.104933 0.198573 -0.153377 0.292258 -0.323046 0.545020 -0.011905 0.500650 -0.693842 -0.577813 -1.107830 0.890947 -1.247543 -0.155445 0.428662 -0.062262 0.085104 -0.014669 -0.057062 0.132521 -0.867737 0.085709 1.181992 -0.213225 0.512960 0.115827 0.007545 0.202379 -0.471442
sent_47 -0.479214 -0.086240 -0.796353 -0.194244 -0.580504 -0.220226 0.598981 0.278448 -0.932729 0.590849 0.233660 0.267199 -0.309056 0.936513 0.546421 -0.372006 0.732140 -0.405017 -0.128360 0.269428 0.408638 -0.163285 -0.029386 -0.392439 0.565983 -0.719799 -0.058344 0.486298 -0.366261 -0.566201 -0.695156 -1.463889 1.503722 -1.257212 0.038659 0.110317 0.047617 -0.878632 0.416855 -0.011003 0.534628 -1.075796 0.186040 0.578056 -0.018257 0.089508 0.041884 0.656468 0.163175 -0.840921
sent_48 0.292065 0.476330 -0.241772 0.326800 -0.715620 0.274275 0.206321 0.304745 -0.875468 0.988305 -0.609597 -0.359090 -0.780009 0.691012 -0.228954 -0.228052 0.633921 -0.193526 -0.311211 -0.484980 0.371053 -0.471492 0.140309 -0.614071 0.638040 -0.076933 -0.052626 0.310074 -0.534189 -0.653813 -0.727204 -1.034894 1.378208 -0.802521 -0.093505 0.592138 -0.531413 0.082613 -0.079081 0.262468 -0.417870 -0.553710 0.401042 0.140005 -0.549760 0.302605 0.494045 0.393621 -0.315429 -1.263621
sent_49 0.248689 0.302966 -0.406424 0.059434 -0.230774 -0.000520 0.144498 0.466480 -0.484689 0.701342 -0.073287 0.423074 -0.414131 1.084670 -0.151817 -0.491887 0.324303 0.000188 0.932108 0.155040 -0.133505 -0.074481 -0.058516 -0.318654 0.549645 -0.073657 0.479757 0.289562 0.408683 -0.461418 -0.721685 -1.566596 0.916006 -0.861627 -0.473757 0.354220 -0.193588 0.029018 -0.026971 0.294460 -0.090625 -0.195382 -0.026236 0.768024 -0.124240 0.598870 0.431342 -0.193670 0.045340 -0.486449
sent_50 -0.032811 0.196545 -0.411933 -0.138417 -0.245988 -0.180553 0.299925 0.382068 -0.400214 0.906295 0.100055 0.261580 -0.425410 1.160852 -0.149308 -0.141318 0.377197 -0.156020 0.369751 0.194098 0.291720 -0.345129 0.039465 -0.501691 0.344705 0.068609 0.467324 0.060234 -0.045677 -0.473501 -0.556462 -1.104541 1.012524 -0.758070 -0.098423 0.165850 0.019617 -0.033197 0.326779 0.008212 -0.051919 -0.782954 0.182771 0.375225 -0.283191 0.577190 0.138416 -0.142001 -0.035148 -0.706924
sent_51 -0.126136 0.303261 -0.124930 0.112579 0.096772 0.005683 -0.280135 0.508914 -0.107183 0.659892 -0.197580 0.250319 -0.366597 1.230260 -0.038918 0.079886 0.438731 -0.176551 0.434677 0.369966 0.025543 -0.119336 0.306022 -0.353139 0.202438 -0.342525 0.284815 0.016532 0.023889 -0.460848 -0.484267 -0.747390 0.736652 -0.685606 -0.291741 0.049195 0.242359 0.172368 0.550236 -0.083623 0.013203 -0.582575 0.190094 0.778842 -0.206500 0.285307 0.091624 -0.266881 -0.153101 -0.485002
sent_52 -0.332932 -0.352648 -0.661080 -0.067485 -0.663855 -0.328141 0.754388 0.519334 -0.946642 0.686363 0.387017 0.074597 -0.165011 0.890045 0.396830 -0.490297 0.727055 -0.274707 -0.030090 0.314532 0.111053 -0.172015 -0.190274 -0.131449 0.663239 -0.663921 -0.130204 0.615520 -0.276618 -0.902812 -0.684341 -1.556754 1.340621 -1.413765 -0.086475 0.155329 0.048902 -0.660216 0.538105 0.143772 0.521108 -1.268390 0.125278 0.478443 -0.010997 0.182005 -0.072741 0.448862 0.004849 -0.767965
sent_53 0.116630 0.035853 0.583408 0.420472 -0.074208 0.121470 -1.151034 -0.422942 -0.284528 -0.411961 0.197352 0.267547 -0.600221 -0.178306 -0.317659 0.391833 0.283283 0.431242 0.152182 -0.311315 0.360519 -0.295388 0.210436 -0.262694 0.383843 0.413026 -0.330669 0.253379 0.472271 0.328157 0.641259 -0.363195 -0.030072 -0.117437 -0.070118 0.464965 -0.592857 -0.265108 0.521600 -0.089397 -0.022157 0.927846 1.029550 0.794776 0.319559 0.952387 -0.359235 -0.454137 0.307049 -0.378226
sent_54 -0.415856 0.244375 0.510423 0.610330 -0.003057 0.257420 -1.357462 -0.229663 -0.427817 -0.536872 -0.287723 0.514814 -0.658720 0.184737 -0.538649 0.488138 0.741355 -0.023025 0.388290 0.033411 0.326646 0.452578 0.014783 -0.215859 0.378255 0.034094 -0.536167 -0.013033 0.381567 0.642329 0.354869 -0.214531 0.024049 -0.257334 0.394806 0.200913 0.019629 -0.341679 0.498443 -0.915265 -0.259635 -0.179273 0.755164 -0.439632 0.770614 0.554119 0.007724 0.165051 -0.145257 -0.370508
sent_55 -0.496496 0.136457 -0.016299 0.579013 -0.651925 -0.061335 -0.893775 -0.677628 -0.578603 -0.066305 0.048585 0.277425 -0.222882 0.894492 -0.094710 -0.342229 0.709374 -0.134646 0.125109 0.036809 0.126911 -0.242406 -0.321075 -0.363414 0.410862 -0.198440 0.242919 0.110954 -0.054335 0.311743 0.529997 -0.525344 0.295216 -0.725093 0.572119 -0.094616 -0.347989 -1.068674 0.598300 -0.157092 0.167791 -0.457875 0.836985 0.138186 1.094630 0.402138 -0.413177 0.222454 -0.035332 0.141746
sent_56 -0.293714 0.069461 0.570578 -0.001296 -0.184104 -0.202128 -0.741974 -0.536429 -0.183699 -0.306728 0.173867 0.348255 -0.521910 0.347112 -0.207232 -0.074525 0.276857 -0.031966 0.330667 -0.103560 0.187124 0.525162 -0.392390 -0.196442 0.061937 -0.154570 0.105163 -0.240026 -0.012386 0.521900 0.579451 -0.168820 0.097935 -0.252729 0.187858 -0.196507 0.141301 -0.683856 0.249294 -0.808949 0.063993 -0.156420 0.725393 -0.470495 0.997824 0.515966 -0.276320 -0.128748 -0.276286 0.045378
sent_57 -0.680413 -0.315999 0.940890 0.283458 0.076151 -0.201067 -1.133380 -0.076753 -0.534309 -0.952565 -0.221269 0.417562 -0.487128 -0.039389 -0.303140 0.376533 0.412503 0.118767 0.274663 -0.283220 0.577809 0.216438 0.019932 -0.842113 0.098097 0.391584 0.377023 0.105763 0.196496 0.546183 0.662214 -0.067010 -0.323521 -0.685459 0.270327 0.257283 -0.006794 -0.283817 0.397463 -0.829964 -0.157262 0.296753 0.629342 -0.494203 0.887639 0.511589 -0.432018 -0.053251 -0.061347 -0.058027
sent_58 -0.126802 -0.253074 -0.905317 0.063556 -0.361924 0.168644 0.304601 0.133911 0.020284 0.584600 -0.155504 -0.925205 -0.332444 -1.170944 -0.286792 0.736264 -0.101362 -0.302338 0.427000 -0.522595 0.096305 0.490970 0.233509 -0.250544 0.531600 0.050828 -0.310029 0.749489 0.876577 0.436599 -0.202343 0.267454 -0.788289 0.541445 -0.591868 0.162389 0.754665 0.673804 0.753498 1.099506 -0.333843 -0.145638 -0.541039 0.245680 -0.470083 -0.223610 0.449155 0.747718 0.438697 -0.244291
sent_59 0.153068 0.004827 -0.347072 0.174080 -0.291919 -0.352874 -0.292513 0.551879 -0.328062 0.213791 -0.128464 -0.613349 -0.786080 -0.476166 0.440533 0.400854 0.163689 -0.519891 -0.584079 0.022675 0.562378 -0.246959 0.372461 -0.965691 0.445755 -0.266697 -0.457772 0.112110 0.197191 0.232354 -0.456985 -0.452560 -0.317392 0.533813 -0.510598 0.237279 0.139226 0.431628 0.046389 1.005594 -0.314138 0.131298 0.046053 0.594939 -0.191018 -0.237706 -0.160364 -0.420622 -0.168894 -0.141872
sent_60 -0.208853 -0.567783 -0.913421 0.437357 -0.166822 0.163872 0.484190 -0.040168 0.335242 0.356368 -0.440173 -0.668296 -0.400787 -1.035899 -0.395585 0.281459 -0.299018 -0.275252 0.170360 -0.439361 -0.113294 0.380853 0.504192 -0.351567 0.854564 0.084822 -0.396432 0.834258 1.183208 0.913561 0.081733 0.614394 -0.544893 0.342135 -0.025796 0.545424 0.576888 0.612555 1.067216 1.002205 -0.275721 -0.193617 -0.007455 -0.017766 -0.607117 0.084421 0.033560 0.745459 0.264516 -0.658052
sent_61 -0.262466 0.741997 -0.407167 0.652874 -0.698885 -0.113659 0.310177 0.615398 0.429676 0.496583 0.538526 -0.591990 -0.215333 -0.646549 0.284659 -0.089566 0.058205 -0.752423 -0.239339 0.041924 0.837300 0.059280 0.772145 -0.904678 0.381579 0.190231 -0.378673 -0.066750 -0.129179 0.748230 -0.500948 0.121874 -0.080002 0.603336 -0.392530 0.414565 0.428535 0.086348 0.356024 0.474929 -0.245677 0.064637 -0.039092 0.682903 0.422470 -0.507309 0.425510 -0.355871 0.144663 0.111811
sent_62 -0.300230 -0.778879 -0.672875 0.772214 -0.312069 0.575179 0.258597 0.134123 0.355134 0.338505 -0.511067 -1.422842 -0.658840 -1.194456 -0.340966 0.615457 0.112421 0.147079 -0.152844 -0.520296 0.461744 0.430741 -0.089070 -0.358322 0.798965 0.356347 -0.153039 1.087462 1.630326 0.278947 0.269026 0.423683 -0.525339 0.913619 -0.800432 0.021727 1.110101 0.770590 0.571095 0.385070 0.110770 0.074587 -0.502627 0.219321 0.132418 -0.644076 0.011682 0.356121 0.106134 -0.499621
sent_63 -0.294478 -0.425924 -0.385781 0.403875 0.100763 -0.022350 0.022700 0.526461 0.104463 0.043190 0.051946 -0.789777 0.185262 -0.341449 0.263981 0.700209 -0.158184 -0.363459 -0.037813 -0.506315 0.489068 0.211196 0.202402 -1.093803 0.198220 0.443035 -0.080609 0.418396 0.547418 0.709116 0.197907 0.089927 -0.587921 0.780957 -0.242908 0.389207 0.765379 0.329300 0.729808 0.757496 -0.405871 0.139635 -0.348085 0.252620 0.200592 -0.327592 0.167937 0.450855 0.469282 -0.549784
sent_64 0.047661 0.636390 0.937644 0.031837 0.336747 0.438013 -0.105352 -0.330551 0.149846 0.402246 -1.380196 0.078988 -0.487269 0.041484 -0.224351 0.108531 -0.055569 0.105912 -0.226377 1.170773 0.079695 -0.081718 -0.917663 0.241762 0.622646 0.629816 -0.871338 0.046833 -0.284030 0.441416 -0.376176 -0.548985 0.089031 0.700508 -0.775455 0.507397 0.476867 0.579929 -0.314051 -0.133661 0.440176 -0.091541 0.138714 -0.376507 -0.577000 -0.843361 -0.065831 0.119229 -0.226812 -0.316055
sent_65 0.374686 0.882381 1.045094 -0.321688 -0.229083 0.633060 0.298528 -0.311340 0.733294 -0.087925 -0.926482 -0.037029 -0.471584 0.420866 -0.020869 -0.044592 0.387047 0.254552 0.074999 0.626811 -0.123899 0.520245 -0.926742 -0.009980 0.199736 0.473728 -0.181245 -0.160161 -0.149009 0.645540 -0.285076 -0.497970 -0.085164 0.350825 -1.088312 0.140723 0.756594 0.093692 -0.059157 -0.090969 0.768183 -0.344816 -0.053906 0.087745 0.223650 -0.404006 -0.662686 0.246540 0.121727 0.360217
sent_66 0.459101 0.062884 0.813326 0.212557 -0.216958 0.337621 -0.027597 -0.000309 0.730826 -0.977771 -1.028196 0.020868 0.056665 0.757126 -0.240510 -0.576953 0.171954 0.498369 -0.327766 0.233572 -0.263929 -0.442746 -0.198734 -0.107381 0.379034 -0.035433 -0.518553 -0.711856 -0.004721 0.526006 -0.363249 -0.136240 0.441162 -0.324934 -0.641271 0.316266 0.771079 0.366115 -0.361787 0.261677 0.993012 -0.206919 -0.421646 0.454337 -0.126751 -0.751162 -0.143219 -0.368992 0.323351 0.329738
sent_67 0.070292 0.506407 1.092344 0.141706 0.525827 0.415053 -0.297058 -0.189584 0.236189 0.423365 -1.161512 0.217130 -0.738357 0.421050 0.108830 -0.093129 0.096220 0.221619 0.172107 1.084908 0.140503 0.135556 -0.683490 -0.039104 0.510779 0.412101 -0.630762 -0.256789 -0.080136 0.486811 -0.367438 -0.342872 -0.024279 0.728919 -1.003338 0.629110 0.200865 0.743593 -0.451988 -0.169539 0.615769 0.009465 0.174991 -0.594650 -0.892233 -1.031345 -0.381889 0.059454 -0.078515 -0.391376
sent_68 0.556748 0.360907 0.966431 -0.025539 -0.096323 -0.344786 0.097665 0.095452 0.146021 -0.260851 -0.409932 -0.003222 -0.272372 0.109284 0.112390 -0.123682 -0.018802 0.056324 -0.362953 0.642519 0.053753 -0.019077 -0.786818 -0.156371 0.635530 -0.139854 -0.203663 -0.330388 -0.280646 0.357126 -0.041752 -0.174669 -0.221632 0.134309 -0.474745 0.130865 0.104340 0.325740 -0.127678 -0.093781 0.778829 0.366830 0.234604 -0.110489 -0.257910 -0.326010 -0.777165 0.402672 0.183189 0.364440
sent_69 0.259060 0.628974 0.858524 0.030655 0.085107 0.382126 -0.214047 0.039492 0.306758 -0.556344 -1.077780 0.274066 -0.132783 0.513255 0.047948 -0.201103 0.141807 0.009379 0.176213 0.456904 0.088859 0.364272 -1.074156 -0.058274 0.343804 0.220750 -0.279247 -0.381575 0.012840 0.764610 -0.182704 -0.226407 -0.387904 0.190248 -0.619695 0.304446 0.389236 0.159656 -0.318306 -0.236895 0.632786 0.145803 0.320127 -0.176945 -0.378401 -0.710427 -0.184287 0.119125 0.160119 0.578430
sent_70 0.441305 0.119897 0.751470 0.151266 0.293044 0.200344 0.246503 -0.045103 0.312185 -0.452840 -0.744857 0.014016 -0.429097 0.800153 0.057944 -0.105928 -0.133065 0.060976 0.071245 0.217124 0.368899 0.247478 -0.593624 -0.088270 -0.010995 0.007882 -0.213078 -0.389649 -0.100651 0.328556 0.016626 -0.540084 -0.661636 0.662528 -0.491988 0.652027 0.231230 0.324768 -0.225442 -0.416843 0.792061 -0.322767 0.052770 -0.202158 -0.089954 -0.715173 -0.087776 -0.192753 0.309718 0.139748
sent_71 0.174214 -0.101406 0.185133 -0.034025 -0.994900 -0.190803 -0.330037 -0.501063 -0.253567 0.432535 -0.685972 -0.169565 0.014532 -0.361087 -0.453610 -0.148103 0.088221 -0.536263 0.843791 0.164924 -0.100764 0.570251 0.066321 -0.054399 0.006507 0.626916 -0.205030 0.700518 -0.154615 -0.155166 -0.480692 0.130773 -0.080770 -0.351490 0.272566 0.279303 0.077887 -1.143145 -0.264799 -0.173512 -0.179992 0.259892 -0.072156 0.248190 0.266428 -0.429126 0.071816 0.602469 0.463545 -0.313408
sent_72 0.349384 -0.282164 0.090608 -0.311969 -0.940546 0.194834 -0.153128 -0.932454 -0.529760 0.592862 -0.474901 0.216554 -0.429619 0.524458 -0.308629 -0.176789 1.062107 -0.641555 0.639801 -0.358839 -0.609726 0.272848 0.422133 -0.663322 0.938512 0.014141 -0.055304 0.257502 -0.459989 -0.149600 -0.172662 -0.103002 0.346440 -0.918143 0.331157 -0.489646 0.546563 -1.017681 -0.045963 0.445552 -0.095484 -0.144196 0.301006 0.645337 0.103491 -0.285496 -0.428709 0.046233 -0.287781 -0.208234
sent_73 0.624620 -0.297560 0.255603 -0.253108 -0.759893 -0.049988 0.219188 -0.896828 -0.696584 0.399339 -0.431819 0.010697 -0.457260 0.203420 -0.626250 -0.498568 1.270214 -0.673025 0.764122 -0.257992 -0.300906 0.157795 0.387091 -0.632471 1.023746 0.269697 -0.465256 0.259312 -0.357523 -0.099111 -0.459667 0.092419 0.268581 -1.167827 0.501286 -0.585315 0.849014 -0.987157 -0.067311 0.228117 -0.125746 -0.152420 0.745953 0.834229 -0.155561 -0.189748 -0.519842 -0.026537 -0.091778 -0.350322
sent_74 0.500778 -0.377528 0.217963 -0.145550 -0.636388 0.062435 -0.166147 -0.628397 -0.416392 0.572360 -0.954070 0.207585 -0.105112 -0.200457 -0.200359 -0.300686 0.157024 -0.533887 0.279506 -0.237211 -0.103551 0.429720 0.006179 -0.166588 -0.236977 0.401020 0.159255 0.622215 -0.198365 0.027992 -0.593554 -0.025396 0.390332 -0.275575 0.203506 0.232369 0.097870 -0.797827 -0.686373 0.063467 -0.381475 -0.226484 -0.032170 0.433746 0.399758 -0.627953 0.179191 0.719981 0.049512 -0.132880
sent_75 0.751490 0.272178 0.525911 -0.206899 -0.554969 0.182748 -0.373873 -0.063399 0.145527 1.084500 -0.853276 0.187277 0.025355 0.439163 -0.308007 -0.787541 -0.070909 -0.162263 0.537455 -0.936277 -0.806538 -0.136169 0.559571 -0.319366 0.102346 0.010463 -0.255608 0.346411 0.378778 0.135823 -0.604067 0.588802 0.182955 0.635256 -0.020776 -0.615180 0.602889 -1.068223 -0.662575 -0.329301 -0.239912 -0.021607 0.577674 0.355088 0.027527 -0.223536 0.007614 0.052233 0.000064 0.164250
sent_76 0.322058 0.200574 0.433000 -0.028888 -0.419495 0.157998 0.220136 -0.413189 -0.274680 0.155469 -0.340477 0.032150 0.226736 -0.464810 -0.319993 -0.199088 -0.223069 -0.494721 0.203729 -0.246564 0.121857 0.527408 0.152503 -0.379716 -0.128373 0.686646 0.164693 0.367208 -0.004959 0.001096 -0.274434 0.315075 -0.352048 -0.195203 -0.096558 0.413146 0.313593 -0.528309 -0.263842 -0.132607 0.228160 0.461059 -0.000632 0.385767 -0.102796 -0.307041 -0.096408 0.536104 -0.092996 0.407779
sent_77 0.340156 -0.153851 -0.100228 -0.157623 -0.778751 0.176733 -0.042374 -0.867828 -0.412236 0.601139 -0.709669 0.163460 -0.574011 0.412439 -0.651181 -0.477887 1.144053 -0.605295 0.616581 -0.461453 -0.506371 0.219235 0.451231 -0.435843 0.973065 0.244684 -0.010369 0.262920 -0.390216 -0.002545 -0.208132 -0.233626 0.266947 -1.027364 0.357718 -0.383788 0.787214 -0.955484 -0.136841 0.314351 -0.038524 -0.018193 0.191698 0.692130 -0.158454 -0.294697 -0.539077 0.115734 -0.073670 -0.230525
sent_78 -0.293622 0.147354 0.526730 0.209067 -0.006438 -0.032271 -0.240987 0.199534 0.282278 -0.019880 -0.399789 -0.474194 -0.099109 0.384565 -0.444824 -1.609724 0.272615 0.227374 -0.377726 0.565056 -0.539189 0.485501 0.059123 -0.430734 0.786640 0.003858 -0.767571 -1.035365 0.232646 0.412897 0.236520 0.410002 0.478132 -0.023192 -0.197666 0.156212 0.610097 0.105891 -0.118672 -0.117016 0.385830 -0.477505 -0.112825 -0.791582 -0.191973 -1.028548 -0.175092 -0.214815 -0.823601 0.268894
sent_79 -0.205100 0.186879 0.752129 0.187866 0.352804 0.320122 -0.688487 0.834406 -0.542166 -0.372231 -0.696044 -0.371457 -1.018552 -0.042811 -0.497173 -0.888122 0.479249 0.937882 -0.508255 0.269289 -0.449233 -0.163610 0.350681 0.211099 0.379750 0.137808 -0.976123 -0.694573 -0.071810 0.369846 -0.191647 0.006039 0.222772 0.012248 -0.156479 1.480843 0.328653 0.366597 0.636528 -0.167076 0.580541 -0.054856 -0.369962 -0.650085 -0.406659 -0.481982 -0.906015 0.556939 -0.518887 -0.260269
sent_80 0.141727 0.462613 0.507333 -0.053970 0.622847 0.157705 0.407586 0.189506 -0.042990 0.034877 -0.384814 -0.403865 -0.908473 0.105902 -0.233733 -0.924658 -0.390069 0.836999 -0.382308 0.169024 -0.079465 0.234203 0.081409 -0.323500 0.290376 0.103859 -0.050852 -0.897007 -0.236296 0.302617 -0.389847 0.822540 -0.020432 0.517701 -0.258868 0.504130 0.123079 0.390645 0.554066 0.038038 0.178332 0.001343 -0.396669 -1.147454 -0.512267 -0.655033 -0.619482 0.134821 -0.375390 -0.035603
sent_81 -0.016498 0.273223 0.385532 0.069047 0.388318 0.279507 0.020982 0.149965 0.211708 -0.066722 -0.702943 -0.729113 -0.515667 0.428384 -0.373075 -1.079131 -0.222387 0.172731 -0.311877 0.611347 -0.208189 0.480911 -0.355583 0.054930 0.601255 0.289862 -0.571212 -0.944989 -0.136778 0.176091 -0.531175 0.365098 0.126053 0.357775 -0.602170 0.951922 0.088399 0.058313 -0.009955 -0.333403 0.345386 -0.487675 -0.380917 -0.792803 -0.326728 -1.129223 -0.372992 -0.036781 -0.393843 0.007542
sent_82 0.092101 0.348300 0.514029 0.032824 0.310473 0.039256 -0.022681 -0.205317 0.170996 -0.286431 -0.367205 -0.148681 -0.513489 0.136638 -0.199785 -1.051247 0.088118 0.306607 -0.266100 0.754123 -0.202805 0.480971 -0.331147 0.216493 0.584234 0.152620 -0.406962 -0.616094 -0.184168 0.223367 -0.254100 0.547307 -0.145910 0.329710 -0.757917 0.817260 0.634334 0.136049 0.208968 -0.471991 0.581407 -0.173089 0.140114 -0.524251 -0.253854 -0.667868 -0.358570 0.311522 -0.441875 0.128272
sent_83 -0.420622 0.264248 0.588578 0.445395 -0.157981 -0.109211 -0.715649 0.248338 -0.198372 -0.318376 -0.098412 -0.132804 -0.312176 0.216652 -0.610508 -1.129826 0.174781 0.743130 -0.323289 0.358394 -0.392369 0.463736 0.059949 0.156394 0.584134 0.085020 -0.356584 -0.886235 0.164324 0.422502 -0.105813 0.135541 0.219144 0.324362 -0.506557 0.403401 0.444223 0.277420 0.335197 -0.113086 0.859263 -0.029303 -0.398665 -0.280790 0.259157 -0.548863 0.167076 0.390211 -0.559186 0.087319
sent_84 0.050181 0.440947 0.447146 -0.010783 0.204545 0.233422 -0.185850 -0.117874 0.171188 -0.241782 -0.322082 -0.280697 -0.433612 0.099859 -0.292947 -1.053121 0.045392 0.381320 -0.455194 0.562857 -0.266529 0.316833 -0.312055 0.118693 0.484215 0.231736 -0.364429 -0.617603 -0.095939 0.129198 -0.492124 0.529532 -0.063319 0.363770 -0.648330 0.572496 0.527705 0.204081 0.207334 -0.247897 0.510455 -0.313623 -0.085886 -0.513620 -0.399710 -0.697524 -0.222222 0.426395 -0.445461 0.270746
sent_85 0.104755 0.413044 0.495597 -0.154892 -0.556257 -0.272542 -0.283609 -0.710768 0.599907 0.685241 0.164970 -0.388257 0.145226 0.080886 0.289968 -1.112671 0.232334 0.147288 -0.011685 -0.343063 -0.020194 0.593880 0.015783 -0.755764 -0.528174 -0.220507 -0.277485 -0.019045 0.159348 0.433116 -0.617257 0.265978 0.113691 0.040702 -0.482023 0.645717 0.103963 0.498772 0.283539 -0.353632 -0.133236 -0.418218 -1.084416 0.325500 -0.485120 -0.044429 0.177140 0.289060 -0.373275 -0.026764
sent_86 -0.266975 0.579503 0.103292 -0.053960 -0.812423 -0.351199 0.180948 -0.492294 0.211048 0.426882 0.363172 -0.926454 0.139237 0.020952 0.597007 -0.932030 0.312793 -0.073156 -0.230429 -0.329815 0.422090 0.494598 -0.131429 -1.000046 -0.370362 -0.198137 -0.712936 -0.219248 0.041633 0.429031 -0.672958 0.423719 0.316005 0.228938 -0.195384 0.365862 0.150112 0.595923 0.384643 -0.365253 -0.302701 -0.072316 -0.992057 0.134768 -0.157592 -0.285135 0.092885 -0.132376 -0.516941 -0.012465
sent_87 -0.359459 0.564867 0.313262 0.110223 -1.205303 0.017234 0.037651 -0.491346 0.158419 0.442052 0.348609 -0.469642 0.723933 0.189219 0.391970 -0.943718 0.035644 0.570531 -0.508004 -0.395126 -0.252326 0.651810 -0.032742 -0.999980 -0.329099 -0.141932 -0.471313 -0.137266 -0.220258 0.440402 -0.426157 0.310174 0.481391 -0.490821 0.326966 1.190872 0.144697 1.273635 0.099754 -0.244623 -0.188809 -0.240118 -0.978010 0.064742 -0.782442 -0.345763 0.821981 0.411901 -1.440613 -0.669881
sent_88 0.230048 0.397450 0.726953 -0.236577 -0.713915 0.172588 0.171353 -0.226378 -0.172563 0.492376 -0.119622 -1.131375 0.453623 0.463441 -0.228680 -0.426446 -0.283862 0.551509 -0.301239 -0.848045 0.027647 -0.027443 0.040151 -1.491602 -0.316641 0.057900 -0.330238 -0.155696 -0.009737 0.234157 -1.033405 0.503977 0.349180 0.298583 0.495095 0.611386 -0.147819 0.834245 0.007877 -0.108109 -0.183943 0.231268 -0.698898 -0.115190 -0.438750 -0.280046 -0.025203 0.266340 -0.869148 -0.556405
sent_89 0.241970 0.123688 0.091436 -0.239536 -0.528518 -0.598266 0.028217 -0.273357 -0.105039 0.352422 -0.258556 0.198804 0.503650 -0.140484 0.510585 -1.142881 0.306707 0.328263 0.112126 -0.530876 0.003422 0.816611 0.182966 -0.559971 -0.514838 -0.110241 0.295326 -0.217527 0.564010 0.725308 -0.138605 0.256615 0.335292 -0.119383 -0.184264 0.809487 0.632220 0.605322 0.092906 -0.206711 0.113467 -0.871169 -0.951322 0.681469 -0.756393 -0.413924 0.359471 0.111108 -0.472615 -0.019336
sent_90 -0.325649 0.662138 0.234310 -0.167270 0.060701 -0.506348 0.403594 -0.170983 0.139206 0.780281 0.201527 -0.947423 0.050311 0.153736 0.415128 -1.471661 0.174114 0.049749 -0.128863 -0.259650 0.336302 0.245591 -0.008969 -1.602220 0.017024 -0.162202 -0.507562 -0.402074 0.175226 0.429774 -0.691400 0.247131 0.134511 0.486782 -0.260275 0.606298 -0.015918 0.879744 0.124854 -0.006320 -0.022697 -0.096224 -1.045401 0.235814 -0.171702 -0.244819 -0.047329 -0.398077 -0.904759 -0.179079
sent_91 0.366845 0.262268 -0.443542 -0.274689 -0.396306 -0.561786 -0.051312 -0.506703 -0.108631 0.073086 0.247388 -0.446192 -0.004326 0.070977 -0.180988 -0.855315 0.465308 0.154510 0.137749 -0.201486 -0.086126 0.717259 0.283977 -0.982983 -0.540445 -0.117960 -0.709356 -0.392408 0.669858 0.708922 -0.335848 0.385865 0.014005 -0.444590 -0.039222 0.747678 0.004493 0.395835 0.231273 0.012407 0.695912 -0.817749 -1.009044 0.683658 -0.247132 -0.127686 0.280159 -0.179343 -0.601673 -0.037412
sent_92 -0.156515 0.561543 0.037902 -0.241049 -0.559962 -0.188012 -0.202993 -0.276807 0.278461 0.171235 0.294333 -0.401957 0.285895 -0.011356 0.134829 -0.490595 0.280632 0.305297 -0.093048 -0.262523 0.070380 0.771972 0.077898 -0.361834 -0.337185 -0.216355 -0.237671 -0.113629 0.307481 0.189517 -0.547316 0.163081 0.270972 -0.429372 -0.300977 0.488774 0.254201 0.680704 0.300286 -0.153153 0.182243 -0.182917 -0.797220 0.296595 -0.114040 -0.047361 -0.087953 0.184619 -0.311495 -0.258578
sent_93 0.427926 0.543086 0.006331 0.097928 -0.909901 -0.195160 -0.148549 -0.497269 -0.162997 0.458061 0.751290 -0.300659 0.878973 -0.184479 0.106930 -0.548804 0.339158 0.700226 0.134659 -0.314808 -0.009945 0.643092 -0.091202 -0.584528 -0.299501 -0.140114 -0.388545 0.061224 0.545886 0.105353 -0.609277 0.051662 0.525672 -0.519999 -0.292957 0.589732 0.343750 0.567258 0.338029 -0.146415 -0.078415 -0.040596 -1.124777 0.560467 -0.388392 0.174088 -0.208107 0.279115 -0.510138 -0.265045
sent_94 -0.251484 -0.204836 -0.496039 -0.111474 0.226880 0.562683 0.647426 0.174091 0.105593 -0.213756 0.517769 -0.213837 0.066896 0.159254 0.037452 -0.293207 -0.619163 -0.223220 0.317302 0.425137 0.003304 -0.180809 0.080366 0.070475 -0.012573 0.083699 0.110913 0.188393 0.226985 0.246157 -0.455558 0.047910 -0.378680 -0.225420 0.427920 -0.278421 0.529189 0.150509 0.011805 -0.148826 -0.290879 -0.246042 -0.044632 0.063606 0.279320 -0.416909 0.471849 -0.156428 -0.038579 0.013316
sent_95 -0.363096 0.117852 -0.661355 -0.067692 0.106607 0.222362 0.210521 0.256536 0.200332 -0.198975 0.176523 -0.021316 -0.256889 -0.475511 0.156107 -0.117578 -0.202869 -0.432062 0.137413 0.198898 0.315033 -0.014795 0.085074 -0.086689 0.041097 0.137846 0.184509 0.047836 0.101689 0.728376 -0.296664 0.275534 -0.244415 0.068145 -0.108470 -0.149459 0.538411 0.075751 0.007254 0.096658 -0.427711 0.159189 -0.127973 -0.158295 0.160050 -0.087991 0.355775 -0.158968 -0.141935 -0.161639
sent_96 0.126276 0.642746 -0.114955 -0.465463 0.616633 0.670226 0.077479 -0.033382 0.188096 0.210776 0.312949 0.493510 -0.341695 -0.134192 -0.045135 -0.361088 -0.714118 -0.168218 0.037515 0.217674 -0.006859 0.292744 0.030603 0.259175 -0.895453 -0.363236 0.715099 0.235505 0.175086 0.095721 -0.847614 0.534541 0.362195 -0.972156 0.251987 -0.199816 0.339452 -0.068343 0.417997 0.595041 0.667820 -0.124757 0.087051 -0.197561 -0.207723 -0.123031 -0.255721 -0.147466 0.280260 0.076953
sent_97 -0.483321 -0.803869 -0.573094 0.910675 -0.309905 1.224880 0.432432 -0.022850 0.109456 0.093470 -0.458629 -1.021603 -0.533898 -1.608726 -0.542751 0.795858 0.476748 0.470935 -0.114483 -0.326867 0.108931 0.548445 -0.194041 -0.060750 0.971075 0.354520 -0.091664 0.891146 1.253454 0.011971 0.018816 0.913495 -0.618407 0.674326 -0.551262 -0.233675 1.233058 0.600475 0.585276 0.171849 0.439906 0.132394 -0.811099 0.108297 0.081482 -0.853871 0.625956 0.611361 -0.052541 -0.255434
sent_98 -0.419698 -0.095474 -0.835404 -0.136969 0.311495 0.689397 0.315559 -0.083491 -0.016204 -0.234869 0.031979 -0.020556 0.086615 -0.441272 -0.344827 0.368511 -0.271779 0.047247 0.284509 0.248385 0.129331 0.157456 0.144464 -0.027156 0.439430 0.168883 0.260475 0.120993 0.580536 0.608551 -0.399934 0.534189 -0.634873 0.209379 -0.000052 -0.557014 0.878431 0.200563 0.362863 0.188943 -0.114092 -0.320273 0.029599 -0.103557 -0.465893 -0.424931 0.673724 0.610797 -0.107532 0.117118
sent_99 0.339331 -0.492076 -0.266804 -0.276277 0.165358 0.139179 0.067887 0.073059 0.078669 -0.677524 0.537863 0.523742 -0.358172 0.310615 0.319515 -0.608418 -0.585831 0.114439 0.757871 -0.027527 -0.029029 -0.167929 0.140781 0.222473 0.483172 0.007496 0.030262 -0.179937 0.245713 0.325236 -0.479382 -0.232252 -0.457231 0.024492 0.400979 -0.080653 0.238231 -0.007405 -0.247949 -0.372387 -0.140724 -0.117388 -0.461009 0.043649 -0.056148 -0.617568 -0.013696 -0.463319 -0.209243 -0.015423
sent_100 0.124892 0.405302 -0.037824 -0.128390 0.272706 0.475518 -0.362984 0.317510 0.281555 0.418590 -0.243404 0.081767 0.134044 0.606558 0.196553 -0.727048 -0.086088 0.261920 0.375114 -0.097687 -0.734420 -0.301576 0.473244 -0.021715 0.243109 -0.543063 -0.447856 -0.101690 0.410666 0.031353 -0.653114 -0.071743 -0.188724 0.407621 0.070454 -0.924875 0.810706 -0.665927 0.013086 -0.509681 0.002710 -0.767168 0.702486 0.398984 0.105278 -0.077595 -0.046146 0.031346 0.073474 -0.240885
sent_101 -0.591131 0.460464 1.104964 0.224327 0.131007 -0.636095 -0.427877 0.055321 0.322310 -0.131917 -0.546314 0.096460 -0.074738 0.959773 0.269001 -0.662986 0.591646 0.453690 0.395153 0.551955 -0.266972 0.007449 -0.759949 -0.049015 0.218805 0.445462 -1.092977 -0.459212 -0.501637 1.155734 0.292648 -0.485613 0.087677 -0.259226 -0.341381 1.280469 1.102648 0.221118 -0.062062 -0.147390 0.446207 0.175681 -0.189000 -0.362859 -0.103510 -0.037818 -0.636217 0.496726 -0.451433 0.319545
sent_102 -0.385036 0.338512 0.633223 0.065378 0.262657 -0.482010 0.151309 -0.041462 0.289238 -0.133718 -0.841195 -0.391235 0.092051 0.700563 0.247058 -0.556173 0.294869 -0.123469 0.405186 0.943464 -0.152529 0.233270 -0.684581 -0.819037 -0.272853 0.178091 -0.862424 -0.717478 -0.616615 0.807993 0.398922 0.097882 0.013215 0.390787 -0.660290 1.163250 0.835725 0.114146 -0.195465 -0.423906 0.577098 0.074728 -0.140974 -0.658849 -0.147788 -0.445795 -0.657407 -0.538481 -0.346432 0.291909
sent_103 -0.750462 0.260310 1.140794 0.158730 0.193906 -0.530255 -0.474620 0.147200 0.492354 -0.322793 -0.378767 -0.041224 -0.189328 0.763788 0.244733 -0.545714 0.466844 0.270111 0.313466 0.470078 -0.157676 0.040473 -0.694306 -0.024235 0.120022 0.362052 -1.015347 -0.402593 -0.548922 0.943460 0.325274 -0.463473 0.235928 -0.168973 -0.100312 1.340136 0.885891 0.081880 0.196726 -0.246837 0.421253 0.332575 -0.316746 -0.335822 -0.030989 -0.205824 -0.491213 0.392763 -0.391115 0.062999
sent_104 -0.356496 0.471690 0.193497 0.265159 0.455855 0.204002 0.052127 -0.478102 0.325696 0.141435 -0.813422 -0.397448 -0.214808 0.565866 0.307531 -0.785703 0.510596 0.062506 0.185267 1.189882 -0.259303 0.526202 -0.701573 -0.824882 -0.136891 0.114988 -0.916947 0.124023 -0.945249 0.754870 0.451466 0.906715 0.361920 0.298866 -0.579423 1.026883 0.645791 0.373001 0.141528 -0.484350 -0.000468 0.022325 -0.761442 -0.200691 -0.086075 -0.695548 -0.182922 0.094799 -0.351088 0.409823
sent_105 0.330899 -0.361783 0.554416 0.676265 -0.326460 -0.283521 0.298280 -0.241823 -0.105225 -0.625876 -1.031746 0.285339 -0.678287 0.996803 0.285078 -0.824194 0.596249 -0.170750 0.576479 0.213699 -0.536992 0.600351 -0.327873 -0.892151 0.475742 -0.014318 -0.971946 -0.383298 -0.344855 1.544389 0.158415 0.897698 -0.966048 0.251595 -0.292917 0.791889 0.452829 0.018884 0.663320 0.354618 0.518780 -0.758238 0.237643 -0.293484 -0.250049 -0.691822 -1.218513 -0.511528 -0.859476 0.411931
sent_106 -0.136620 0.354761 1.005332 -0.278588 -0.214201 0.012123 -0.743603 0.014097 0.181759 0.035197 -1.380167 -1.074263 -0.083281 0.861423 0.472963 -0.709986 -0.627736 0.428235 0.442624 0.980076 -0.755546 0.315709 -0.682099 -1.044964 0.093754 -0.029585 -0.933116 0.443127 -0.437950 0.490593 0.036991 0.046229 -0.286019 0.701515 -0.913171 0.537258 0.570252 -0.228420 0.123022 -0.069263 0.313543 -0.132966 0.030967 -0.703843 -1.162515 -0.782561 -0.900467 -0.148938 -1.461542 0.254610
sent_107 0.453304 0.616944 -0.830045 0.391010 0.745222 -0.129012 -0.428379 0.382543 -1.026581 -0.121312 -0.352237 -0.488940 0.370459 0.007720 0.730027 0.282898 -1.354645 -0.745314 -0.706092 0.064830 -0.474181 0.084623 -0.487918 -1.267588 0.230084 0.352086 -1.024647 0.518249 0.265680 0.697070 -0.427332 0.207545 -0.211137 -0.157109 -0.606571 0.643805 -0.263624 0.210608 -0.067291 0.260688 -0.357527 1.050188 0.536288 0.888340 0.055109 0.604117 -0.696940 -0.141817 0.038005 -0.858968
sent_108 0.420256 0.404581 -0.704530 0.697314 0.559762 -0.077084 -0.189236 0.433170 -0.834227 -0.122713 -0.547563 -0.338443 0.696913 0.254193 0.713149 0.154551 -1.004299 -0.511097 -0.678081 -0.141250 -0.589142 0.323856 -0.544479 -1.161545 0.022161 0.360064 -1.237760 0.300975 0.259283 0.454063 -0.671908 0.148685 -0.126749 -0.131421 -0.342296 0.697724 0.049842 -0.020624 -0.126651 0.381009 -0.394784 0.932377 0.240013 0.547698 0.020289 0.320333 -0.659737 -0.165328 -0.035232 -0.653570
sent_109 0.039720 0.309681 -1.080037 0.463960 0.708804 0.205135 -0.768363 0.628522 -1.382369 -0.084326 -0.324411 -0.148373 1.008076 0.339808 0.623810 0.220452 -1.609833 -0.699292 -0.882168 -0.268658 -0.755446 0.404558 -0.868331 -1.141602 -0.067633 0.309397 -1.370859 0.520646 0.819948 -0.005019 -0.216010 -0.038254 -0.330271 0.434489 -0.244614 0.327459 0.097971 0.138756 -0.386164 0.455630 -0.325420 1.130689 0.301841 0.398664 0.100247 1.059374 -0.404736 -0.537482 0.052009 -0.117397
sent_110 0.183166 0.509070 -0.832940 0.517965 0.495754 0.381634 -0.376412 0.304024 -0.133928 -0.608219 -0.282315 -0.157191 0.832660 -0.206943 0.365239 0.072980 -0.805135 -0.163215 -0.616607 0.142328 -0.210626 0.216478 -0.271405 -0.484176 0.135825 -0.080963 -1.411946 0.638857 0.132383 -0.056398 0.275994 -0.155521 0.362405 -0.630351 -0.321649 0.638837 0.688375 0.104885 -0.489160 0.276286 -0.525231 0.402051 0.150370 0.478642 0.097855 0.788945 -0.647039 -0.105738 0.054054 -0.472675
sent_111 -0.025235 0.036746 -1.329895 0.709342 0.965015 0.012014 -0.425556 0.249296 -1.589044 0.387388 -0.807389 -0.630581 0.831071 0.029745 0.571770 0.149792 -1.417713 -0.928599 -1.051770 -0.542846 -0.363215 -0.390255 -0.631623 -0.637362 0.105489 -0.196084 -1.605448 0.898407 0.787221 0.391855 -0.184750 0.329097 -0.389697 0.406821 -0.723635 0.471614 0.091785 0.300532 -0.648804 0.499034 -0.167380 1.321195 -0.113093 0.288333 0.211158 1.178251 -0.399552 -0.565191 -0.423972 -0.215472
sent_112 0.158733 0.127134 -0.333448 0.356466 1.021777 -0.296236 -0.277387 0.258605 -0.782025 -0.072402 -0.388134 -0.174316 0.694018 -0.012450 0.646818 -0.009065 -1.201119 -0.542998 -0.786239 0.073777 -0.755805 -0.126447 -0.440749 -1.395322 0.133957 0.314735 -1.347235 0.557080 -0.011021 0.067920 -0.159862 0.131077 0.594131 -0.000747 -0.110487 0.040504 -0.119625 0.323539 -0.113154 -0.214130 -0.070651 1.049274 0.631303 0.932396 -0.025164 0.765069 -0.590682 -0.264845 -0.326400 0.069048
sent_113 0.287886 0.286145 -0.713879 0.155024 0.247459 0.338156 -0.725189 0.517626 -0.788397 -0.064982 -0.318122 -0.511136 0.148914 -0.070308 0.362808 0.563008 -1.168792 -0.734107 -0.383874 -0.563097 -0.229619 -0.346942 -0.808290 -1.162641 -0.131029 0.013367 -0.801141 0.023617 0.486030 0.243599 -0.236770 0.000066 -0.199960 -0.308231 -0.405624 0.835999 -0.157461 0.121915 -0.282666 0.367075 -0.310517 0.666461 0.687752 0.392166 0.282546 0.679481 -0.829907 -0.378283 0.195510 -0.932640
sent_114 0.285644 0.230152 -0.636661 0.212160 0.078367 0.349368 -0.860049 0.341491 -0.990630 0.001510 -0.401613 -0.668080 0.311766 -0.004621 0.326164 0.597550 -1.195245 -0.635328 -0.353608 -0.695545 -0.235392 -0.218163 -0.932448 -1.109436 -0.101528 0.192291 -0.995185 0.008805 0.732985 0.075178 -0.223391 0.073774 -0.434410 -0.139379 -0.664035 0.924560 -0.061339 0.072546 -0.320168 0.361741 -0.216361 0.650968 0.581720 0.370733 0.139202 0.849668 -0.642978 -0.365980 0.341689 -0.884434
sent_115 0.238664 0.343408 -1.117582 0.405882 0.632197 0.386495 -0.990691 0.836802 -1.525774 -0.051198 -0.266219 -0.377478 0.765046 0.431955 0.558290 0.599916 -1.667861 -0.831004 -0.775943 -0.530738 -0.578836 -0.251642 -0.985916 -1.361489 -0.157786 0.319826 -1.210151 0.204485 0.985872 -0.021235 0.186073 -0.029610 -0.538514 0.239073 -0.179902 0.674719 0.036896 0.318010 -0.457874 0.327878 -0.359968 0.997483 0.247010 0.422095 0.192562 1.342114 -0.698708 -0.584787 0.118127 -0.481654
sent_116 0.247528 0.387751 -0.815963 0.175645 0.655091 0.114849 -0.588750 0.671229 -1.186710 -0.172870 -0.404883 -0.322062 0.499767 -0.052829 0.303903 0.665940 -1.495659 -0.723896 -0.358377 -0.736733 -0.215399 -0.284599 -1.110219 -1.118430 0.043890 0.330301 -0.893916 -0.041334 1.083125 0.333720 -0.180068 0.160335 -0.082751 0.082320 -0.318621 1.100038 -0.124343 0.335405 -0.630333 0.363291 -0.502116 0.620815 0.537315 0.481817 0.006810 0.939795 -0.605341 -0.131099 0.114714 -1.042314
sent_117 0.386195 0.376387 -0.872388 0.328790 0.543708 0.049999 -0.699371 0.267676 -1.083876 -0.200750 -0.103799 -0.329211 0.466384 -0.167146 0.497406 0.619662 -1.398525 -0.706642 -0.475928 -0.256663 -0.175564 -0.323290 -0.793191 -1.239416 -0.164497 -0.312608 -0.637031 0.260112 0.400469 -0.036157 -0.148249 0.208671 0.017463 0.009545 -0.444383 0.703461 -0.293096 0.449100 -0.157414 0.492097 -0.380911 0.797773 0.427160 0.494900 0.067023 0.724851 -0.791562 -0.327154 0.036089 -0.830944
sent_118 0.483141 0.327429 -1.074477 0.133539 0.381123 -0.070398 -1.262200 0.485231 -0.756194 0.093293 -0.455166 -0.780151 0.406585 -0.355100 0.188990 0.889451 -1.521603 -0.679868 -0.592762 -0.659747 -0.447240 -0.387081 -0.944859 -1.516482 -0.279084 0.326073 -0.659202 -0.309100 0.653463 0.182243 -0.304591 0.101976 -0.349596 -0.102051 -0.877232 1.334697 -0.625967 0.563145 -0.238434 0.271548 -0.234542 0.927200 0.689301 0.533112 0.406866 0.731634 -0.988641 -0.608629 0.328567 -1.092454
sent_119 0.108285 0.186419 -0.781314 0.441198 0.334698 -0.100259 -0.566254 0.461215 -0.883603 -0.019210 -0.443629 -0.543621 0.141006 0.109018 0.383298 0.666016 -1.302336 -0.751819 -0.390248 -0.673710 -0.067265 -0.456613 -0.800579 -0.921252 0.004323 -0.043349 -0.874458 -0.081497 0.368437 0.101146 -0.216411 -0.023046 -0.086957 -0.177482 -0.438264 0.936088 -0.260239 0.266294 -0.322350 0.404951 0.016803 0.579868 0.654736 0.616573 0.227710 0.355593 -0.787873 -0.426065 0.270984 -1.159436
sent_120 0.416264 0.102187 -0.929369 0.377688 0.423644 0.351204 -1.157591 0.413554 -1.120285 0.283874 -0.407408 -0.751813 0.485698 -0.300153 0.345996 0.532107 -1.297376 -0.833314 -0.463618 -1.050668 -0.586256 -0.295607 -0.921055 -1.494467 -0.455389 0.262905 -0.851682 -0.007742 0.912544 0.127147 -0.098932 -0.094567 -0.272047 -0.470478 -0.684541 1.271063 -0.315546 0.125600 -0.451339 0.381550 -0.341511 0.937793 0.226513 0.771335 0.182071 1.155902 -0.827248 -0.076868 0.386725 -0.652388
sent_121 -0.886624 0.114037 0.502923 0.200456 0.093783 -0.488417 -0.756619 -0.697711 0.263629 -0.827232 1.519597 0.028435 -0.813719 0.207658 0.023510 -0.805128 0.283355 0.319696 0.640481 -0.268359 0.320884 0.273230 -0.263832 -0.283636 0.366350 -0.066846 0.373268 -0.747047 0.149687 0.599390 0.247682 -0.884775 -0.833165 -0.086030 0.243661 0.032182 0.083326 -0.424075 -0.377193 -0.942086 0.209356 0.361023 0.077368 0.279580 0.797656 -0.412310 0.067071 -0.231033 0.214758 0.431405
sent_122 -0.920723 0.293891 0.563874 -0.029297 0.136269 -0.110999 -1.191659 -0.819405 0.432818 -0.896315 1.128501 0.105583 -0.650183 0.308640 -0.330800 -0.555048 0.694758 0.178358 0.508165 -0.171139 0.251681 0.450844 -0.650724 -0.303293 0.165240 0.477695 0.580014 -0.313940 0.116541 0.690603 0.290876 -0.932069 -0.628239 -0.192186 0.048458 -0.092691 0.408784 -0.221055 0.259881 -0.489792 0.310662 0.690227 0.428003 0.586234 0.704767 -0.010202 0.508784 0.598795 0.520616 0.566246
sent_123 -0.855019 0.158964 0.622032 0.408225 0.058918 -0.295903 -1.063577 -0.662709 0.651869 -0.581159 1.034912 -0.001713 -0.836747 0.037689 -0.348114 -0.611634 0.835251 0.489777 -0.033494 0.056127 0.327184 0.466141 -0.339969 -0.227565 0.313477 0.056184 0.382053 -0.460687 0.035428 0.415939 0.420003 -0.495182 -0.568068 -0.066166 -0.148146 -0.355251 0.647609 -0.143111 -0.076430 -0.519244 0.421298 0.371928 0.313253 0.142821 0.919586 0.242221 0.098685 0.686461 0.115830 0.382240
sent_124 -1.177603 0.027243 0.852467 0.553634 0.112722 -0.666504 -1.089093 -1.242697 0.842939 -0.862869 1.248295 -0.379401 -0.639742 0.226479 -0.318938 -0.667560 0.804265 0.391283 0.740745 0.355869 0.259118 0.776800 -0.707683 -0.297220 -0.010991 0.400428 0.633967 -0.501066 0.467644 0.759390 0.423368 -1.048790 -0.715483 -0.226435 0.001618 -0.193194 0.196269 -0.164921 -0.048529 -0.463036 0.485827 0.951841 0.414246 0.250825 0.780412 -0.144557 0.645910 0.767644 0.192984 0.691650
sent_125 -1.048288 0.374389 0.502716 0.573995 0.228663 0.182965 -1.428363 -0.126174 -0.420845 -0.674804 0.734070 0.137559 -1.048358 0.077411 -0.813933 -0.325240 0.737774 0.343924 0.280077 0.231983 -0.038886 0.654159 -0.090007 -0.251407 0.341967 0.069613 -0.484423 -0.253007 0.053415 0.662654 0.145731 -0.922883 -0.030364 -0.054237 0.499244 -0.053667 0.429643 -0.240204 0.175368 -0.762565 0.176084 0.473699 0.691548 -0.004188 0.571933 0.354434 0.360075 0.348802 -0.216159 -0.513162
sent_126 -1.081808 0.197613 0.448503 0.390842 0.068750 -0.340058 -1.061043 -0.643025 0.105201 -0.669571 0.899908 0.066417 -1.058664 -0.015655 -0.484847 -0.455095 0.734618 0.342202 0.661701 -0.248279 0.171411 0.621084 -0.554451 -0.050563 -0.094151 0.187693 0.152214 -0.474713 0.243942 0.501494 0.372270 -1.114083 -0.527123 -0.167020 0.168499 -0.146809 0.324177 -0.156333 -0.068570 -0.229270 0.107874 0.533622 0.037909 -0.036776 0.456255 0.188510 0.302673 0.660164 0.206691 0.249628
sent_127 -0.099110 0.008124 -0.144983 0.121340 0.907681 0.137539 0.007229 0.830128 0.430161 -0.508024 -0.202115 0.807043 1.444454 -0.131472 0.133079 -0.292275 -0.544449 1.106478 0.298820 0.345730 -0.016984 -0.359643 0.062813 0.344786 -0.435254 -0.176505 -0.007780 -0.054686 -0.165236 0.393673 0.497834 1.028236 -0.724958 0.067775 0.471082 -0.555458 0.199860 -0.989373 0.461473 -1.099794 -0.667581 0.113841 0.014354 0.818751 -0.720678 -0.362412 0.732121 -0.153072 -1.336230 0.117758
sent_128 -0.645708 0.458975 -0.563408 0.020746 0.682143 -0.122325 -0.500656 0.625983 -0.328551 -0.501371 -0.069815 0.013763 0.973719 -0.414357 -0.208922 -0.500706 -0.213847 1.082923 -0.163259 0.200964 -0.039438 0.472279 -0.001570 -0.056783 0.161336 0.820821 -0.029282 0.118037 -0.378785 -0.252784 0.776499 0.924965 -0.343316 0.216439 0.565115 -1.029608 0.121158 -0.405372 0.406423 -0.637214 -1.220524 0.719163 0.004335 -0.487142 -0.346717 -1.001796 0.511520 0.326728 -0.525250 -0.616369
sent_129 0.037276 0.103484 -0.166043 0.164396 0.508476 0.186394 -0.044924 0.676578 0.232252 -0.884194 0.227698 0.441914 0.659652 -0.055754 -0.255723 -0.218117 -0.531259 0.734984 0.117115 0.359886 -0.333726 -0.166010 -0.019156 0.316018 -0.158335 0.199127 -0.576766 -0.142281 0.281779 0.302591 0.392041 0.645423 -0.203126 -0.022827 0.440797 -0.919598 0.241528 -0.493552 0.092537 -0.687042 -0.168187 -0.078248 -0.211769 0.077697 -0.261355 -0.011976 0.778313 -0.520044 -0.835596 -0.087155
sent_130 -0.022237 -0.280438 -0.362364 0.135388 0.881253 0.035795 0.209909 0.619134 0.323644 -1.017213 -0.037434 0.136567 0.658885 -0.327864 0.535948 -0.059872 -0.276925 0.660326 -0.061533 -0.096413 -0.397961 -0.517732 -0.071475 0.571767 0.405210 0.382167 -0.380159 0.059544 -0.063658 -0.044991 0.149540 0.183361 0.197055 0.305376 0.652074 -0.871172 -0.025264 -0.584558 0.192144 -0.942395 -0.986010 0.575594 0.239427 0.510563 -0.427736 -0.279145 0.665211 -0.316989 -0.354776 -0.520623
sent_131 -0.264436 0.256422 -0.087511 -0.146046 0.515480 0.194495 0.261749 0.495017 0.491986 -1.018907 0.413612 0.350037 1.391952 -0.020860 0.054218 -0.116177 -0.496473 0.430813 -0.034526 0.344773 -0.128962 0.365305 -0.405995 0.456120 -0.321925 0.470082 -0.059850 -0.399572 0.060003 0.248390 0.046540 0.307720 -0.399670 0.339610 0.156676 -0.912763 0.294704 -0.353947 0.228813 -1.157978 -0.864678 0.336692 -0.207883 -0.019355 -0.404486 -0.537580 0.986100 -0.024781 -0.766075 0.110811
sent_132 -0.233662 0.321138 -0.073474 0.047711 0.670617 0.097004 -0.022689 0.404712 0.238888 -0.723589 0.156651 0.530900 1.250308 -0.237008 -0.276991 -0.047483 -0.400423 0.543269 0.057089 0.286578 -0.265848 0.168217 -0.374210 0.654333 -0.023535 0.859582 0.110859 -0.189818 -0.072629 0.496135 0.413914 0.838377 -0.021292 0.176388 -0.130439 -1.019358 0.422688 -0.395447 0.584779 -0.603896 -1.083670 0.452079 -0.103803 -0.140319 -0.626654 -0.529555 0.742844 -0.129182 -0.751066 0.009461
sent_133 0.008128 -0.131273 -0.165979 0.175256 0.765827 -0.187768 -0.000205 0.242354 0.199958 -0.868505 -0.029916 0.321525 1.280568 -0.445421 0.001421 -0.101707 -0.622201 0.579784 0.264970 0.420203 -0.306714 0.072457 -0.115968 0.869802 -0.218895 0.003599 -0.251119 -0.283299 -0.495347 -0.327167 0.670999 0.775335 -0.257182 0.177659 0.198539 -0.945843 -0.162365 -0.201006 0.185451 -0.675734 -0.542342 0.475231 -0.132011 0.482581 -0.534927 -0.636817 0.843915 -0.279150 -0.785913 -0.198388
sent_134 -0.017378 0.726225 0.107565 0.828852 0.389473 -0.538489 0.120230 -0.078014 -0.096137 0.350538 -0.074991 -0.076242 -0.137140 0.426070 0.550007 0.608544 -0.157120 -0.755554 0.341482 0.492843 0.135774 0.299387 -0.139590 0.531245 -0.274499 -0.695713 0.266475 -0.186044 0.722195 0.011866 -0.727087 0.137585 0.065089 -1.584712 -0.329753 -0.061488 0.411253 0.449985 -0.247395 0.787101 1.228465 -0.552250 0.416729 0.822984 -0.362114 -0.471157 -0.567662 0.296375 -0.001146 -0.290400
sent_135 -0.093720 0.455927 0.021312 1.081812 0.277786 -0.203320 0.347623 0.372602 -0.149552 0.455195 -0.550102 -0.375937 -0.154363 -0.195803 0.525880 0.463247 -0.218763 -0.442957 0.225887 0.039313 0.363733 0.458890 0.247698 0.376562 -0.363773 -0.490866 -0.172669 -0.320202 0.694719 -0.157392 -0.539147 0.024695 0.003458 -1.142906 -0.259767 -0.034480 0.603832 0.799971 -0.180317 1.029587 0.669989 -0.311865 0.462127 1.001470 -0.223864 -0.189797 -0.591574 0.563447 0.175659 -0.704057
sent_136 -0.360118 0.596838 0.202110 0.672524 0.293972 0.190814 0.126170 0.416239 0.122428 0.631939 -0.189751 0.102352 -0.056920 -0.053842 0.469531 -0.121445 -0.252812 -0.331321 -0.197365 -0.101869 -0.279789 0.600177 0.123486 0.241383 -1.170774 -0.702784 0.241600 -0.232020 0.339801 -0.200728 -0.616877 0.716241 0.674467 -1.978353 -0.415543 0.006992 0.637177 0.248400 0.313050 0.901631 1.106142 -1.156590 0.427502 0.859353 -0.301555 0.047577 -0.534218 0.594361 0.210098 0.698703
sent_137 -0.453112 0.602270 0.486925 0.827897 0.218440 -0.072400 0.045177 0.274294 -0.661820 -0.557214 -0.688271 0.297393 0.588113 -0.336492 -0.264335 -0.210052 -0.012825 0.061263 0.297951 0.211314 -0.019451 -0.116470 0.562443 0.477630 -0.739537 -0.885979 0.286765 -0.251173 0.245214 -0.358436 -1.003937 0.254313 0.327942 -1.530081 0.015058 -0.138100 0.964920 0.472854 0.808771 -0.363902 1.025244 -0.517191 -0.207316 0.554007 -0.413554 -0.417455 0.448140 0.674811 -0.666460 -0.418213
sent_138 0.010018 0.931284 0.273545 0.293202 0.250721 0.041669 0.196323 -0.177518 0.176460 0.374787 -0.103883 0.081067 -0.110083 0.022303 0.233069 -0.087660 -0.272433 -0.515231 -0.017991 0.062371 0.143087 0.432843 -0.124910 0.533459 -1.086281 -0.577921 0.522474 0.176777 0.484115 -0.183716 -0.816760 0.707955 0.371569 -1.662889 -0.168173 -0.256370 0.481530 0.316405 0.069318 0.889481 0.920529 -0.478126 0.344560 0.420629 -0.348067 -0.096437 -0.726354 0.264763 0.272198 0.115181
sent_139 -0.629528 0.231194 -0.894036 -0.295646 0.344393 -0.251857 -0.279465 0.249652 -1.394924 0.542029 -0.388711 -0.451752 0.540965 -0.497517 0.323115 0.292467 -1.077515 -1.179156 -0.459774 -0.182206 -0.158877 -0.088674 -0.554829 -1.412373 -0.177528 0.558499 -0.856577 -0.157811 0.596415 0.606410 -0.689758 -0.170902 -0.952944 -0.472143 -1.068555 0.202222 0.478553 0.036194 -0.647925 0.675300 -0.792643 0.902296 0.392674 -0.324202 -0.037136 1.047402 0.147632 -0.247071 -0.038945 0.050677
sent_140 -0.459759 0.087475 -0.713054 -0.354479 0.413845 -0.117172 -0.357322 -0.047456 -1.278426 0.163522 -0.293462 -0.618661 0.416327 -0.351893 0.320490 0.043752 -1.054210 -1.330130 -0.403951 -0.343106 0.079165 -0.330801 -0.804198 -1.291744 -0.212997 0.090921 -1.483556 -0.302868 0.890430 0.621312 -0.694447 0.053818 -0.648756 -0.171647 -0.962017 0.519255 0.527070 0.068041 -0.444710 0.737604 -0.343890 1.005913 0.210505 -0.074166 0.017380 1.123805 0.224461 -0.204223 0.354384 -0.121498
sent_141 -0.512737 0.250617 -0.869201 -0.141933 0.218611 -0.066976 -0.286732 0.226218 -1.164343 0.132562 -0.373321 -0.715508 0.283101 -0.300309 0.593282 0.054258 -1.297102 -1.217658 -0.545258 -0.221083 -0.008160 -0.133561 -0.515905 -1.178807 -0.195351 0.355018 -1.192970 -0.184981 0.785539 0.726430 -0.634291 -0.011437 -0.513827 -0.476070 -0.491365 0.375072 0.379571 0.160684 -0.289542 0.701378 -0.468409 0.774230 0.462750 -0.261324 0.144877 0.911526 0.114694 -0.325826 0.174578 -0.506158
sent_142 -0.629413 0.176437 -0.885238 -0.290252 0.564686 -0.400749 -0.307009 0.275278 -1.458802 0.300419 -0.195689 -0.520566 0.637370 -0.361391 0.553472 0.096657 -1.078488 -1.229244 -0.335461 -0.415163 -0.090444 -0.073098 -0.530621 -1.002819 -0.249276 0.380201 -1.233582 -0.276275 0.935996 0.720848 -0.766831 -0.116194 -0.899379 -0.459029 -0.843557 0.277302 0.120363 0.236427 -0.493104 0.731355 -0.498463 1.048777 0.288210 -0.153592 0.015670 0.990263 0.167702 -0.477298 -0.055204 -0.230416
sent_143 -0.590702 0.190667 -0.641609 -0.109110 0.276354 -0.075871 -0.135046 0.117302 -1.252669 0.409099 -0.502644 -0.674991 0.647717 -0.459876 0.657917 0.032678 -0.967728 -1.128464 -0.274766 -0.153866 0.202941 0.294973 -0.452552 -1.079891 -0.028322 0.200256 -1.200146 -0.184127 0.692822 0.666196 -0.640253 -0.053208 -0.655198 -0.337002 -0.722669 0.238243 0.277322 0.120548 -0.309617 0.656581 -0.411901 0.907509 0.380994 -0.201325 -0.025478 0.847291 0.212244 -0.294984 0.018399 -0.142895
sent_144 -0.309719 0.335308 -0.616940 0.021280 0.124079 -0.053761 0.106007 0.830112 -1.095977 0.439945 -0.320018 -1.179828 -0.242184 -0.655950 0.614579 -0.186191 -0.954882 -0.777546 -0.571080 -0.446626 0.009181 -0.227150 -0.750973 -1.130609 -0.237859 0.224154 -1.708444 0.050711 0.658042 0.339624 -0.515123 -0.136370 -0.221314 0.061250 -0.650961 -0.041168 0.803343 0.411839 0.038888 0.533984 -0.533547 0.809453 1.013203 -0.362919 -0.148985 0.634235 -0.162381 -0.654705 0.070472 0.607163
sent_145 -0.944525 -0.589195 -0.898141 0.436266 0.266070 -0.286125 -0.311922 0.130445 -1.001955 -0.513557 -0.436247 -0.177302 0.209832 -0.432460 0.356381 -0.678478 -0.782077 -0.822063 -0.344301 -0.568053 -0.126033 0.275109 0.093256 -0.601007 0.064060 -0.143197 -0.657745 0.178145 0.784401 0.415679 -0.206021 0.383157 -0.256949 -0.121506 -0.142016 0.060622 0.418627 -0.255961 0.200298 0.669557 -0.429836 0.773197 0.380876 -0.110846 -0.002323 0.447566 -0.130642 -0.330569 -0.801804 -0.836887
sent_146 -0.272349 0.696113 -0.971299 0.027445 0.566365 0.205120 -0.189472 0.654595 -1.187860 0.139044 -0.138633 -0.685698 0.802996 -0.276324 0.625800 -0.128027 -1.431244 -0.930555 -0.646307 -0.307281 -0.454802 0.066376 -0.849276 -1.506252 -0.121832 0.361962 -1.644078 -0.352360 0.762739 0.456685 -0.209158 0.249328 -0.491444 -0.362285 -0.558500 0.082912 0.657099 0.241790 -0.321787 0.565793 -0.437886 0.906653 0.596556 -0.045110 0.021008 1.183609 0.032420 -0.531252 -0.032468 -0.183813
sent_147 -0.461757 0.026320 -1.055684 0.054659 0.612607 -0.239328 -0.373936 0.492699 -1.516149 0.574891 -0.269608 -0.609486 0.787395 -0.450284 0.352373 0.072868 -1.124739 -1.131447 -0.529196 -0.301833 -0.105558 -0.067115 -0.359487 -0.961711 -0.347712 0.320090 -1.331811 0.114480 0.806889 0.621449 -0.500875 0.037529 -0.869333 0.022886 -0.872387 0.316109 0.537760 0.054716 -0.492350 0.628267 -0.501387 0.743037 0.125124 -0.257843 0.164577 1.087659 0.327499 -0.192288 -0.194108 -0.034128
sent_148 -0.300887 0.074382 -0.797223 -0.031261 0.234322 0.044931 -0.098351 0.254958 -1.438867 0.348411 -0.269710 -0.436848 0.314803 -0.500298 0.371032 0.187114 -1.040469 -0.989045 -0.423578 0.124917 -0.166385 -0.260138 -0.691441 -1.084466 -0.481000 0.317364 -1.247751 0.111396 0.701146 0.683877 -0.882514 0.247294 -0.553584 -0.014928 -0.469485 0.133285 0.319511 -0.279521 -0.309959 0.773451 -0.266453 0.713014 0.645438 -0.419208 0.254204 0.448114 -0.086232 -0.179293 0.047599 -0.390546
sent_149 -0.503445 0.016926 -0.634982 0.091556 0.327681 -0.046560 0.110363 0.033172 -1.441966 0.178734 -0.446025 -0.619713 0.854372 -0.611057 0.637142 0.014698 -1.254463 -0.848509 -0.767543 0.027871 -0.091420 -0.013426 -0.419954 -1.126410 -0.099996 0.630852 -1.328762 -0.219009 0.931035 0.594904 -0.398061 -0.117561 -0.730398 0.169908 -0.777092 -0.065870 0.782482 0.275379 -0.212409 0.791975 -0.146560 0.993848 0.176513 -0.303874 -0.087313 0.951997 0.224148 -0.469390 0.065335 -0.132337
sent_150 -0.320814 0.364522 -0.820446 0.048555 0.266890 -0.159874 -0.193170 0.240172 -1.198933 0.372711 -0.431801 -0.625889 0.503357 -0.355580 0.384819 0.067018 -1.157302 -1.220830 -0.374398 0.001704 -0.135587 0.090562 -0.626947 -1.157796 -0.421531 0.544433 -1.268458 -0.119356 1.071145 0.803200 -0.565204 0.276928 -0.768002 -0.239308 -0.532150 0.438582 0.296128 0.111538 -0.582405 0.790876 -0.872525 0.882348 0.672532 -0.236280 -0.015854 0.794643 0.030329 -0.551488 0.285488 -0.188638
sent_151 -0.326248 0.257646 -1.002446 -0.040931 0.531363 0.032574 -0.326923 0.522877 -1.562282 -0.003927 -0.314490 -0.663662 0.721188 0.034983 0.674888 -0.021436 -1.480625 -1.204667 -0.495524 -0.345472 -0.380887 0.241327 -0.779798 -1.229445 -0.063173 0.629292 -1.376939 -0.091402 1.056484 0.329813 -0.156253 0.203784 -0.882541 0.034046 -0.534861 0.014408 0.550597 0.339873 -0.316568 0.631453 -0.460461 1.118496 0.535439 -0.164389 -0.056116 1.402437 0.037450 -0.497531 0.043106 0.052939
sent_152 0.759068 -0.092212 -1.025808 -0.440395 -0.131656 0.045270 -0.407912 -0.403687 -0.267963 0.172335 0.902181 0.682012 0.739818 -0.763755 0.289993 0.677225 -0.073384 0.328293 0.509273 0.412311 -0.049606 0.249471 0.101021 0.411306 -0.585088 0.520362 -0.142946 -0.834470 -0.805486 -0.407382 0.069783 0.440928 0.041465 -0.465877 0.735767 -0.252234 -0.291390 -0.574454 -0.159152 -0.599565 -0.504790 0.475776 -0.977617 -0.753773 -0.825185 -0.008945 0.090726 -0.038752 -0.540459 -0.226245
sent_153 0.669223 0.054924 -0.848674 -0.502455 -0.198888 0.213229 -0.398760 -0.252095 -0.093786 -0.001070 0.674329 0.104424 0.966738 -0.742933 0.115245 0.662908 0.353293 0.427319 0.453457 0.575477 -0.334644 0.213392 0.339185 0.369234 -0.779759 0.259098 0.025541 -0.408039 -0.608739 -0.671804 0.076885 0.486648 -0.046747 -0.227057 0.422224 -0.029709 -0.475329 -0.162879 0.408020 -0.912120 -0.087494 0.200579 -0.884603 -0.745825 -1.013971 -0.199290 0.015478 0.227716 -0.490280 -0.257613
sent_154 -0.209958 0.300563 -0.546854 -0.247255 -0.065006 0.421453 0.071838 0.030211 0.379680 0.110911 0.407701 0.216094 0.848852 -0.787821 0.609812 0.090000 -0.645040 0.280470 -0.129048 0.213970 -0.119927 0.371089 0.373437 0.476577 -1.146023 -0.321437 -0.105661 -0.523607 -0.671861 -0.630815 -0.120468 0.758523 0.931716 -1.087299 0.461540 -0.023782 0.068047 -0.751111 0.203712 -0.375943 0.612860 -0.069520 -0.431634 -0.696836 -0.723374 0.004216 -0.061222 0.025824 -0.020879 -0.057681
sent_155 0.428826 0.221528 -1.168391 -0.158864 0.005195 0.639179 -0.427673 -0.190878 -0.506572 0.324809 0.655212 0.029535 0.935518 -0.460690 -0.074893 0.215720 0.279514 0.178745 0.338612 0.781273 -0.220357 0.109550 0.292075 0.072813 -0.772395 -0.166268 -0.269915 -0.381724 -0.879534 -0.359590 0.021971 0.918810 0.052004 -0.048809 0.762045 -0.170774 -0.428464 -0.507725 0.075637 -1.007959 -0.091776 0.337946 -1.095760 -1.035774 -0.710016 -0.183017 0.235728 0.152973 -0.507220 -0.440258
sent_156 0.463909 -0.227317 -0.951541 -0.537492 0.019968 0.337049 -0.379925 -0.026718 -0.109148 0.039288 0.720122 -0.166612 1.057725 -0.688025 0.414147 0.519173 0.019302 0.346545 0.304122 0.314404 0.050663 0.084618 0.329705 0.264804 -0.969403 0.148137 -0.163486 -0.474475 -0.677326 -0.869448 -0.117884 0.323919 0.109727 -0.184497 0.815795 0.037032 -0.785792 -0.243739 0.015832 -1.106008 -0.277767 0.144765 -1.122771 -1.011462 -0.805113 -0.594913 0.145482 -0.079069 -0.396355 -0.706476
sent_157 0.673470 0.101358 -0.909348 -0.342357 -0.230713 0.417839 -0.458005 0.174958 -0.392543 0.034557 0.873864 0.277554 1.053198 -0.578806 0.118810 0.599930 0.239917 0.361022 0.205454 0.732766 -0.056491 0.165877 0.325945 0.256113 -0.901324 0.212649 0.029955 -0.470312 -0.884811 -0.498188 0.013837 0.375205 0.132797 -0.032848 0.638604 -0.208917 -0.349208 -0.250767 0.177337 -1.113996 -0.250807 0.176721 -0.807915 -0.994366 -0.961771 -0.574204 0.179832 0.030195 -0.488757 -0.352546
sent_158 0.121683 0.377303 -0.509290 -0.396536 -0.357364 0.473949 -0.865543 0.113265 -0.324209 0.737320 0.445000 0.298823 1.076577 0.132698 0.070864 -0.020123 0.185128 0.210486 0.676325 -0.166953 -0.611294 -0.651612 0.724821 0.079921 -0.480142 -0.499672 -0.439880 -0.419089 -0.265633 -0.436214 -0.455817 0.362241 -0.199419 0.417798 0.811458 -0.652248 0.340522 -0.965563 -0.156630 -1.377514 -0.130487 -0.612370 -0.300046 -0.641538 -0.728466 -0.398921 0.203050 0.143042 -0.478369 -0.596281
sent_159 0.484667 0.124585 -0.986732 -0.408651 -0.117463 0.320557 -0.371141 -0.225736 -0.168981 -0.018120 0.750018 0.134814 1.090334 -0.656668 0.110115 0.425102 0.320566 0.320810 0.314381 0.625202 -0.134894 0.210108 0.199218 0.397310 -0.648510 0.107083 -0.246852 -0.556874 -0.758088 -0.667514 0.021302 0.369355 0.101469 -0.257441 0.433905 -0.248619 -0.354906 -0.423641 0.101928 -0.814693 -0.221371 0.288953 -0.789262 -0.929468 -0.824233 -0.228163 0.249906 0.096811 -0.424039 -0.373454
sent_160 0.448105 0.225453 -0.583567 -0.319868 -0.413504 -0.048727 -0.277750 -0.162028 -0.097394 0.099439 0.916458 -0.177752 1.189249 -0.896322 0.158423 0.666777 0.242726 0.307233 -0.073294 0.619249 -0.363031 0.125305 0.471314 0.464827 -0.473110 0.099709 -0.171569 -0.520238 -0.651610 -0.520500 -0.111846 0.368654 -0.096564 -0.130711 0.830858 -0.373206 -0.568093 -0.255650 0.279874 -0.949023 -0.116909 0.543688 -1.227168 -1.076721 -0.903882 -0.198924 0.201879 0.257861 -0.446593 -0.558122
sent_161 -0.042532 0.040897 -0.875228 -0.276819 0.008834 0.380286 0.123812 0.011561 -0.234695 0.056553 0.475217 -0.190355 0.526846 -0.764722 0.191497 0.472377 -0.138697 0.425210 -0.159102 0.437515 0.056459 -0.193715 0.283892 0.181208 -0.447001 -0.050591 -0.352316 -0.250404 -0.639575 -0.389447 -0.179782 0.433967 0.043982 0.162082 0.198209 -0.343666 -0.276018 -0.136158 0.418788 -0.859871 -0.131953 0.343217 -0.620420 -0.924000 -0.970702 -0.200438 0.486415 0.224580 -0.248851 -0.621901
sent_162 0.849267 -0.039066 -0.976909 -0.613304 -0.438794 0.224980 -0.364559 -0.334022 -0.023631 0.054967 0.838553 0.172747 1.053581 -0.852669 0.248245 0.255950 -0.068039 0.217461 0.485772 0.200680 -0.377306 0.370987 0.054593 0.394840 -0.683365 0.350778 -0.008374 -0.721616 -0.498276 -0.481334 0.007813 0.149906 -0.118297 -0.349281 0.447249 -0.030293 -0.068138 -0.401153 0.014096 -0.833139 -0.142468 0.391144 -0.856622 -0.973650 -0.907677 -0.193675 0.160102 0.281627 -0.447982 -0.282418
sent_163 0.241831 -0.812499 -0.187009 -0.251118 0.133710 -0.406237 -0.213229 0.138214 -0.551873 -0.434024 -1.059069 -0.272581 0.968387 0.387713 -0.109511 0.055611 -0.167178 0.535916 -0.696723 -0.450224 -0.618674 0.153826 -0.230715 0.121411 0.267702 -0.697345 -0.185815 -0.253478 -0.527281 -0.207431 0.921473 0.753512 0.272381 -0.510611 -0.364474 0.492386 0.479957 -1.886758 0.058272 0.325245 -0.068912 0.324734 -0.141088 1.276985 0.172183 0.340178 -0.205864 -0.204265 -0.548158 0.345198
sent_164 0.843330 -1.101709 -0.430080 -0.039031 0.361309 -0.117323 0.055296 0.022147 -0.397384 -0.463279 -0.721126 -0.168748 0.939761 0.029110 0.470727 -0.039236 0.180667 0.386368 -0.651340 0.009998 -0.582965 0.320779 -0.291150 0.403391 -0.077266 -0.386606 -0.440851 0.035380 -0.226994 -0.561269 0.201629 0.365307 -0.435450 -0.474462 -0.373071 0.234867 0.120032 -1.682856 -0.517954 0.100539 -0.106967 0.177384 -0.075799 0.554332 0.264363 0.501550 -0.375629 -0.116359 -0.589042 0.266755
sent_165 0.586134 -0.171824 -0.037567 -0.285174 0.711970 0.291177 -0.158766 -0.025977 0.034529 -0.054237 -0.856672 -0.000048 0.655376 -0.034423 0.153063 -0.020224 -0.444012 0.331079 -0.299438 0.023951 -0.204422 0.265301 -0.233447 0.434800 -0.767027 -0.653104 0.025996 0.311585 -0.434660 -0.322107 -0.344347 0.767847 0.244529 -1.273597 -0.385717 0.045605 0.042231 -1.233720 0.037474 0.697722 0.246791 -0.272068 0.057159 0.574920 0.593353 0.299383 -0.638622 -0.328493 -0.099586 0.050810
sent_166 0.374630 -0.751517 -0.190604 -0.329604 0.610597 0.070077 -0.043511 0.093845 -0.104513 -0.236772 -0.792540 -0.060806 0.854272 0.027887 0.300977 -0.109099 -0.098096 0.500696 -0.290021 -0.140663 -0.478576 0.457525 -0.080977 0.249791 -0.125779 -0.533754 -0.179134 0.139569 -0.287149 -0.556665 -0.081384 0.546747 -0.272336 -0.775898 -0.369615 0.119472 0.177208 -1.361952 -0.106430 0.264301 0.032936 -0.067022 -0.150037 0.659175 0.416979 0.343925 -0.171669 -0.134576 -0.329735 -0.005104
sent_167 0.371228 -1.093902 0.369654 0.113065 0.681984 -0.145565 0.077142 -0.168350 0.052004 -0.396511 -0.867999 0.472764 1.601797 0.179311 -0.073925 -0.341256 -0.668099 0.410362 -0.209394 0.387922 -0.277202 -0.376793 0.245928 -0.452498 0.574578 -0.605989 -0.960802 0.498277 -0.103534 -0.130213 0.304278 0.740163 -0.573430 0.014248 0.438157 -0.781719 0.144919 -1.407525 -0.207400 -0.245633 -0.277239 0.075768 0.049353 0.655978 0.150526 0.378430 -0.489988 -0.063281 -0.790900 0.007128
sent_168 0.273220 -0.460134 0.055792 -0.060199 -0.052281 -0.103482 -0.375545 0.032725 -0.172251 -0.451724 -0.752057 0.204881 1.037811 0.177438 0.336136 -0.267225 -0.243994 0.196184 -1.182921 -0.247314 -0.331362 -0.098428 0.096335 -0.297393 -0.396598 -0.485082 -0.273634 -0.017441 -0.525010 0.166385 0.477770 1.016876 0.241523 -0.398427 -0.188221 -0.380441 0.703252 -0.796792 -0.688166 0.792418 -0.109435 -0.104187 0.186936 0.646003 0.679705 0.149058 -0.068727 -0.228070 -0.529883 0.022403
sent_169 0.079053 -0.585005 0.041677 -0.668596 0.363762 0.068967 0.515272 -0.302919 0.245430 -0.460874 0.498399 -0.758185 0.293994 -0.880883 -0.333600 0.873345 -0.522616 -0.531109 -0.039168 -0.204159 0.510888 0.250767 -0.605507 -0.273367 -0.323532 0.507618 0.455617 0.325180 0.809339 0.261588 -0.110936 0.301888 -0.557739 0.812916 -0.722327 -0.500285 0.815617 0.605379 0.242351 -0.537714 -1.178707 0.638407 -1.168108 0.022939 0.238292 0.117032 -0.345644 -0.510826 0.122903 0.089701
sent_170 0.317917 -0.389707 -0.107615 -0.408988 0.354812 0.284740 0.269707 -0.071902 -0.043849 -0.158673 0.254669 -0.523727 0.213598 -0.555011 -0.139581 0.102059 -0.124245 -0.207863 0.018894 0.081374 0.316592 0.072888 -0.578747 -0.085716 -0.353742 0.366214 0.228588 0.395079 0.651069 0.269219 -0.441949 0.314401 -0.230385 0.053524 -0.593663 -0.426986 0.512008 0.583246 0.267871 -0.123226 -0.560830 0.324050 -0.656452 0.370810 -0.020681 0.005297 -0.214674 -0.276020 -0.133674 -0.315985
sent_171 0.099147 -0.691435 -0.453740 -0.127102 -0.368667 0.508754 0.281559 0.541256 0.191862 0.505270 0.037382 -1.493442 -0.540732 -1.205193 -0.486410 0.083937 0.252258 0.428883 -0.654410 -0.379976 0.175238 0.922759 -0.033233 -0.367448 -0.129771 0.808185 0.773148 1.246207 0.991172 -0.390328 0.656320 0.925435 -0.931974 0.436541 -0.438654 -0.341400 0.496889 1.046484 0.522893 1.015515 -0.146235 0.783138 -1.186522 0.639987 -0.364919 -0.267495 0.217322 -0.518316 0.051423 -0.579228
sent_172 -0.156849 -0.614983 0.205365 -0.126419 -0.432572 -0.117485 -0.183553 0.180523 -0.795845 -0.519716 -0.287745 -0.625498 0.278654 -0.732622 -0.377535 -0.209716 -0.054183 -0.115138 -0.173478 0.185390 -0.359481 -0.321683 0.335943 0.168894 -0.752318 -0.165368 -0.277077 0.580109 0.670918 0.210882 0.097447 0.153099 -0.144463 0.123760 -0.642214 -0.312042 0.265796 0.084981 0.282649 0.801486 -0.112117 0.278061 -1.335546 0.278757 0.328353 0.369678 0.601395 -0.814795 0.039578 0.013605
sent_173 -0.026354 -0.370727 -0.653226 -0.354402 0.322317 0.165897 0.427325 0.672439 0.104451 0.868682 -0.062753 -1.539788 -0.282988 -1.266252 -0.351828 -0.246707 -0.341181 0.034694 -0.088842 -0.510255 0.606251 -0.149973 0.181316 -1.059132 0.471401 -0.014628 -0.040797 -0.007902 1.137978 0.682161 -0.254601 0.904461 -0.444799 0.315346 -0.147200 -0.767159 0.872691 0.711874 0.147824 0.506235 -0.334907 0.420776 -0.630711 0.955147 0.101947 -0.062146 0.390777 -0.167199 0.611595 -0.612578
sent_174 0.106903 -0.387084 0.673784 -0.541777 0.547756 -0.324078 0.256102 -0.172958 0.166991 -0.547174 0.572118 0.511154 -0.076882 -0.568443 0.454642 -0.527893 0.743492 0.111849 0.426109 0.961521 -0.283342 -0.011476 0.384362 0.348057 0.104132 -0.103210 -0.493804 0.145529 0.445213 0.248808 -0.092871 0.386286 -0.469543 -0.514879 -0.767974 0.367937 -0.488112 0.128320 -0.369719 -0.815552 0.886347 -0.019102 0.469970 0.747975 0.305746 -0.191878 -0.807727 -0.125607 0.072597 0.247684
sent_175 -0.629257 -0.649798 1.076550 -0.581976 0.468174 -0.376951 -0.285368 0.138913 -0.256657 -0.721746 0.078778 0.922078 -0.617050 -0.642673 0.047029 -0.421820 0.715229 0.731503 0.274243 0.761665 -0.358359 -0.324032 0.415049 0.453591 -0.338264 -0.049543 -0.304489 -0.022862 0.344290 0.347268 -0.394381 -0.369229 -0.274208 -0.353923 -0.583527 -0.366992 0.338665 0.023750 0.234816 -0.877669 1.131824 0.163109 0.110473 0.098202 -0.183552 0.395968 -0.649081 -0.050595 0.374721 -0.110951
sent_176 -0.401380 -0.619502 0.798829 -0.237254 0.347332 -0.341650 0.266034 0.055470 -0.758345 -0.665844 0.233415 0.516995 -0.350039 -0.660333 -0.158710 -0.259830 0.743695 0.479847 0.475800 0.716193 -0.472539 -0.495738 0.409440 0.046369 0.429261 -0.198779 -0.918588 0.583878 0.404823 0.495553 -0.084440 0.265455 -0.333934 -0.561162 -0.452225 0.195391 0.148126 -0.256504 -0.213712 -0.428212 0.987968 -0.186338 -0.015544 0.299433 0.105879 0.095620 -0.376033 -0.068503 -0.275307 -0.209440
sent_177 -0.039536 -0.035224 0.880681 -0.610099 0.811261 -0.115787 0.283645 -0.054420 0.136727 -0.683364 0.573382 0.378316 0.131150 -0.556234 0.550437 -0.582210 0.799495 0.432496 0.106497 1.006103 -0.246278 -0.256521 0.274240 0.090040 0.366541 0.234809 -0.505674 -0.035460 0.361926 0.668591 0.356414 0.382509 -0.476488 -0.456736 -0.787647 0.271597 0.080981 -0.039433 -0.415104 -0.668223 0.650041 -0.314706 0.521592 0.662736 0.358104 0.167225 -0.651315 -0.120807 0.223890 0.000705
sent_178 -0.050281 -0.591444 0.930770 -0.253934 0.585539 -0.355280 0.145609 -0.238840 0.553690 -0.637206 0.399423 0.364195 0.842269 -0.340530 -0.107339 -0.605562 0.433693 0.378800 0.462673 0.956938 -0.125989 -0.852106 0.732447 -0.637232 0.555392 -0.271431 -0.738669 0.436350 0.419638 0.575427 0.246858 0.808249 -0.271829 -0.526948 0.100522 -0.865216 -0.156995 -0.282384 -0.276621 -0.850593 0.376659 -0.116085 0.586384 0.770690 -0.044484 0.243838 -0.551532 -0.036711 -0.214005 0.064102
sent_179 -0.584038 -0.590938 1.420468 -0.203416 0.609238 -0.070845 -0.411462 -0.020868 -0.515886 -1.047353 0.616724 0.773166 -0.357770 -0.869947 -0.236162 -0.182085 0.995097 0.426337 0.256274 0.195701 -0.072172 -0.582315 0.458762 -0.285489 0.336796 0.136353 -0.510439 0.443398 0.364954 0.453301 0.129439 0.355822 -0.024009 -0.318290 -0.127845 -0.125078 -0.059571 0.047490 -0.015683 -0.367047 0.545649 0.156282 0.303439 0.176080 0.238675 0.142790 -0.613691 -0.017490 -0.002850 -0.451885
sent_180 0.384637 -0.068075 0.240249 0.489161 -0.101807 -0.193744 0.022181 -0.411761 0.559941 0.579807 0.576144 0.479707 0.237287 0.027878 0.147438 0.189872 0.204677 -0.199644 -0.403353 -0.143416 0.301120 -0.053396 0.304520 0.219289 -0.068098 0.784446 -0.490503 -0.370494 -0.161686 0.417921 -0.509208 -0.628123 0.527522 0.016116 -0.602038 -0.846797 0.864084 -0.135037 0.199849 0.547748 -0.256062 -0.428624 -0.036030 1.360766 -0.186479 -0.223616 -0.486494 -0.067653 -0.131660 0.160496
sent_181 0.507198 -0.196911 0.708154 0.124844 -0.097695 0.250897 0.055064 -1.018379 0.700320 0.989182 0.316913 0.304847 -0.150533 0.254501 0.445378 0.179995 0.553624 -0.326691 -1.060851 -0.263027 0.153623 0.031428 -0.181260 0.131434 0.215792 0.655158 -0.267256 -0.476792 0.227197 0.919361 -0.549390 -0.218326 0.177835 -0.279561 -0.821927 -1.091910 1.217382 -0.180609 -0.128704 0.420083 -0.325152 -0.972618 -0.385760 1.173755 -0.149879 0.142062 -0.555636 -0.100158 -0.375427 -0.097617
sent_182 0.168029 0.307103 0.294551 0.298111 -0.030668 0.092626 -0.376738 -0.173559 0.459469 1.115685 -0.288362 0.486874 0.263457 0.499754 0.134599 -0.505930 0.023898 0.054356 -0.170449 -0.625984 -0.208103 -0.484324 0.609693 -0.383766 0.129809 -0.153960 -0.810395 -0.223890 0.096141 0.260680 -0.562666 -0.061345 0.107434 0.526428 -0.448084 -1.027772 0.844847 -0.604025 -0.023819 -0.150849 -0.219442 -0.900063 0.518523 0.418623 0.091723 0.034755 -0.351199 -0.013039 -0.294634 -0.246637
sent_183 -0.094344 -0.502781 0.043874 0.566326 0.231843 0.155984 -0.055462 -0.528687 0.610524 0.584759 0.019543 0.264542 0.074905 0.504190 0.095115 0.212541 0.050100 -0.020930 -0.278636 -0.270340 0.011744 -0.098402 0.334378 -0.264158 0.112801 0.211524 -0.265558 -0.489571 -0.146704 0.143366 -0.469769 0.083208 0.059690 0.263729 0.109181 -1.004767 1.006421 -0.086314 0.055121 0.183470 0.396411 -0.792728 -0.157426 0.358656 0.028499 0.276071 -0.536541 -0.078732 -0.232230 -0.409722
sent_184 0.264077 0.150092 0.351909 0.617502 0.116721 0.409485 0.020462 -0.147493 0.464977 1.036696 -0.553093 -0.138856 -0.474356 -0.320953 -0.069525 0.195897 0.050455 -0.057242 -0.956188 -0.245738 0.378255 -0.072384 0.303174 -0.234212 0.060665 0.734288 -0.911487 -0.322949 0.423236 0.290109 -0.760037 -1.288567 0.468008 -0.413132 -0.077061 -0.702621 0.608789 -0.170516 0.011251 0.449576 -0.846798 -0.408299 0.138483 1.507711 0.208080 -0.103841 -0.376891 -0.043288 -0.004206 -0.632868
sent_185 -0.054992 -0.459745 0.264109 0.542655 0.159841 -0.156248 -0.070252 -0.232226 0.854022 0.438369 0.151844 0.164414 -0.003765 0.134626 -0.319874 0.255801 0.293141 -0.021545 -0.536890 0.280462 -0.198806 -0.353701 0.234365 -0.452372 0.217599 0.563213 -0.526327 -0.593717 -0.332398 0.296679 -0.358415 0.024801 0.741995 0.063064 -0.744604 -1.264486 0.816827 0.173424 -0.158940 -0.004099 0.368227 -0.406308 -0.069952 1.087413 -0.041949 0.029490 -0.594112 -0.046780 -0.346040 0.365361
sent_186 -0.466489 0.432090 0.094663 0.295331 -0.470518 0.718813 -0.179193 -0.465546 0.702674 0.459884 -0.024016 0.169054 0.495329 0.218764 0.162172 0.596818 -0.348243 0.497336 -0.983135 -0.349781 -0.403912 0.030603 0.314991 -0.148388 0.010572 0.763468 -0.511541 -0.832924 0.478211 0.327948 -0.593086 0.022312 0.527522 -0.954876 0.035028 -0.953249 1.359338 -0.264205 0.063630 0.353780 0.333931 -0.451018 -0.205042 0.948114 0.726409 0.166135 -0.446602 -0.302227 -0.207383 0.316354
sent_187 0.452648 0.477568 0.549863 0.145425 -1.658217 -0.256380 -0.949874 0.440004 -0.660028 0.396267 -0.012451 -0.301760 0.282893 -0.456009 -1.351986 -0.109765 -0.225742 0.347529 0.755500 0.471281 0.074008 0.173477 1.196404 -0.495730 1.234113 -0.007847 0.062489 0.462318 0.516151 0.162672 -0.469564 -0.859262 0.093236 -0.322394 0.216887 1.820507 0.833597 -0.547975 0.550677 -0.465454 0.164672 0.379709 0.213080 -0.196061 -0.114406 0.389495 -0.556385 -0.296117 1.012718 0.378099
sent_188 -0.631671 -0.257558 0.931333 0.386310 -0.457190 -0.563082 -1.040853 0.712539 -0.470172 -0.115228 0.251618 0.661685 -0.243390 -0.459112 -0.863449 0.484591 0.571465 0.190008 0.324551 -0.093285 -0.589721 0.536671 0.089762 0.109779 0.296483 0.388850 -0.801610 0.261439 0.393008 0.501414 0.294837 -0.971958 -0.354753 -0.236046 -0.084878 0.527653 0.514680 -0.094981 0.767650 -0.009000 -0.221708 0.378697 -0.237972 -0.158649 0.401379 0.584457 -0.210031 0.102036 -0.320786 -0.757863
sent_189 -0.475479 -0.251890 0.979799 0.637624 -0.602039 -0.383777 -0.822225 0.533508 -0.601907 0.229382 -0.101932 0.571834 0.052743 -0.700462 -0.924689 0.575666 0.405234 0.218547 0.220365 0.253426 -0.511656 0.352593 0.253230 -0.231867 0.457191 0.713355 -0.637910 0.523705 0.524321 0.080312 -0.092021 -0.753716 -0.590007 -0.032886 -0.099477 0.123068 0.514430 -0.296216 0.435467 0.036799 -0.376376 0.591946 -0.082841 -0.037123 0.452194 0.681104 -0.077618 0.005753 -0.226986 -0.337998
sent_190 -0.145993 -0.443964 1.246776 0.850700 -1.118899 -0.327306 -0.953651 0.955600 -0.600773 0.142748 -0.099026 0.562146 -0.067074 -0.800731 -1.112539 0.608222 0.607102 0.266567 0.346555 -0.083463 -0.204088 0.580830 0.510209 -0.357882 0.502482 0.975480 -0.465869 0.044188 0.615787 0.084414 0.157948 -0.938940 -0.064470 0.240723 -0.123795 0.333691 0.491455 -0.165339 0.620191 -0.070576 -0.603718 0.498677 -0.403370 -0.437296 0.657353 0.841598 -0.545176 -0.472556 -0.262739 -0.725543
sent_191 -0.740578 -0.310073 1.127408 0.669146 -0.987196 -0.705766 -0.856890 0.250069 -0.732854 0.007842 0.332829 0.091683 -0.393243 -0.649087 -1.060080 0.342221 0.461845 0.484825 -0.206452 -0.104876 -0.782030 0.512584 0.355199 -0.119358 0.077978 0.802246 -0.463426 0.053101 0.210960 0.069322 0.173254 -0.950748 -0.285915 -0.080052 -0.133536 -0.142012 0.370822 -0.101338 0.268196 -0.072231 -0.414683 0.772518 -0.724854 0.135411 0.743077 0.800124 0.291932 -0.128144 -0.098653 -0.256562
sent_192 -0.465536 -0.206205 0.515460 0.337134 -0.599825 -0.636098 -0.935306 0.411144 -0.642418 0.064591 -0.202597 -0.246548 -0.667565 -0.497320 -0.916672 0.539511 0.625140 0.001715 -0.113774 -0.399412 -0.584627 -0.212805 0.925020 -0.564232 0.982783 0.572478 -0.949849 0.170995 0.162206 0.781528 0.491531 -1.312425 -0.244295 -0.864102 0.075512 0.506675 0.432963 -0.527750 0.806071 -0.042505 -0.241092 0.742666 -0.603106 0.046263 0.155469 0.899047 -0.210563 0.039163 -0.129412 -1.196865
sent_193 -0.341468 -0.251353 0.665196 0.632422 -0.706999 -0.500228 -0.683037 0.420131 -0.659443 0.565803 -0.129591 0.342036 -0.199007 -0.444157 -0.753914 0.737765 0.431716 0.131187 0.364709 0.149757 -0.656407 0.555655 0.209597 -0.217595 0.283684 0.628839 -0.419188 -0.077857 0.451586 0.074982 0.265160 -0.752862 -0.108676 0.201078 -0.062351 0.356671 0.385743 -0.192716 0.466894 -0.137104 -0.311462 0.715268 -0.379413 -0.149873 0.277840 0.530787 -0.128432 -0.318642 0.228887 -0.555087
sent_194 -0.351357 0.108785 0.451433 0.672397 -0.013984 -0.790921 -0.545174 -0.104847 0.071879 -0.334480 0.376489 -0.287482 -0.368717 0.565122 0.133015 0.546076 0.244501 -0.404973 0.457700 -0.450778 0.333071 -0.461232 0.419339 0.221705 -0.173458 -0.738595 0.157949 -0.208746 -0.082374 0.524234 0.054507 -0.618500 -0.594196 0.181977 -0.193157 -0.266428 0.086254 0.428020 -0.344792 -0.384164 -0.387500 -0.320289 0.163357 0.438087 0.717335 -0.247993 -0.377543 -0.785403 -0.298848 -0.254465
sent_195 -0.398032 0.226621 0.744992 0.869404 -0.083507 -0.724129 -0.715638 -0.134729 -0.205405 0.193847 0.468066 -0.620170 -0.423454 0.237035 0.205748 1.131498 0.269096 -0.621496 -0.250788 -0.610974 -0.369502 -0.538899 0.490546 0.365171 0.040071 -0.696701 0.034785 0.296634 -0.374242 0.280740 0.247805 -0.192528 -0.185683 0.454990 -0.067725 -0.664404 -0.426045 0.547794 0.361075 0.137217 0.193682 0.280003 0.869241 0.359691 0.502223 0.019254 -0.236930 0.310831 0.071697 -0.093172
sent_196 -0.287929 0.277790 0.625512 0.641982 0.074798 0.310283 -0.343981 -0.224309 0.226332 -0.072377 0.486100 -0.192682 -0.571691 0.627343 0.333752 0.818729 0.477243 -0.339052 -0.250157 -0.302424 0.157809 -0.121433 0.284618 0.182462 -0.144049 -0.526438 0.085608 0.221452 -0.609155 0.389571 -0.363761 -0.268110 0.041108 -0.300474 -0.165545 -0.457110 0.193659 0.279675 -0.083866 0.062835 0.191272 -0.514541 0.442851 0.505714 0.524764 0.067856 -0.340079 0.024714 -0.106397 0.218856
sent_197 -0.607747 0.117405 0.729659 0.604880 -0.148281 -0.320628 -0.295665 -0.036764 0.639688 -0.010328 -0.337921 -0.642098 -0.086888 0.697288 -0.063458 0.784856 0.653445 -0.237721 -0.172158 -0.068074 -0.064593 -0.053113 0.608579 -0.216109 -0.637503 -0.446670 -0.542338 0.100539 -0.144233 0.583948 0.134031 0.200609 0.168586 -0.424872 -0.121481 -0.364733 0.390959 0.115801 -0.390945 0.069886 0.247597 -0.662320 0.604936 0.718916 0.395091 -0.173100 0.003794 -0.338490 0.036632 -0.112796
sent_198 -0.466062 0.142668 0.388680 0.611772 -0.102164 -0.811685 -0.484432 0.076552 0.039085 -0.460386 0.530834 -0.329587 -0.441998 0.789546 0.259079 0.318495 0.141573 -0.328367 0.377648 -0.441021 0.460824 -0.536488 0.562634 0.052558 0.125791 -0.761465 0.077732 -0.189655 -0.222163 0.566122 -0.198907 -0.517851 -0.595881 -0.134999 -0.221455 -0.189105 0.115094 0.286093 -0.303567 -0.382445 -0.195449 -0.346052 0.245760 0.460109 0.687356 -0.421317 -0.267607 -0.789877 -0.142610 -0.181752
sent_199 -0.836589 0.748631 0.562047 0.818589 0.304031 -0.304359 -0.396946 -0.410032 -0.157902 -0.067482 0.184355 -0.404271 -0.463180 0.603173 -0.023300 0.989950 0.710779 -0.617982 -0.033487 -0.328629 0.720367 -0.175603 -0.016464 -0.137188 -0.335044 -0.586922 0.242555 0.275831 -0.422887 0.727817 -0.114583 -0.272495 0.017125 -0.114327 0.076323 -0.728578 0.024554 0.742604 -0.127679 0.276182 0.362948 -0.218092 0.916543 1.006544 0.340536 -0.143165 -0.613107 0.095145 0.040014 -0.017571
sent_200 0.164097 0.894635 0.287270 0.561059 0.028938 0.239610 -0.494474 -0.467505 -0.280845 0.845598 -0.307319 0.073462 0.066407 0.629782 0.515947 0.774709 -0.259742 -0.305085 0.131463 0.698872 0.332867 0.176570 0.173236 -0.029968 -0.933042 -0.671686 -0.119105 -0.236371 -0.609225 -0.062430 -0.405966 0.224681 1.087937 -1.030867 -0.100108 -0.875548 0.654450 0.735327 -0.105921 0.333544 0.773452 -0.221391 0.192770 0.611597 0.083566 -0.186024 -0.331410 -0.076599 -0.555952 -0.572035
sent_201 -0.089078 0.783303 0.167706 1.220434 0.273911 0.634876 -0.471070 -0.415697 -0.473521 0.951166 -0.846694 0.079035 -0.561593 0.684578 0.325267 0.345786 -0.518569 -0.180173 -0.493693 0.450349 0.583570 0.104727 0.265078 -0.237996 -0.619004 -0.442453 -0.351042 -0.004617 -0.596581 -0.114337 -0.249121 -0.218082 0.845482 -0.516111 -0.359550 -0.452445 0.569835 0.557990 -0.077076 0.701103 0.696037 -0.617543 0.165102 0.117775 -0.147275 -0.638045 -0.975167 -0.242291 -0.554147 -1.120016
sent_202 -0.032233 0.521909 0.301580 0.973608 0.295827 0.329046 -0.024608 -0.729940 0.235787 0.460393 -0.235424 -0.117308 -0.377640 0.691751 -0.060255 0.294369 -0.381290 -0.037811 -0.302807 0.779247 -0.062562 0.113224 0.361964 -0.365385 -0.975082 -0.747553 -0.273485 -0.142993 -0.895352 -0.130460 -0.499558 0.184051 0.876008 -0.824480 -0.260160 -0.825890 0.579121 0.641868 -0.176910 0.304843 0.556087 -0.356746 0.036025 0.420057 0.494537 -0.336863 -0.722641 -0.641984 -0.190315 -0.627735
sent_203 -0.147057 0.579020 0.180406 0.972672 0.031926 -0.357671 -0.161813 -0.477396 0.008909 0.820463 0.060247 -0.176134 -0.263965 0.956179 0.140857 0.003296 -0.246233 -0.367823 -0.179457 0.498511 0.208457 0.331642 0.089299 0.224843 -0.702038 -0.723095 -0.132176 -0.138279 -0.850103 -0.353267 -0.225464 -0.005099 0.634572 -0.807048 -0.356723 -0.248303 0.560450 0.774860 -0.217870 0.312377 0.217942 -0.613713 0.533361 0.712262 0.164128 -0.082558 -0.666434 -0.492632 -0.117051 -0.767365
sent_204 -0.364078 0.711735 0.160644 0.685240 0.802513 -0.082693 -0.308441 -0.053472 -0.100007 0.458313 -0.327629 0.223521 -0.298046 0.960635 0.383232 0.386439 -0.343397 -0.517026 -0.195957 0.864167 0.244996 0.385059 0.168967 -0.123296 -0.860503 -0.591230 0.278895 -0.094798 -0.444725 -0.121286 -0.208774 0.338101 0.716325 -1.092544 -0.437184 -0.626059 0.383803 0.728967 0.206497 0.346339 0.506466 -0.822940 0.168920 0.813918 0.276240 -0.295929 -0.676790 -0.175081 -0.333927 -0.584594
sent_205 0.357825 1.048272 0.119461 0.889348 0.677257 0.045206 -0.585192 -0.590187 0.160628 0.879699 -0.347234 0.111412 -0.376770 0.914269 0.015277 0.522597 -0.019611 -0.608354 -0.267465 0.743101 0.483677 0.452871 0.512073 0.283648 -0.870293 -0.718999 0.497858 -0.092771 -0.683246 -0.304131 -0.300229 0.187727 0.938799 -1.196323 -0.386450 -0.551087 0.394457 0.440303 0.443884 0.477602 0.313143 -0.438122 0.049011 0.756810 0.116155 -0.168523 -0.692527 -0.641719 -0.284563 -0.201939
