sent_0 -0.345604 -0.045549 0.636120 0.033924 0.398704 -0.687250 -0.374791 0.079835 -0.217194 -0.629755 0.279378 0.566958 -0.105389 -0.099153 0.056729 -0.483442 0.725809 0.292186 0.292855 0.574143 0.256562 -0.074011 0.123444 -0.405398 0.506675 0.505690 -0.107644 -0.198367 -0.232751 0.974447 0.283290 0.110367 -0.543353 0.142484 -0.640451 0.402335 0.860391 0.184688 -0.473339 -0.828680 0.456883 -0.430364 0.663483 0.192019 0.682389 0.483194 -0.886811 0.547598 -0.176805 0.042953
sent_1 0.034743 -0.308759 0.541912 0.033184 0.313513 -0.816112 -0.108370 -0.041883 0.023185 -0.432359 0.154634 0.570448 -0.447281 0.123759 -0.134491 -0.462442 0.645035 0.141183 0.469857 0.597332 0.234966 0.129097 -0.044258 -0.411052 0.366811 0.062997 -0.196418 0.050344 -0.165701 0.500980 0.256807 0.329901 -0.236477 0.205544 -0.823925 0.455353 0.579088 0.333027 -0.298945 -0.843249 0.889863 0.197438 0.593073 0.294601 0.669188 0.126585 -0.983362 0.545535 -0.070812 -0.080457
sent_2 -0.771632 -0.116893 0.025052 1.109711 -0.040265 -0.779378 -0.641341 0.293390 -0.127331 0.151993 -0.284382 1.034038 -0.049216 0.008628 0.305226 -0.378283 0.260645 0.190015 0.930361 0.348966 -0.229275 -0.419398 0.326829 0.074854 0.369368 -0.385123 -0.496818 -0.005656 -0.235002 0.950884 0.463443 0.366140 -0.566598 -0.096918 -0.411314 1.118729 0.789962 -0.654852 0.008568 -0.524035 0.273541 -0.752406 0.529819 0.654700 0.076385 -0.206409 -0.811909 0.000120 -0.599396 0.033008
sent_3 -0.505067 -0.201942 0.722032 0.246511 -0.079491 -0.664669 -0.519691 0.211502 -0.328584 -0.339762 0.512252 0.581608 -0.308904 -0.099285 -0.199056 -0.139893 0.877223 0.180429 0.241625 0.606682 -0.028441 -0.564356 0.082346 -0.399477 0.171037 0.162083 -0.280991 -0.241368 -0.243712 0.856358 0.070755 0.336241 0.019118 -0.133246 -0.628120 0.275263 0.708979 0.389973 -0.108051 -0.472479 0.829460 0.151963 0.345863 0.057154 0.478236 -0.041375 -0.614608 0.455593 -0.076598 0.053119
sent_4 -0.340547 -0.541532 0.347966 0.030297 0.244646 -0.506836 -0.900392 0.548571 -0.330648 -0.187851 0.128807 0.732817 -0.298228 0.106266 0.055355 0.036587 0.965403 0.531516 0.953972 0.306874 0.118897 -0.351740 0.165888 -0.374981 0.239173 -0.021071 -0.163535 -0.207193 -0.262619 0.518099 -0.055036 0.031157 0.176813 -0.018591 -0.419094 0.521260 0.511509 0.090473 -0.143265 -0.775578 0.475575 -0.200488 0.798986 0.386180 0.498654 0.069877 -0.659565 0.893565 -0.417474 0.052279
sent_5 -0.758757 -0.591199 1.084476 0.409257 0.158056 -0.440815 -0.899550 0.023494 -0.755463 -0.940759 0.328949 0.615043 -0.855071 -0.266817 -0.569729 -0.161892 0.861944 0.219176 0.231567 0.018436 0.081241 -0.444648 0.157306 -0.862346 0.533133 0.550058 -0.239390 0.243227 0.188725 0.825152 0.083759 0.273792 -0.065516 -0.072668 -0.207381 -0.005661 0.582908 0.296203 0.058869 -0.463033 0.527420 0.243574 0.413334 -0.113699 0.461926 0.424035 -0.964789 0.510635 -0.090071 -0.284256
sent_6 -0.466501 0.020022 -0.391906 0.524725 -0.635589 -0.374418 -0.261684 -0.223544 -0.584416 -0.021055 0.180135 -0.069646 -0.347044 0.607881 0.145827 -0.777879 0.944887 -0.157914 0.180620 0.415481 -0.229308 -0.328871 -0.102512 -0.403811 0.357011 -0.372682 0.013176 0.325246 -0.306548 0.458971 -0.068138 -0.430839 0.037383 -0.387403 0.000280 0.468851 0.038279 -0.621348 0.051608 -0.070180 0.596461 -0.391261 0.804893 0.301744 0.977171 0.066007 -1.076022 0.534167 -0.082971 0.146863
sent_7 0.043211 -0.508668 0.263166 0.583462 0.353839 -0.302085 -0.608416 -0.166491 0.247261 -0.297929 0.129681 0.980256 0.707488 0.106292 -0.436003 -0.423721 0.042905 0.553076 0.467927 0.987338 0.063653 -1.188162 0.344607 -0.984743 0.642870 -0.079457 -0.737691 0.501143 0.077842 0.996692 0.435511 0.788126 -0.667924 0.066177 0.430863 -0.877125 0.481635 0.167824 -0.317771 -1.197460 0.366481 -0.208404 0.543414 0.631077 0.028218 0.447208 -0.876031 0.319724 -0.833260 -0.028122
sent_8 -0.024813 -0.474351 0.180935 0.009530 -0.005956 -0.556878 -0.254876 -0.054895 0.087961 -0.189959 0.037199 0.379502 -0.193031 0.236979 0.042788 -0.656695 0.524410 -0.026193 0.019289 0.456838 -0.119989 -0.250313 0.602881 -0.287962 0.186130 -0.042446 -0.756912 0.170732 0.050187 0.590327 0.146970 0.033008 -0.602690 0.011365 0.087408 0.127176 0.800729 0.100111 -0.221091 -0.545123 0.666351 -0.478308 0.605180 0.064297 0.287352 0.251736 -0.928636 0.349485 -0.024484 -0.157707
sent_9 -0.292050 -0.335225 0.124503 0.220869 0.209573 -0.274766 -0.115606 -0.120074 -0.326477 -0.269811 0.280173 0.421495 -0.593468 -0.095945 -0.239280 -0.498791 0.654834 -0.087894 0.260065 0.552422 -0.026024 0.305293 0.126022 -0.344600 0.222947 -0.171178 -0.194245 0.299961 -0.254240 0.524254 0.142566 0.631566 -0.209771 0.203329 -0.413696 0.026864 0.428615 0.184415 -0.017175 -0.501832 0.537001 -0.032644 0.105155 0.242047 0.678868 0.095651 -0.491713 0.671282 -0.110768 -0.009277
sent_10 -0.271806 -0.106464 0.854010 -0.162499 -0.347759 -0.903307 -0.357095 -0.155287 -0.927624 -0.468155 0.353625 0.462050 -0.584949 0.061194 -0.369650 -0.263570 0.826523 0.479148 0.169461 0.108757 -0.334598 0.210746 0.578436 -0.582424 0.214896 0.215958 -0.279686 -0.060677 -0.018554 0.652727 -0.082905 -0.456152 0.018985 0.199041 -0.400447 0.265548 0.832399 0.182725 -0.085226 -0.647076 0.889886 0.059338 -0.044251 -0.170712 0.845077 0.430852 -0.507468 0.507191 -0.375887 -0.088490
sent_11 -0.477752 0.684294 -0.097949 0.548580 -0.177115 0.205641 0.644736 0.021141 0.776004 0.816351 0.404537 -0.271532 -0.186684 -0.790381 0.126569 0.038831 -0.308625 -0.616065 -0.286793 0.031433 0.664598 -0.292663 0.691447 -0.321044 0.508336 -0.083615 -0.053752 -0.179947 0.154114 0.894705 -0.768662 -0.049913 0.524196 0.397897 -0.716203 -0.181809 0.148996 0.310612 0.086250 0.073148 -0.542837 0.076058 -0.271543 0.599195 0.556231 -0.807950 0.778540 -0.284817 0.014203 0.334042
sent_12 -0.463133 0.238371 -0.264738 0.434786 -0.211198 0.370230 0.148084 -0.269838 -0.036951 0.629724 0.014321 -0.421416 -0.314154 -0.494279 0.321616 -0.155665 -0.482830 -0.751694 -0.211562 0.335594 0.710123 -0.299067 0.165875 -0.181846 0.246893 0.235861 -0.344525 0.025567 0.030939 1.458895 -0.483104 0.374761 0.225059 0.689885 -0.663105 0.105910 0.488573 0.632212 0.331168 0.550304 -0.510971 0.410009 -0.617279 0.751165 0.021527 -0.870663 1.125629 -0.022163 0.066336 -0.007667
sent_13 -0.395764 0.054285 -0.131053 -0.377848 0.315477 0.098262 1.048149 -0.069911 0.351984 0.269432 0.035441 -0.639187 -0.517109 -0.790878 0.093309 -0.174889 -0.618341 -0.585009 0.113790 -0.432328 -0.064543 -0.435734 0.537760 -0.419294 0.326376 -0.062701 -0.467483 0.114118 0.674912 0.890948 -0.017657 -0.114240 0.206717 0.439033 -0.768609 0.074882 0.302731 0.897469 -0.059139 0.465464 -0.614535 0.213403 -0.304935 0.616701 -0.320388 -0.346547 0.854343 -0.068268 0.137950 0.184502
sent_14 -0.217625 -0.694388 -0.616963 -0.377166 0.313122 0.690038 0.577481 -0.118490 0.202505 -0.250235 0.171508 -0.495589 0.177731 -0.714037 0.048269 -0.739274 -0.210104 -0.686506 0.017030 -0.069705 0.062693 -0.496677 0.922987 -0.469432 0.322662 -0.538077 -0.296951 -0.286134 0.075299 0.856557 -0.100602 0.835229 -0.411954 0.667081 0.543756 -0.419248 0.334701 0.252585 0.278283 0.309101 -0.535796 0.158912 0.072925 0.059139 -0.157032 -0.451223 0.655321 -0.133884 -0.471221 -0.118356
sent_15 -0.672041 -0.142101 -0.326153 -0.108743 0.323557 0.209983 0.867370 -0.303308 0.584456 0.761342 0.095209 -0.990358 -0.743381 -0.925080 -0.666697 0.164466 -0.327435 -0.251378 -0.233607 -0.217001 0.383597 -0.280168 0.544123 0.238725 0.673020 0.009043 -0.117903 0.004915 0.907512 0.698372 -0.723859 0.098615 -0.047286 0.523797 -0.821317 0.142840 0.348182 0.628242 0.181656 0.846868 -0.479283 0.161299 -0.770728 0.157494 -0.073944 -0.068780 0.624687 -0.423371 0.185406 -0.217343
sent_16 -0.648318 0.077858 -0.033788 0.123492 0.222160 0.045115 0.724073 -0.036819 0.231947 0.242208 0.591965 -0.686395 -0.384088 -0.538076 -0.093916 -0.436708 -0.548064 -0.877700 0.008489 0.036231 0.213239 -0.205920 0.465879 -0.080587 0.299184 -0.518059 -0.184538 -0.230515 0.440417 0.553079 -0.507361 0.010792 0.023845 0.618866 -0.303323 0.222800 -0.191414 0.247391 -0.074535 0.023102 -0.481480 0.001755 -0.423097 0.437584 -0.026638 -0.340264 0.602197 -0.389449 -0.020594 -0.019529
sent_17 0.025651 -0.065080 -0.209193 -0.053430 0.623747 0.039382 0.826803 -0.317167 0.115897 0.400518 0.828516 -0.207357 -0.390344 -0.599053 -0.135740 0.139056 -0.976434 -0.473236 -0.039655 0.008186 0.211856 -0.554104 0.145675 0.194119 0.457530 -0.062907 0.205610 -0.082982 0.069001 0.732968 -0.534378 0.153002 0.371916 0.590217 -0.672157 0.058381 0.023486 0.661335 0.354756 0.269274 -0.695704 0.235805 -0.466204 -0.346025 -0.044484 -0.508450 0.664043 -0.073384 -0.030355 0.082464
sent_18 -0.606028 -0.312618 -0.352082 0.069032 0.667384 0.334747 0.373149 -0.546061 0.108843 0.421354 0.368508 -0.469949 -0.280497 -0.199703 -0.279012 0.073106 -0.574827 -0.735770 0.046097 0.327632 -0.422185 0.445612 0.032388 0.430974 0.340856 -0.308613 0.040913 0.158632 0.259519 0.796850 -0.024995 0.370710 0.332913 0.523167 -0.337062 -0.229998 -0.049779 0.549148 -0.015684 0.347804 -0.672395 -0.390770 -0.626556 0.323704 0.264918 -0.727597 0.799668 0.342020 0.139903 0.022819
sent_19 -0.091878 -0.344128 0.437237 -0.548302 0.634819 0.155831 -0.185310 -0.278788 -0.449024 0.387078 0.676103 -0.361096 -0.276164 0.184958 0.019478 0.079886 0.098764 -0.052855 -0.353135 0.571625 -0.387926 -0.622497 0.556861 0.416350 0.507195 -0.618157 -0.119267 -0.210267 0.278898 0.711500 -0.124406 0.064690 0.443375 -0.393077 -0.494232 0.048200 0.105330 0.239774 -0.067661 0.132540 -0.328466 -0.204008 -0.095102 0.254975 0.168965 -0.306564 1.154380 0.128248 -0.469537 0.078682
sent_20 -0.283382 -0.403583 -0.129360 -0.141261 0.529200 0.131277 0.478617 -0.512021 0.442428 -0.004807 0.271781 -0.118726 -0.272716 -0.094599 -0.251687 0.045238 -0.352635 -0.411951 0.134625 -0.178495 0.040919 0.060816 0.014361 0.317581 -0.131565 -0.388588 0.277503 -0.175968 0.297699 0.402161 -0.636832 0.019761 0.270285 0.214561 -0.838905 0.183420 0.123084 0.255400 0.314510 -0.039627 -0.557664 0.251149 -0.608267 -0.164170 0.156099 -0.304438 0.593451 -0.261784 0.079780 0.121053
sent_21 -0.210121 -0.109799 -0.212111 0.036653 0.036305 0.224847 0.604739 -0.264355 0.117415 -0.029716 0.186730 -0.282097 -0.196821 -0.204416 -0.222041 0.270400 -0.508245 -0.151810 -0.156208 -0.246279 0.097480 -0.009615 0.179539 -0.133059 0.383445 -0.268005 0.196657 -0.023698 0.353088 0.583851 -0.265307 -0.116361 -0.145859 0.249972 -0.679062 -0.007497 0.528177 0.612842 0.409478 0.232738 -0.652226 -0.272378 -0.135097 0.159379 -0.336621 -0.623583 0.824205 0.316762 -0.050741 0.088998
sent_22 -0.568716 0.239653 -0.386108 0.032334 -0.024747 -0.057562 1.114771 -0.258349 0.435401 0.443532 0.133814 -0.699718 -0.262721 -0.624631 0.301858 0.224204 -0.547387 -0.579879 -0.024707 -0.153645 0.090005 -0.297025 0.476239 -0.104058 0.411440 -0.069451 -0.234605 -0.368018 0.480828 1.049138 -0.391894 -0.203590 0.273666 0.813233 -1.020897 -0.023983 0.334023 0.501469 0.206768 0.459002 -0.519054 -0.168551 -0.645818 0.313866 0.159260 -0.294167 0.926850 -0.289134 0.252686 -0.089184
sent_23 -0.241721 -0.287836 -0.652321 -0.426516 -0.108828 0.614195 0.955397 -0.375274 0.507909 1.147568 0.338352 -0.436188 -0.492895 -1.517750 -0.806321 0.427666 0.081331 -0.085731 0.257994 -0.271307 -0.153026 0.280989 0.339923 0.168758 0.727014 0.056893 -0.257584 0.828189 0.989993 0.528328 -0.362554 -0.203709 -0.169542 0.647389 -0.566904 -0.265410 0.799282 0.504200 0.594383 1.099411 -0.197092 -0.302815 -0.492530 0.084717 -0.624734 -0.362717 0.947595 0.917718 0.284913 0.006491
sent_24 -0.016092 -0.545512 0.077063 -0.122862 0.082935 0.027656 0.382384 -0.334323 0.722821 0.038051 0.626320 -0.334270 0.036313 -0.346308 -0.207588 -0.005504 -0.435803 -0.684064 0.429524 -0.005156 0.217633 0.385518 0.076768 -0.024811 0.388344 -0.119100 -0.005948 0.049939 0.513869 0.912137 -0.119695 -0.308050 -0.053573 0.353730 -0.462890 0.077428 0.340029 0.691544 0.281129 0.364388 -0.621496 -0.150012 0.084458 0.380137 -0.620923 -0.857911 0.472887 0.029231 0.238666 0.029879
sent_25 -0.022946 -0.508159 0.102340 0.420422 -0.426456 -0.836992 0.980228 -0.127219 -0.556258 0.235181 -0.515235 -1.008835 0.136155 1.221485 -0.510235 0.162177 0.676421 -0.582060 -0.262039 -0.123604 -0.275337 0.306653 -0.855346 -0.684161 -0.032124 0.343541 0.302026 0.615397 -0.051927 0.006884 -1.187220 -1.546569 0.819475 -0.908659 -0.096715 0.490102 -0.285947 -0.593731 -0.331797 -0.292022 -0.478208 -0.689681 -0.009236 -0.322742 -0.236288 0.703518 1.119281 0.546442 -0.284128 -0.503114
sent_26 -0.204402 -0.912027 0.559022 0.313570 -0.684034 -0.202957 0.153988 0.095201 -0.111040 0.550873 -0.945569 -0.320731 -0.096868 0.724818 -0.255798 0.014660 0.780633 0.107840 -1.338741 -0.372002 0.080634 -0.464765 -0.864854 -1.023102 -0.257664 0.539351 0.208183 -0.016805 0.229801 -0.124883 -0.986953 -1.115379 0.630622 0.195214 -0.206994 0.935105 -0.735820 -0.257660 -0.140993 0.335622 -0.796617 -1.132346 0.270499 -0.654568 -0.631176 0.002417 0.883395 0.491579 -1.246301 -1.292805
sent_27 -0.064928 -0.142651 0.335522 -0.229400 -0.795740 -0.218988 0.248614 -0.266955 -0.003516 0.030810 -0.790013 -0.326264 0.060453 0.523498 0.314954 0.445713 -0.437790 -0.119328 -0.717479 -0.628099 -0.801226 -0.328122 -0.129304 -0.421377 -0.242196 0.497300 0.417099 0.036089 -0.333016 0.551207 -0.707381 -0.449412 0.386633 -0.078612 0.309919 0.452497 -0.007318 -0.150515 0.298610 0.429398 -0.434351 -1.227558 0.856724 -0.561200 0.087281 0.634679 0.605459 0.666915 -1.072495 -1.122962
sent_28 -0.019710 -0.818527 0.589410 0.169442 -0.282080 -0.682877 0.070283 -0.129022 0.490715 0.194550 -0.448146 0.022173 0.986314 0.687541 -0.696318 -0.236634 -0.015242 0.068863 0.757620 -0.091937 -0.633881 -0.852773 -0.162308 -1.041469 0.345639 -0.113499 -0.340728 0.302644 0.503873 0.540588 -0.081990 -0.113258 0.463682 -0.146437 0.615948 -0.620621 -0.658129 -0.044709 0.082432 -0.499533 -0.518412 -0.455982 0.603717 0.042037 -0.356957 0.342795 -0.041082 0.110840 -0.815203 -0.602625
sent_29 -0.195441 -0.815632 0.307804 0.238674 -0.396215 -0.769900 0.504562 0.348891 -0.107760 0.702158 -0.448637 -0.382868 0.307820 0.572530 -0.398282 0.823937 0.279664 -0.311871 0.163549 0.033539 -0.226039 -0.073845 -0.809766 -0.360562 -0.481934 0.466850 0.548356 0.426196 -0.325314 0.383051 -0.744698 -0.905609 0.808150 -0.520285 0.089843 0.528778 0.046426 -0.211947 0.027312 -0.099621 -0.818118 -0.577502 -0.015832 -0.250451 -0.010961 0.385934 0.836111 0.201992 -0.253206 -0.180545
sent_30 -0.102833 -0.731735 0.204224 0.091823 -0.686997 -0.398356 0.239592 0.490276 0.191407 0.686086 -0.326246 -0.660061 0.446458 0.934241 -0.058200 0.872165 0.080671 -0.387759 -0.392335 -0.386028 -0.410621 0.219836 -0.707851 -0.631521 -0.382518 0.459476 0.863148 0.272844 -0.153292 0.332323 -0.590103 -1.067427 1.007663 -0.192379 -0.174255 0.624276 0.130774 -0.288269 0.232265 -0.036385 -0.938768 -0.892597 0.216403 -0.405693 0.151780 0.308586 1.239682 0.496676 -0.589468 -0.444731
sent_31 0.004150 -0.423756 0.517538 0.383655 -0.523365 -0.646679 0.377426 0.017543 -0.098821 0.248637 -0.466795 -0.477733 -0.059979 0.864518 0.261762 0.352910 -0.518063 -0.207318 -0.175343 -0.223809 -0.465627 -0.086649 -0.521573 -0.040610 -0.413240 -0.513093 0.206734 0.297362 -0.194477 0.015479 -0.425527 -0.393078 0.542385 -0.691077 0.363228 0.226300 -0.169268 -0.064936 0.673744 0.237808 -0.366355 -0.986539 0.008799 -0.245868 0.458997 0.326958 0.243474 -0.029708 -0.228227 -0.698156
sent_32 -0.130558 -0.819997 0.261245 0.071193 -0.605183 -0.818671 0.249935 -0.231440 0.178770 0.253990 -0.495408 -0.422702 0.142700 0.817104 -0.307909 0.482864 0.090082 -0.367814 -0.041316 -0.265680 -0.137667 -0.110301 -0.843499 -0.680289 -0.407892 0.683898 0.453779 0.145429 -0.088879 0.503778 -0.775537 -1.059846 1.149861 -0.208516 -0.113341 0.725102 -0.116843 -0.353704 -0.152253 -0.097090 -1.003848 -0.834210 -0.159281 -0.438294 0.339830 0.468428 0.639732 0.076155 -0.100757 -0.429860
sent_33 0.236527 -0.996588 0.551950 -0.027624 -0.649528 -0.319490 0.358277 0.203982 0.121423 0.489544 -0.456020 -0.963582 0.068989 0.669595 0.154551 0.451345 -0.326189 -0.607729 0.041746 -0.050299 -0.184384 0.068757 -0.688085 -0.648224 -0.208294 0.440275 0.454804 0.174597 -0.258935 0.207982 -0.847684 -0.967694 0.727185 0.006047 -0.035972 0.686440 -0.300151 -0.359607 -0.027440 -0.123389 -0.581519 -0.752826 -0.056105 -0.549672 0.359222 0.053779 0.643646 0.057015 0.056836 -0.663811
sent_34 -0.120095 -0.313219 0.243811 0.294742 -0.713329 -0.230258 0.638475 0.402566 -0.400540 0.415041 -0.022459 -0.769277 0.330789 0.853477 -0.336851 0.299992 0.572297 -0.303608 -0.242543 -0.539395 -0.259895 -0.105500 -0.772269 -0.513526 0.121252 0.322715 0.333382 0.503240 0.126824 -0.075251 -0.610440 -1.146403 1.062731 -0.516138 0.302288 0.605630 -0.158376 0.038184 -0.154171 -0.071052 -0.456560 -0.573249 0.310124 -0.090003 -0.448366 0.323843 0.764441 0.664762 -0.344660 -0.658858
sent_35 0.171870 -0.619158 0.374449 -0.045317 -1.291376 0.153357 0.645081 -0.256884 -0.317079 0.929678 -1.036331 -0.034773 -0.205052 0.376433 0.134536 0.007373 -0.054162 -0.364453 -0.523540 -0.539177 -0.440487 0.028889 -0.648004 -0.802478 -1.008829 0.784652 0.729080 0.073523 -0.192379 0.232751 -0.451007 0.282110 0.439814 -0.071839 0.720025 0.622516 -0.271534 -0.345922 0.121618 0.348469 -0.598918 -0.525305 0.029481 -0.427078 -0.083683 0.135666 0.434956 0.813989 -0.678569 -1.409267
sent_36 -0.221123 -0.631094 0.263755 0.044830 -0.560098 -0.704956 0.640694 -0.074804 0.053242 0.338247 -0.559579 -0.519317 0.381481 0.814070 -0.358282 0.620802 0.227775 -0.287782 0.172864 -0.037425 -0.319916 -0.061436 -0.967448 -0.507765 -0.204961 0.277686 0.610160 0.289273 0.059719 0.281654 -0.787603 -1.198654 0.961731 -0.101224 0.019508 0.480231 -0.303918 -0.236284 -0.151317 -0.216517 -0.685292 -0.898105 0.059094 -0.192548 -0.026461 0.366471 0.698752 0.192910 -0.172301 -0.139502
sent_37 -0.231521 -0.355668 0.171551 0.150254 -0.405894 -0.330491 0.218963 0.252051 -0.467690 0.290924 -0.430073 -0.626971 0.096786 0.537561 -0.229644 0.042921 0.189067 -0.124856 -0.301759 -0.088088 -0.025442 -0.044304 -0.291898 -0.412815 -0.186586 0.150709 0.450010 0.104201 -0.199131 0.077470 -0.292374 -0.514693 0.495563 -0.205863 0.173985 0.542090 -0.294067 -0.236641 0.044450 -0.090799 -0.657618 -0.689986 0.374834 -0.296192 -0.302096 -0.071744 0.635998 0.446209 -0.195801 -0.658264
sent_38 -0.048474 -0.661885 0.119921 -0.087498 -0.744799 -0.854713 0.421065 -0.149066 -0.504035 0.646785 -0.105812 -0.231360 -0.086513 1.062667 0.183228 0.316445 1.206309 -0.203352 0.346237 -0.281865 -0.608613 0.167329 -0.047277 -0.648110 0.782819 -0.242975 -0.022403 0.124430 -0.308594 -0.247963 -0.351708 -0.705060 0.737087 -1.309531 0.452423 -0.314791 0.307018 -0.336742 0.322531 0.393925 -0.514232 -0.984002 0.634638 0.328293 -0.306508 0.317927 -0.196869 -0.123881 -0.534063 -0.599755
sent_39 0.033098 -0.692978 0.337038 0.023068 -0.893718 -0.544635 0.344238 -0.041819 0.310301 0.209174 -0.435325 -0.205519 0.189878 0.673322 -0.303300 0.325126 -0.101154 -0.506468 -0.593098 -0.605478 -1.044236 -0.289983 -0.866823 -0.517828 -0.767230 0.196165 1.047699 0.049290 -0.339464 0.409188 -0.753659 -0.415864 0.870080 -0.180315 0.057856 0.792212 -0.536314 0.001071 -0.057683 0.334855 -0.294329 -0.994243 0.086365 -0.717196 0.201976 0.527604 1.412371 0.791717 -0.744750 -1.063508
sent_40 -0.146062 -0.445529 0.244912 -0.033873 -0.570561 -0.375951 0.445412 0.020052 -0.120957 0.423903 -0.297600 -0.504524 0.259008 0.593304 -0.077777 0.457391 0.084393 -0.270952 0.014711 -0.166672 -0.234650 0.083813 -0.684708 -0.309939 -0.113136 0.192042 0.360588 0.207446 -0.111516 0.152548 -0.492909 -0.826552 0.676485 -0.249858 -0.036616 0.312736 -0.054463 -0.161678 0.104633 -0.143240 -0.493597 -0.676595 0.090924 -0.341164 -0.014478 0.219264 0.539556 0.175578 -0.198689 -0.353230
sent_41 -0.312019 -0.791489 0.002483 0.035949 -0.554086 -0.640448 0.261890 0.247016 -0.411388 0.035958 -0.481832 -0.545565 0.525128 1.000993 -0.113415 0.264446 0.831949 -0.274663 0.035568 -0.072423 -0.612852 0.008754 -0.623423 -0.561677 -0.219032 -0.025298 0.441316 0.298781 -0.009735 0.082878 -0.813550 -1.302408 0.787484 -0.548414 -0.074509 0.372131 0.086347 -0.304230 0.413424 0.050084 -0.839150 -1.194210 0.088083 -0.229586 0.169330 0.371055 0.824962 0.456957 0.031843 -0.659350
sent_42 0.217476 -1.094844 0.525811 0.118814 -0.551742 -0.047327 0.514312 0.592862 -0.154783 0.639525 -0.306838 -0.775941 0.208130 0.807503 -0.171032 0.546087 -0.110282 -0.169853 -0.187953 -0.501976 -0.498733 -0.121996 -1.024472 -1.139527 -1.034263 -0.152347 0.717971 0.455602 -0.064491 0.401212 -1.030407 -0.725806 1.035644 -0.021234 0.130184 0.628299 -0.311593 -0.180806 0.327515 0.220067 -0.085113 -0.512253 0.345916 -0.573936 0.346716 0.531273 0.919002 1.097252 -0.721738 -0.891107
sent_43 0.038796 -0.691239 0.355881 -0.234558 -1.179489 -0.283127 0.682340 -0.078784 0.014605 0.075280 -0.703302 -0.021361 0.277441 0.767728 0.013093 -0.458526 -0.248516 -0.488123 -0.637793 -0.200037 -1.252031 0.284775 -0.652335 -0.569622 -0.257247 0.629600 0.763746 0.072082 -0.406644 0.130352 -0.583138 -0.499269 0.671050 -0.366111 0.152241 0.750723 0.103445 -0.366167 0.368184 0.696809 0.339622 -0.621095 0.114874 -0.710410 0.202462 0.752659 0.900112 0.157408 -0.579064 -0.999412
sent_44 -0.048317 -0.545758 0.454588 0.009118 -0.800691 -0.390001 0.450617 -0.111064 0.107629 0.202389 -0.355485 -0.457278 0.287635 0.714379 -0.193207 0.319211 0.018889 -0.414565 -0.452480 -0.696269 -0.836444 -0.138921 -0.772626 -0.531487 -0.904653 0.022804 0.820260 0.157887 -0.454130 0.340058 -0.740131 -0.324443 0.828196 -0.161855 -0.066929 0.562888 -0.571146 -0.153534 0.103622 0.333802 -0.194967 -0.952100 0.313574 -0.687676 0.030602 0.490934 1.310117 0.735667 -0.672592 -1.143250
sent_45 0.304971 -1.040681 0.227818 0.543802 -0.815059 -0.088083 0.530145 0.027954 0.339007 0.177012 0.069256 0.028495 -0.080169 0.577819 -0.007865 0.111240 0.003634 -0.100625 0.175076 -0.318158 -0.857381 0.137193 -0.589733 -0.757005 0.260516 -0.125246 0.157757 0.035489 0.329832 0.340491 -0.294425 -0.377923 0.836706 -0.235457 0.546047 -0.060843 0.414470 0.060317 0.156210 0.023099 0.154996 -0.909656 -0.147993 -0.606272 -0.092897 0.608309 0.601630 -0.169305 -0.172212 -0.289246
sent_46 0.164070 -0.302656 -0.076525 -0.696925 -0.455378 -0.719537 1.002050 0.116441 -1.133056 0.361320 0.135516 -0.499399 -0.004937 0.509502 -0.149959 -0.217958 0.298069 -0.405062 -0.205294 -0.372449 -0.331755 0.081809 -0.520270 -0.441521 0.075887 0.001242 -0.132997 0.760262 0.467715 -0.396457 -0.703883 -1.605099 1.083754 -0.457718 0.061573 0.622312 -0.278717 -0.151958 0.172846 -0.097656 -0.033547 -1.206255 -0.119913 -0.532784 0.290207 0.213062 0.528794 0.604139 0.124663 -0.711007
sent_47 -0.380045 0.129880 0.138525 0.011688 -0.761858 0.370737 -0.469910 0.180846 -0.247152 -0.321826 0.171593 0.197893 0.460655 -0.094079 -1.138599 0.335198 0.627810 0.050920 0.206752 0.074631 -0.465732 -0.346336 -0.100466 0.414676 0.242438 0.452421 0.017163 -0.209368 0.098505 0.116800 0.259033 0.045406 1.365693 -0.614680 -0.086395 1.032054 -0.211690 0.070328 0.233024 -0.375672 -0.652194 -0.437457 -0.055222 -0.938252 -0.068108 -0.186922 0.680551 0.110072 -0.014698 -1.028475
sent_48 -0.149815 0.473655 -0.018944 0.140924 -0.977255 0.295360 -0.398661 -0.147014 -0.082890 0.397862 0.094346 -0.032132 0.583604 0.368725 -0.907741 0.564757 0.764659 -0.389479 0.152810 -0.048769 -0.307258 -0.420442 0.012714 0.419781 -0.034980 0.445206 -0.163829 -0.388404 -0.110604 -0.001814 0.125513 -0.191924 1.293739 -0.682238 -0.559802 0.923107 -0.419722 0.267918 -0.034811 -0.240178 -0.509040 -0.726992 0.037769 -0.967102 -0.193522 -0.421361 0.949176 0.105479 0.025508 -1.388174
sent_49 0.185862 -0.265055 -0.188289 0.089605 -0.768439 0.332447 -0.057423 0.037304 -0.296946 -0.332885 0.146574 0.167276 0.070478 0.264998 -0.554107 -0.087585 0.572729 -0.089359 0.424875 -0.369068 -0.582046 -0.237948 0.065833 0.498229 0.302668 0.011627 -0.116507 -0.436973 0.246577 -0.061912 0.213672 -0.020163 0.637133 -0.057425 0.175070 0.764592 -0.265219 0.315975 -0.065243 -0.409379 -0.074908 -0.947011 0.011900 -0.639221 -0.059714 -0.437474 0.833573 -0.114270 0.191831 -1.076361
sent_50 -0.293904 0.159437 0.355889 0.018287 -0.814997 0.286318 -0.505942 0.064033 -0.682481 -0.368624 0.239561 0.226163 0.506781 -0.070082 -1.105390 0.428611 0.490515 0.134128 0.202490 0.149528 -0.561980 -0.359497 -0.150081 0.468205 0.332286 0.508701 0.012305 -0.031837 0.123404 0.161907 0.224534 0.312550 1.481710 -0.594747 -0.157388 0.942985 -0.270722 0.123053 0.150633 -0.297787 -0.697482 -0.595814 0.180065 -1.065117 -0.127773 -0.046797 0.760244 0.273678 -0.264924 -0.977652
sent_51 -0.165566 0.223043 -0.104563 0.076339 -0.769791 0.427061 -0.335287 0.012113 -0.478539 -0.024312 0.147968 0.186069 0.637943 -0.049103 -0.999578 0.306902 0.656305 -0.008709 0.212293 0.180752 -0.869319 -0.444397 -0.135183 0.511042 0.095109 0.142007 -0.127249 -0.531917 -0.023389 -0.236288 0.258254 0.232445 1.291924 -0.551842 -0.551674 0.698278 -0.315917 0.343741 -0.020217 -0.420972 -0.967079 -0.393572 0.285086 -0.923442 -0.378146 -0.437509 0.727519 0.013647 0.203743 -0.759851
sent_52 0.237028 0.444203 0.815427 -0.256171 -0.914658 0.417779 -0.539665 0.633050 -1.090711 0.514611 -0.942114 -0.362413 -0.311824 0.846219 -0.614524 0.125092 0.518191 -0.052543 -0.036792 0.339223 -1.184116 -0.373218 -0.314461 -0.056181 0.444358 0.332587 -0.135769 0.081426 0.060398 -0.194180 0.285813 -0.394592 1.091751 0.448945 -0.290538 -0.123027 -0.246813 0.423097 -0.387506 -0.341866 -0.088383 -0.870036 0.091771 -0.882619 -0.269176 -0.835896 0.885838 0.091727 -0.573894 -0.931440
sent_53 -0.003130 0.273962 -0.241899 0.082351 -0.977152 0.237333 -0.218140 -0.040882 -0.398961 0.070633 0.092479 -0.323838 0.331648 -0.002073 -0.932922 0.290246 0.681731 -0.030164 0.224277 -0.171178 -0.605463 -0.505167 -0.097026 0.266418 0.291967 0.426041 0.051415 -0.216188 0.223311 -0.098758 -0.019037 -0.331796 1.347292 -0.770531 -0.120668 0.618765 -0.242654 -0.077874 0.051698 -0.319088 -0.555577 -0.450351 0.101814 -0.768427 -0.235707 -0.299343 0.626736 0.475920 0.235900 -1.089822
sent_54 0.125463 0.539467 -0.046161 -0.002674 -0.971005 0.157585 -0.268440 -0.045545 -0.458468 -0.129258 -0.060959 0.050884 0.664211 0.168454 -1.291612 0.441934 0.726424 0.195638 0.641147 0.072452 -0.596903 -0.419515 -0.092690 0.389585 0.242040 0.573034 -0.136027 -0.139736 0.219667 -0.088854 0.202139 0.119805 1.161562 -0.471357 -0.283038 0.731754 -0.143476 -0.099573 0.171475 -0.297383 -0.478613 -0.697760 0.130655 -0.755325 -0.281213 -0.386951 0.795981 -0.027748 0.379992 -0.623931
sent_55 0.021180 0.203549 0.090304 0.066974 -1.014912 0.727725 -0.421993 -0.174435 -0.386803 0.052323 -0.138271 0.061685 0.273143 0.223197 -0.517283 0.264170 0.590748 0.178594 -0.023179 0.394415 -0.659829 -0.092048 -0.207770 0.252276 -0.013567 0.606581 -0.158131 -0.179382 0.157460 -0.290872 0.559293 0.260972 1.344688 -0.286661 -0.430295 0.426534 -0.091715 0.136942 -0.009295 0.051367 0.090678 -0.631981 -0.214604 -0.742053 -0.169822 -0.310331 1.034404 0.199709 0.086701 -1.056278
sent_56 0.023352 0.136695 -0.171340 0.142305 -0.833101 0.355918 -0.233310 0.296246 -0.409084 -0.473534 -0.118017 0.266499 0.500908 0.174769 -1.168534 0.179396 0.495406 -0.258183 0.286745 0.413301 -0.637609 -0.650116 0.074998 0.149901 -0.137975 0.348767 -0.172369 -0.185462 0.253233 0.013708 0.186837 0.050718 0.987126 -0.129995 -0.406927 0.845270 0.132001 -0.023869 -0.036730 -0.212087 -0.562984 -0.349206 0.100282 -1.139227 -0.092633 -0.094513 0.814180 -0.317333 -0.161645 -1.155318
sent_57 -0.341990 0.140719 0.763862 0.281478 -0.737477 -0.447142 -0.234801 0.764735 -0.182173 -0.710682 0.465479 -0.068185 0.137364 -0.197215 -0.833544 -0.107688 0.607006 0.135271 0.310817 -0.154761 -0.722632 -0.391267 -0.027552 0.346084 -0.001055 0.314430 -0.434259 -0.306950 0.537837 0.316366 0.743610 0.038379 0.977206 -0.630654 -0.010591 0.328023 0.155055 0.032289 0.071903 -0.651810 -0.229183 -0.170722 0.522046 -0.778065 0.253711 -0.057085 0.461231 0.236298 -0.289719 -0.984818
sent_58 -0.102570 0.008833 -0.434212 -0.447746 -0.704624 0.162098 0.021495 0.208885 -0.528572 0.069117 0.214198 0.059443 0.443747 0.483917 -0.696408 0.057586 0.826284 -0.098080 0.174700 0.212175 -0.610491 -0.228094 -0.320393 0.338066 0.098680 0.331334 0.157223 -0.033372 0.102708 0.116245 0.184662 -0.216236 1.771521 -0.847889 -0.206086 0.829856 -0.048200 -0.050021 0.352649 -0.119063 -0.012085 -0.843271 -0.162444 -0.649011 -0.005199 -0.836273 0.826170 0.034297 0.097438 -1.075114
sent_59 0.496800 -0.103238 -0.065948 0.263879 -0.850128 0.530545 0.033272 -0.077166 -0.468100 -0.320019 0.020517 0.637088 0.392284 0.436424 -0.775341 0.310471 0.722998 -0.356159 0.676558 0.015644 -1.049084 -0.524965 -0.354820 0.164503 0.061310 0.346259 -0.046732 -0.164115 0.072306 0.211028 0.232824 0.529363 1.501953 -0.167079 -0.274221 0.588826 -0.107091 0.339692 0.208339 -0.021585 -0.183245 -0.725407 0.122710 -1.202938 0.030753 -0.379487 0.518001 0.189983 -0.264084 -1.310820
sent_60 0.620062 0.400012 -0.039095 0.315688 -0.698486 0.302507 -0.278395 0.057405 -0.520615 -0.152144 0.344049 0.048423 0.159366 -0.399708 -0.798035 0.113066 0.415918 0.280880 0.029872 -0.019563 -0.700443 -0.827611 0.398153 0.381938 0.275513 0.825428 -0.371752 0.034291 0.258415 0.108884 0.178914 -0.069512 0.889987 -0.184390 -0.493313 0.646981 -0.678504 0.215333 0.155044 0.212186 -0.393318 0.376636 0.409167 0.114646 -0.694847 0.286054 0.409467 -0.285444 0.040937 -1.348963
sent_61 -0.131411 -0.401788 -0.198377 -0.297054 -0.977559 0.146116 -0.291641 0.256684 -0.169882 -0.058708 -0.008037 -0.058077 0.716828 0.231598 -0.975456 0.002812 0.766163 -0.151272 0.247455 0.089730 -0.617623 -0.313245 -0.269628 0.230571 0.097742 0.478148 -0.166786 -0.066065 0.190007 -0.110484 0.326478 -0.096485 1.849006 -0.772064 -0.395288 0.843685 0.133003 -0.163124 -0.076040 -0.356415 -0.620989 -0.534475 0.026146 -0.910868 -0.084140 -0.227375 1.127441 -0.111816 -0.160788 -1.446682
sent_62 0.024597 0.327260 -0.082952 0.067869 -0.911227 0.259857 -0.368181 0.077880 -0.089964 -0.109891 -0.035301 0.015440 0.411587 0.190113 -0.898714 0.239469 0.672398 -0.079599 0.274679 0.106524 -0.612804 -0.326946 -0.181119 0.549713 0.122348 0.361020 -0.043990 -0.222711 0.276981 -0.076367 0.463834 0.066417 1.035190 -0.597436 -0.302933 0.674546 -0.085046 0.166170 -0.008042 -0.194672 -0.573142 -0.326191 0.063876 -0.853439 -0.249944 -0.241050 0.828698 0.024688 0.137782 -0.852878
sent_63 0.106799 0.320073 -0.218121 0.027956 -0.764281 0.303521 -0.196640 0.090075 -0.262574 -0.155109 -0.001106 0.229978 0.293777 0.224871 -0.798409 0.081543 0.764775 0.042338 0.331657 0.103706 -0.705872 -0.277680 -0.383758 0.309475 0.076181 0.190319 0.064388 -0.298750 0.050823 -0.009612 0.305143 0.336480 1.067335 -0.392779 -0.256161 0.601732 -0.089265 0.082319 0.085341 -0.360679 -0.225054 -0.332724 0.094539 -1.099121 -0.175112 -0.295240 0.753805 -0.102608 -0.031256 -0.873713
sent_64 -0.409627 -0.179531 0.049882 -0.155289 -1.006546 -0.093621 -0.608651 0.315696 -0.865311 -0.191501 -0.484217 0.340688 0.227534 0.078743 -0.783237 0.387238 1.149747 0.076309 0.209365 0.474979 -0.483314 -0.364193 -0.235583 0.774270 0.170417 0.068514 -0.212395 -0.187583 0.248401 0.192387 0.299742 -0.509679 1.445609 -0.387767 -0.186566 0.775242 0.041416 0.041700 0.329454 -0.386128 -0.160495 -0.755305 0.039087 -0.922715 -0.050805 -0.368425 1.065827 0.335649 0.063663 -1.261565
sent_65 0.243063 -0.077317 -0.813253 -0.513694 0.806837 -0.120682 0.019480 0.102725 -0.181569 -0.461889 -0.479712 0.182788 0.439129 -0.001651 0.518272 -0.027783 -1.099425 -0.652375 -0.244360 -0.228557 -0.330398 -0.109104 -1.008681 -0.174737 0.064640 0.515242 -0.675107 -0.038073 0.064041 0.263194 -0.172938 0.180304 -0.214354 -0.000908 0.272052 0.643965 0.056388 -0.254993 0.037303 0.021257 -0.626046 0.408584 0.378268 -0.034021 0.184099 -0.112547 -0.104611 -0.241538 0.320213 -0.084973
sent_66 0.147129 0.092506 -0.760591 -0.657569 0.486768 -0.158245 -0.161303 0.076952 -0.620913 -0.386892 -0.437556 0.103768 0.613119 -0.680786 0.479412 0.035629 -0.973821 -0.564771 -1.014066 -0.302120 -0.679779 -0.329624 -0.623712 -0.296727 0.033042 0.240815 -1.435063 0.212228 0.514602 -0.064597 -0.026890 0.413123 -0.342086 0.400461 -0.090705 0.902255 0.167819 0.544176 -0.187993 0.232629 -0.274310 0.491431 0.544744 0.310551 0.045323 0.109113 0.404301 -0.513123 0.195576 0.220637
sent_67 0.589669 0.167532 0.308247 -1.299505 0.828564 1.258966 -0.296594 -0.202908 0.781068 0.235258 -0.796939 -0.271480 -0.325848 -0.188338 0.255687 -0.326033 -0.090246 0.172087 0.453242 0.093845 -0.317365 0.317831 -0.647261 -0.025720 -0.283567 -0.320001 -0.511957 -0.342527 -0.499003 -0.163595 -0.211243 0.127161 -0.676580 0.311977 -0.016173 0.209035 0.279837 0.339802 0.305557 -0.809376 0.086393 -0.280644 -0.140721 -0.189746 0.159780 -0.415014 0.413879 0.069638 0.106227 0.755635
sent_68 0.061871 -0.168830 -0.368560 -0.628283 0.907528 -0.209029 0.224222 -0.260466 0.352203 -0.496032 -0.088952 -0.078989 0.959182 0.124569 0.163696 0.184009 -0.122702 -0.345373 0.226654 -0.003215 -0.460760 0.572358 -0.765035 0.506729 0.285700 0.620638 -0.492025 -0.186451 -0.051549 0.212134 0.051447 -0.015346 -0.184258 -0.041849 -0.004352 0.147869 0.278645 0.065246 0.071053 -0.320780 -0.535892 0.094647 0.234517 0.187105 -0.399517 -0.377941 0.439305 -0.371558 -0.018520 0.609526
sent_69 0.362535 -0.461378 -0.362487 -0.398763 0.770808 -0.255924 -0.218899 -0.090728 0.062612 -0.476468 -0.123666 0.185513 0.150923 0.007521 -0.116448 -0.247058 -0.104770 -0.089411 0.218195 0.066044 -0.534479 -0.270882 -0.388884 -0.178748 -0.010138 -0.144104 -0.758435 0.025416 0.339039 0.327014 0.482560 0.302127 -0.087535 -0.211032 0.301530 -0.033425 0.138600 -0.063175 -0.253064 -0.105079 0.094267 -0.620176 0.466749 0.093378 0.092390 -0.056260 0.073494 -0.556090 -0.011560 0.476023
sent_70 -0.063773 -0.247340 -0.666740 -0.228363 1.056767 -0.026270 0.197607 -0.529142 -0.031542 -0.301883 0.020735 0.253084 0.406898 -0.249683 0.173161 -0.017617 -0.178067 -0.309759 0.101058 -0.178224 -0.227171 0.197980 -0.092905 0.497175 0.143392 0.137775 -0.072941 -0.035287 -0.299227 0.300413 0.181934 0.744464 -0.509412 0.199530 -0.057658 0.124171 0.229617 0.073514 0.445121 -0.084683 -0.636030 -0.118632 0.173054 -0.292040 -0.276142 -0.624385 0.717586 0.381845 -0.262856 0.441368
sent_71 -0.053268 0.005585 -0.209106 -0.401635 0.788616 -0.208759 0.264120 -0.285370 0.226809 -0.373683 -0.144940 0.079553 0.537355 -0.255580 0.272742 0.208875 -0.201459 -0.264069 -0.151925 -0.200390 -0.248059 0.352913 -0.732858 0.243016 0.290867 0.349475 -0.279031 -0.296859 0.104223 -0.097432 -0.001316 0.082142 -0.146724 0.120774 0.126589 0.101883 0.173556 0.211073 0.077966 -0.351120 -0.540342 0.167121 0.300409 0.157346 -0.384473 -0.404801 0.290766 -0.055672 0.029269 0.462289
sent_72 0.253688 0.498057 0.052610 -0.541872 1.007805 0.610722 0.070370 0.026069 0.495497 -0.141921 -0.133038 0.688809 0.204343 0.074869 0.336581 -0.144200 -0.616863 -0.227468 -0.185049 0.015083 -0.071229 0.221985 -0.636799 0.373613 -0.787663 -0.198261 0.243982 0.128815 -0.129041 -0.143892 -0.540494 0.576761 0.207319 -1.128379 0.437601 0.048917 0.321048 0.050198 0.204756 0.424108 0.340390 -0.489856 0.658806 0.081187 0.226697 -0.039158 -0.267551 -0.216303 0.348605 0.596620
sent_73 -0.462195 -0.722192 -0.051647 0.687851 0.936679 -0.174857 0.356416 -0.289633 0.399621 -0.074102 0.185015 0.270733 0.837243 0.001236 0.114030 -0.047717 -0.410228 0.874424 -0.067736 -0.433036 -0.543206 0.491212 -0.142600 0.216627 0.086292 -0.194506 -0.566418 -0.435455 0.321200 -0.183764 0.193822 0.807889 -0.075825 -0.445999 0.654511 0.042661 0.365987 -0.204041 -0.562749 0.099319 0.838325 0.248830 0.009816 -0.085433 -0.002695 0.282580 0.124638 -0.169370 0.452548 1.029867
sent_74 0.224695 -0.389539 -0.412361 -0.528716 0.441983 0.212390 0.017187 -0.219132 0.550829 -0.776081 -0.229671 0.239843 0.375487 0.060298 0.615626 -0.206885 0.041466 -0.021499 0.123980 0.268994 -0.143455 0.182060 0.272242 0.643931 0.512561 -0.747531 -0.177988 -0.481765 -0.268020 -0.167817 0.240396 0.193884 -0.165938 -0.108009 0.219799 0.136735 -0.094943 0.004171 -0.232407 -0.551167 -0.618560 0.004899 0.495526 -0.172852 0.002942 -0.186973 0.415100 -0.595342 0.419839 0.299689
sent_75 -0.307051 -0.158371 -0.402459 -0.117235 0.808896 -0.268313 0.666231 -0.601035 0.403658 -0.691317 -0.099877 -0.014580 0.817405 -0.043196 0.414979 0.415151 -0.492829 -0.295187 -0.120736 0.044466 -0.297657 0.297432 -0.631899 0.334838 0.153186 0.206971 -0.356870 -0.085847 0.219837 -0.065044 -0.106480 0.033377 -0.419740 0.280633 -0.031169 0.240599 0.133632 -0.146299 -0.018658 -0.351606 -0.784127 0.089824 0.151851 0.284916 -0.321333 -0.536651 0.515614 0.091876 -0.085836 0.920842
sent_76 0.097183 -0.111317 -0.489944 -0.508040 0.675380 0.041617 0.197117 -0.402185 0.307199 -0.496210 -0.017358 0.090164 0.684104 -0.158224 0.385215 0.039665 -0.065000 -0.366022 -0.035545 0.048579 -0.180407 0.453359 -0.541009 0.503496 0.225301 0.189199 -0.243904 -0.450459 -0.041047 -0.215991 0.097614 0.250678 -0.263122 -0.247807 0.209424 0.195224 0.179982 0.153350 0.088185 -0.468785 -0.716409 0.069177 0.488688 -0.024759 -0.471550 -0.391521 0.260008 -0.140345 -0.026322 0.339134
sent_77 -0.170058 -0.000478 -0.289942 0.154233 -0.221187 -0.363139 -0.071298 0.186458 -0.406131 0.833465 -0.186968 0.027273 -0.438680 1.027772 0.060565 -0.307689 1.060786 -0.228812 0.707577 0.131692 0.034096 0.232724 0.471554 -0.819149 0.929041 -0.473003 -0.027125 -0.267023 -0.195669 -0.292526 -0.288688 -0.636611 0.739910 -1.603110 0.427856 -0.299023 0.548267 -0.243550 0.327303 0.308541 -0.130528 -0.603378 0.563519 0.883142 -0.270370 0.271105 -0.600452 -0.632758 -0.324893 -0.653237
sent_78 -0.008365 0.449748 -0.327580 0.039668 -0.394018 -0.254387 0.002206 0.485330 -0.513717 0.816706 -0.175169 0.309177 -0.430443 0.973231 -0.007226 -0.371024 0.116512 -0.191125 0.997047 0.218452 0.242128 -0.127906 0.075489 -0.069171 0.364071 -0.369645 0.626680 -0.060953 0.447104 -0.629661 -0.612321 -1.015146 0.801879 -1.259788 -0.200755 0.438823 -0.046462 0.106149 0.102595 -0.134222 0.035239 -0.820590 0.030033 1.273621 -0.219338 0.403843 0.065650 0.085989 0.227073 -0.459239
sent_79 -0.513596 -0.052716 -0.681833 -0.113394 -0.630029 -0.181033 0.605539 0.424700 -0.880912 0.585004 0.187041 0.244541 -0.226240 0.993698 0.576278 -0.384523 0.835578 -0.477345 -0.136092 0.324799 0.323689 -0.215548 -0.110683 -0.385248 0.541068 -0.734302 -0.131662 0.458921 -0.374884 -0.486787 -0.696006 -1.443140 1.479393 -1.285959 0.080240 0.124070 0.005876 -0.968986 0.445231 0.007521 0.541226 -1.133316 0.178838 0.634308 0.073192 0.148105 -0.024982 0.627033 0.154972 -0.772595
sent_80 0.241221 0.427726 -0.174339 0.294797 -0.649549 0.263642 0.175436 0.237492 -0.878010 0.999927 -0.583572 -0.393794 -0.884522 0.750054 -0.178554 -0.195351 0.647921 -0.112908 -0.255935 -0.506430 0.291414 -0.435671 0.091192 -0.615435 0.573831 -0.067723 -0.054087 0.252681 -0.397409 -0.735677 -0.740331 -1.011245 1.329725 -0.858605 -0.105442 0.519214 -0.593621 0.036532 0.051960 0.220368 -0.514782 -0.614973 0.429812 0.191952 -0.580899 0.309817 0.442108 0.405919 -0.297083 -1.219647
sent_81 0.224535 0.236760 -0.376376 0.065915 -0.272978 -0.086105 0.215329 0.325949 -0.445335 0.541936 -0.059920 0.403004 -0.458782 1.087449 -0.121682 -0.381811 0.297511 0.028516 0.882123 0.182966 -0.252834 -0.070780 -0.110091 -0.162300 0.483446 -0.005982 0.512072 0.321305 0.418111 -0.592575 -0.674045 -1.532361 0.770267 -0.798877 -0.529827 0.360980 -0.191902 0.150462 0.072650 0.311311 -0.178691 -0.068153 -0.015628 0.782027 -0.142631 0.590710 0.438593 0.016312 0.086871 -0.439151
sent_82 -0.004249 0.113429 -0.421243 -0.094267 -0.326801 -0.202018 0.245824 0.362947 -0.440215 0.897566 0.115667 0.354639 -0.424678 1.042855 -0.167565 -0.158703 0.333516 -0.199480 0.407665 0.194215 0.278044 -0.325286 0.057926 -0.483005 0.414648 0.030948 0.436766 0.074276 -0.009984 -0.496730 -0.609924 -1.045936 1.033587 -0.743766 -0.155666 0.188808 0.051346 -0.068733 0.341767 0.000434 -0.118464 -0.805228 0.182293 0.353089 -0.269891 0.667073 0.151213 -0.138717 0.027835 -0.712454
sent_83 -0.080681 0.268812 -0.225920 0.101544 0.027869 -0.077279 -0.337122 0.477627 -0.098025 0.591118 -0.263641 0.255064 -0.410733 1.288288 -0.062574 0.072433 0.513841 -0.140925 0.470073 0.389036 -0.051104 -0.157781 0.398047 -0.268198 0.248838 -0.328270 0.308672 0.062829 0.084449 -0.500231 -0.489868 -0.767015 0.733138 -0.571908 -0.367595 0.134917 0.309979 0.234352 0.590632 -0.036249 -0.015437 -0.469549 0.160635 0.837977 -0.239000 0.316296 0.117854 -0.252236 -0.151463 -0.453990
sent_84 -0.446471 -0.132018 -0.668482 0.082218 -0.758186 -0.325648 0.669547 0.531215 -1.058361 0.689264 0.363268 0.157664 -0.248086 0.921378 0.409252 -0.588295 0.761193 -0.299262 0.082447 0.413926 0.137861 -0.235570 -0.100013 -0.414662 0.728346 -0.664117 -0.069851 0.623219 -0.363960 -0.848155 -0.651267 -1.570222 1.283226 -1.322644 -0.140875 0.177735 0.005078 -0.668495 0.547884 0.079707 0.520906 -1.288148 0.098332 0.511414 0.069855 0.152411 -0.084597 0.445118 0.011739 -0.832787
sent_85 -0.579520 -0.192753 0.456553 -0.130744 -0.642858 -0.493444 -0.175509 0.581876 -0.593411 -0.064078 -0.155748 -0.116097 -0.108634 0.180760 -0.458859 -0.279494 0.573489 0.041375 0.066973 0.055564 -0.028179 -0.344287 0.670881 -0.068044 -0.262895 -0.616280 0.307662 0.167719 -0.127406 -0.129952 -0.154180 -0.606337 0.553247 -0.747001 0.048371 0.341732 0.184958 -0.372600 0.861405 0.360923 0.379801 -0.055885 0.008580 0.612761 -0.033391 0.753084 0.221288 -0.379835 -0.094369 -0.245507
sent_86 -0.073805 0.361872 -0.815456 -0.011450 -0.515185 -0.390508 0.575598 0.019633 -0.298020 0.713210 0.142130 0.346229 -0.097769 0.991517 0.121287 -0.404443 0.425178 -0.407216 0.174798 -0.022312 0.373036 -0.300854 0.115642 -0.339782 0.496482 -0.224662 0.055012 0.193042 -0.287266 -0.379304 -0.716301 -0.853539 0.890352 -0.913236 -0.154056 0.345977 0.194354 -0.403369 0.536512 0.015637 0.308608 -0.547901 -0.045619 0.505477 0.118800 0.171991 -0.148096 -0.569590 -0.112716 -0.250011
sent_87 0.016815 0.271159 -0.291040 0.041268 -0.083030 -0.124339 0.278025 0.133267 -0.453368 0.706438 0.084786 0.018532 -0.368490 1.102235 -0.058735 -0.385597 0.518102 -0.156224 0.587080 0.073398 0.290257 -0.180845 -0.032788 -0.535611 0.326598 -0.099848 0.312979 0.102670 0.225242 -0.361012 -0.395823 -1.264516 1.026891 -0.685989 -0.326097 0.141088 -0.206233 0.055282 0.022589 0.146054 0.092233 -0.457624 -0.048917 0.813322 -0.101374 0.454982 -0.179803 -0.092155 -0.400800 -0.622354
sent_88 -0.199596 -0.062180 -0.618963 0.214593 -0.328117 -0.151674 -0.017978 0.503459 -0.213081 0.591373 0.078963 -0.069494 -0.689633 1.257878 -0.167554 -0.346925 0.557529 -0.272358 0.326917 0.189555 0.448972 -0.316183 0.371865 -0.370119 0.281340 -0.257319 0.309663 0.106340 -0.392956 -0.378309 -0.795397 -0.829793 0.512349 -0.473910 -0.271286 0.206858 0.117504 0.091684 0.574765 0.245771 -0.140654 -0.430478 0.139258 0.529196 -0.468562 0.148896 0.410599 0.062345 -0.334669 -0.616580
sent_89 0.023800 0.106259 -0.290936 0.143537 -0.401866 -0.037452 0.009625 0.423987 -0.238533 0.957024 -0.193891 -0.031746 -0.557465 0.979234 -0.303710 -0.385378 0.450277 -0.314268 0.315908 0.140571 0.625088 -0.243362 0.398785 -0.437594 0.279088 -0.455519 0.298464 0.005413 -0.182766 -0.509588 -0.609797 -0.791671 0.519732 -0.711006 -0.248047 0.309614 0.040322 0.013595 0.343427 0.078217 -0.144950 -0.520805 0.100981 0.607775 -0.440194 0.260865 0.139009 0.144801 -0.287075 -0.637764
sent_90 0.260673 0.185571 -0.116088 0.223287 -0.273596 0.191259 -0.089097 0.713170 -0.039953 0.481614 -0.304581 -0.149745 -0.352600 0.676198 -0.328255 -0.481675 0.037147 -0.074749 -0.060244 -0.068846 0.197511 -0.518465 0.632728 -0.449602 0.164923 -0.121719 -0.067005 0.384970 -0.071641 -0.344448 -0.446875 -0.839335 0.218041 -0.577682 0.166918 0.303958 -0.052796 0.155743 0.363269 0.341103 -0.311140 -0.362473 0.521526 0.333671 -0.190740 0.130693 -0.170534 0.302069 -0.082578 -0.618913
sent_91 0.548603 0.544780 -0.280180 -0.107372 -0.266354 -0.087528 0.179965 0.375106 -0.121590 0.607780 0.202557 -0.249821 -0.531651 0.821578 -0.596798 -0.407160 0.161345 0.178598 0.468630 -0.096693 0.005237 -0.470051 0.242597 -0.260262 0.407999 -0.325630 0.468128 0.178097 -0.000477 -0.604595 -0.322098 -0.818290 1.032851 -0.914252 0.087500 0.475191 -0.148764 0.058623 0.123276 0.125829 -0.096693 -0.347890 0.333332 0.081932 -0.267054 0.545312 0.175539 -0.142684 -0.261846 -0.763445
sent_92 -0.391027 -0.149991 -0.779782 -0.289383 -0.515874 -0.231142 0.786793 0.621085 -0.865492 0.781551 0.179112 0.214996 -0.090424 0.856978 0.234292 -0.252815 0.806296 -0.324131 0.029025 0.204702 0.388807 -0.208511 0.077783 -0.279655 0.425615 -0.814337 -0.081657 0.577682 -0.137534 -0.588195 -0.629940 -1.308732 1.474135 -1.354678 0.014297 0.209253 0.018162 -0.610157 0.494769 0.091547 0.374975 -0.932663 0.197101 0.560493 0.127518 0.223018 0.068861 0.513009 -0.002248 -0.755437
sent_93 0.344224 0.585280 -0.599105 -0.577975 -0.357460 -0.438321 0.566495 0.495684 -1.313741 0.762490 0.029584 0.059411 -0.530111 0.767925 -0.054298 -0.928250 0.422454 -0.222759 0.182919 -0.137344 0.047340 -0.120891 -0.196540 -0.645603 0.542090 -0.044422 0.004105 0.500512 0.256057 -0.747285 -0.916707 -1.735218 1.150001 -1.026339 -0.057095 0.370187 -0.148163 -0.602730 0.314410 0.057712 0.230064 -1.164934 -0.044424 0.119501 0.349173 0.253496 0.183558 0.227854 -0.014715 -0.632593
sent_94 0.344139 0.172779 -0.315720 0.192538 -0.172470 -0.181165 -0.134074 0.320059 -0.219806 0.523403 0.347327 0.099541 -0.108039 0.844969 -0.234802 -0.157863 0.123039 -0.159815 0.253955 0.127933 0.133615 -0.188294 0.126370 0.067592 0.265800 -0.037228 0.675101 0.021273 0.131840 -0.206980 -0.596729 -1.134023 0.707629 -0.712458 -0.284557 -0.048423 0.073864 0.185690 0.264393 0.343169 -0.377626 -0.004962 -0.011436 0.387349 -0.036251 0.785798 -0.028177 -0.308823 -0.117198 -0.125130
sent_95 -0.099931 0.223126 0.015747 0.500880 -0.682939 0.389102 0.509076 0.098147 -0.633212 0.979442 -0.204443 -0.311087 -0.759676 0.755156 0.169184 -0.291642 0.604350 0.179800 0.232839 -0.342619 0.522856 -0.572326 -0.132154 -0.794658 0.198063 -0.178104 0.134245 0.631349 0.058731 -0.704222 -0.650532 -0.643412 0.867372 -0.505494 -0.157139 0.654405 -0.412310 -0.395036 0.207169 -0.240298 -0.144627 -0.603589 0.268863 0.321870 -0.313066 0.319168 -0.120316 -0.227591 -0.133567 -1.120414
sent_96 -0.012189 0.013653 0.591090 0.366105 -0.058775 0.072452 -1.121297 -0.357146 -0.284047 -0.420716 0.190772 0.237586 -0.548945 -0.067656 -0.334409 0.419027 0.244675 0.370897 0.222011 -0.313817 0.427869 -0.185366 0.101927 -0.278616 0.377374 0.275444 -0.327588 0.205914 0.492033 0.330867 0.664660 -0.359796 -0.006226 -0.146240 -0.041328 0.428329 -0.433591 -0.307586 0.491488 -0.226505 -0.020161 0.756229 0.919945 0.661976 0.498067 0.995102 -0.243728 -0.250054 0.160473 -0.229590
sent_97 -0.465477 0.294373 0.541081 0.689127 -0.019826 0.219209 -1.367604 -0.130052 -0.485281 -0.517067 -0.286764 0.456408 -0.682975 0.254860 -0.665292 0.457104 0.652320 -0.082370 0.294598 -0.051226 0.312405 0.393918 -0.073940 -0.228353 0.424576 0.023294 -0.659015 -0.035486 0.396712 0.671403 0.397462 -0.169052 0.152380 -0.322665 0.519535 0.125973 -0.036232 -0.328225 0.519422 -1.050928 -0.213100 -0.153174 0.738045 -0.415005 0.636938 0.638716 -0.060150 0.155655 -0.230945 -0.415506
sent_98 -0.466333 0.143352 -0.020053 0.606657 -0.758621 0.063085 -0.889406 -0.703488 -0.594972 0.027222 -0.128272 0.166879 -0.219222 0.849137 -0.165741 -0.226237 0.694251 -0.155977 0.168695 -0.017765 0.092897 -0.171958 -0.255876 -0.344444 0.387075 -0.205939 0.227866 0.135507 -0.118627 0.297086 0.486350 -0.526608 0.298084 -0.577208 0.427532 -0.035184 -0.282438 -1.099163 0.601191 -0.006541 0.119706 -0.468088 0.818186 0.027600 1.187307 0.347990 -0.386203 0.209813 0.052961 0.249234
sent_99 -0.358384 -0.023790 0.569667 0.040326 -0.191600 -0.163376 -0.829145 -0.511262 -0.201843 -0.320271 0.114297 0.381299 -0.514896 0.316261 -0.237522 0.016880 0.268419 -0.126313 0.347934 -0.094086 0.312283 0.494089 -0.427414 -0.179456 0.085523 0.004196 0.093430 -0.267322 0.015322 0.616616 0.755031 -0.034372 0.075040 -0.215502 0.197953 -0.146826 0.206412 -0.730425 0.221212 -0.825242 0.083337 -0.114668 0.720632 -0.440980 1.107728 0.419674 -0.203055 -0.095558 -0.144933 0.029263
sent_100 -0.742582 -0.142886 1.028188 0.279204 -0.008355 -0.266759 -1.135077 -0.049547 -0.650182 -0.951233 -0.168089 0.325987 -0.632042 -0.048436 -0.402221 0.281949 0.421462 0.112353 0.013815 -0.444015 0.484870 0.007890 0.172236 -1.072886 0.104026 0.307773 0.266732 0.223927 0.183786 0.608898 0.574113 -0.114897 -0.302860 -0.776020 0.409688 0.322048 -0.200718 -0.067744 0.443443 -0.832211 -0.334160 0.395504 0.638125 -0.647814 0.799727 0.464951 -0.496431 -0.172749 -0.198634 -0.268106
sent_101 -0.597456 -0.264969 0.850987 0.258441 -0.037425 -0.318536 -1.452182 -0.281699 -0.401236 -0.610996 -0.525209 0.892764 -1.056996 0.064623 -0.440351 0.087375 0.387211 0.597739 0.364122 -0.022767 0.153219 0.243770 0.029538 -0.242187 -0.038653 0.458368 0.301726 -0.114500 0.342703 1.020952 0.257239 -0.769855 -0.202283 -0.209284 0.030948 -0.487994 0.591805 -0.420259 0.468264 -0.679877 -0.072042 0.475988 0.356943 -0.569416 0.635713 0.394571 -0.517413 0.306879 0.332887 0.305244
sent_102 -0.901970 -0.248323 0.877199 0.111326 -0.006813 -0.386039 -1.465576 0.056790 -0.082038 -0.760908 0.249131 0.717754 -0.309731 0.450600 -0.409224 0.135346 0.440448 0.041056 0.341690 -0.454535 0.253011 0.254721 -0.321017 0.386645 0.237834 0.143992 -0.374007 -0.109948 0.305844 0.633246 0.940948 -0.587166 -0.291716 -0.545759 0.144366 0.349179 0.477555 -0.391028 0.640573 -0.560512 0.012503 0.031899 0.392117 -0.293568 0.983217 0.716630 -0.358686 0.506516 0.109996 0.008683
sent_103 -0.640552 -0.216624 0.668918 0.037468 -0.294730 -0.431573 -1.452209 -0.209833 -0.344657 -0.860273 -0.047529 0.033864 -0.702105 0.079932 -0.490020 0.050197 0.771991 0.121107 -0.439639 -0.633221 0.186459 -0.434721 0.295525 -0.736836 0.648652 0.284098 -0.414902 -0.099824 0.337695 0.753537 0.919551 -0.677208 0.027406 -0.745255 0.309911 0.285184 0.288838 -0.369757 0.607950 -0.667163 0.208843 0.414064 0.809541 0.098451 0.488307 0.719917 -0.177479 0.449603 -0.107880 -0.558012
sent_104 -0.516835 0.335258 0.760981 -0.294141 -0.367400 -0.145769 -1.384343 -0.082227 -0.112122 -0.113465 0.021596 0.229212 -0.597624 0.316672 -0.330711 0.118676 0.669914 0.157313 0.220867 -0.529371 0.608398 -0.052889 0.129619 -0.306190 0.270246 0.294058 -0.342948 -0.180160 0.214238 0.523799 0.613050 -0.385507 0.080681 -0.396948 0.072067 -0.042552 0.303150 -0.294274 0.484459 -0.804470 -0.144895 -0.115312 0.589538 -0.027826 0.999918 0.794009 -0.152012 0.540325 0.195274 0.383256
sent_105 -0.356868 -0.387522 0.806749 0.569158 -0.006827 -0.340955 -0.911951 -0.771109 0.443723 -0.662472 0.029697 0.679897 0.762664 0.189374 -0.878653 -0.136932 -0.052828 0.169865 0.458246 0.229492 0.201365 -0.786276 0.224968 -0.779640 0.814824 -0.058823 -0.747480 0.230880 0.484927 0.922887 0.999601 0.156056 -0.258584 -0.188924 0.835056 -0.919887 0.145291 -0.594744 0.247414 -1.119366 -0.474343 -0.157096 0.813119 0.266638 0.600816 0.706649 -0.587540 -0.328656 -0.528298 0.298741
sent_106 -0.089241 -0.152058 -0.882295 0.141563 -0.261297 0.102738 0.233189 0.080395 -0.021257 0.592369 -0.171867 -1.060936 -0.396815 -1.143599 -0.224235 0.669251 -0.175537 -0.361922 0.371380 -0.543153 0.098482 0.457104 0.202426 -0.209469 0.546419 0.023840 -0.378505 0.730151 0.833919 0.455471 -0.120097 0.183428 -0.790998 0.517745 -0.507735 0.154974 0.849490 0.660146 0.730502 1.051964 -0.428628 -0.128891 -0.528799 0.187639 -0.559358 -0.126624 0.476527 0.689980 0.391560 -0.222758
sent_107 0.228998 0.023705 -0.390874 0.283353 -0.236277 -0.319779 -0.210048 0.539604 -0.235391 0.110801 -0.104429 -0.547107 -0.849515 -0.517197 0.410105 0.385786 -0.009409 -0.497723 -0.632995 -0.066541 0.625212 -0.280876 0.333709 -0.875535 0.442088 -0.317868 -0.440688 0.066331 0.237275 0.180618 -0.416246 -0.465989 -0.359133 0.444926 -0.487364 0.289831 0.006624 0.316484 -0.123891 0.917240 -0.285350 0.162994 0.133901 0.581549 -0.291944 -0.078978 -0.219047 -0.401855 -0.209506 -0.212996
sent_108 -0.125629 -0.524334 -0.959534 0.501738 -0.067748 0.198957 0.416688 0.040072 0.296891 0.341402 -0.573065 -0.643405 -0.514204 -1.022886 -0.341445 0.308714 -0.473898 -0.297418 0.104944 -0.498617 -0.078198 0.400341 0.415005 -0.300370 0.754747 0.075834 -0.459559 0.900483 1.226975 0.904054 0.075314 0.650328 -0.621618 0.323383 0.007761 0.545721 0.565764 0.604348 1.036728 0.989484 -0.273028 -0.086529 0.025777 -0.069123 -0.582051 0.107233 -0.022513 0.738581 0.248591 -0.646051
sent_109 -0.273559 0.665681 -0.423267 0.587165 -0.695032 -0.146741 0.241457 0.608760 0.352417 0.398341 0.549798 -0.580804 -0.251938 -0.586070 0.296616 -0.066140 0.019762 -0.761772 -0.219477 0.007053 0.695802 0.091499 0.732389 -0.797734 0.390618 0.169465 -0.340725 -0.011843 -0.142110 0.729501 -0.407807 0.163110 -0.086141 0.578314 -0.375744 0.396015 0.411696 0.011305 0.319464 0.481322 -0.257703 0.084973 -0.052004 0.605453 0.406242 -0.490722 0.387261 -0.307446 0.157034 0.071247
sent_110 -0.249278 -0.713908 -0.688906 0.856781 -0.249306 0.720554 0.175761 0.122995 0.262814 0.228110 -0.545750 -1.491267 -0.683728 -1.187119 -0.352465 0.735102 -0.026672 0.052360 -0.250368 -0.561622 0.531836 0.347899 -0.195747 -0.317737 0.842604 0.249656 -0.282952 1.131998 1.621046 0.225372 0.346104 0.470934 -0.509859 0.969143 -0.932739 0.033097 1.145051 0.756587 0.502570 0.459421 0.127752 0.189784 -0.391639 0.193018 -0.021541 -0.538941 0.001306 0.262705 -0.024401 -0.388181
sent_111 -0.314412 -0.435477 -0.381058 0.399217 0.132920 -0.070996 -0.065287 0.402408 0.080587 0.037181 0.050934 -0.801828 0.140615 -0.335949 0.304604 0.775949 -0.228171 -0.386149 -0.057116 -0.542236 0.426466 0.247088 0.208300 -1.132857 0.264155 0.438646 -0.128808 0.369812 0.574266 0.724509 0.173721 0.114716 -0.606656 0.678531 -0.186156 0.347114 0.797794 0.269227 0.802395 0.778911 -0.480217 0.124706 -0.316422 0.272884 0.135022 -0.380582 0.168473 0.488635 0.538634 -0.530634
sent_112 -0.137253 -0.108730 -0.247471 0.305374 -0.001282 0.258481 0.215544 0.120704 -0.530116 -0.117380 0.436944 -0.649877 -0.250847 -0.478412 -0.039803 -0.307176 -0.177025 -0.518189 -0.386603 0.195164 0.625836 0.384395 0.368389 -0.579173 0.325892 0.449732 0.497767 0.249804 0.422022 0.276048 0.341486 0.395662 -0.441876 0.427594 -0.555505 0.010342 0.143629 0.376750 0.521925 0.713607 -0.396261 0.407649 -0.296020 0.070476 -0.398026 -0.033420 0.148746 0.156211 0.565316 -0.141709
sent_113 0.457275 0.025988 -0.004095 0.001033 0.027443 0.021832 0.131383 0.313641 0.046904 0.147665 -0.327532 -1.554099 -0.243300 -0.894502 -0.290429 -0.151721 0.309995 -0.417172 -0.383901 0.228274 0.298556 0.828564 -0.150839 -0.992506 -0.427615 0.368286 -0.020813 0.288176 0.419318 0.393494 0.112970 -0.189430 -0.817872 0.407815 -0.295565 0.421878 0.670303 1.247122 0.201451 1.325479 -0.433476 1.009408 -0.279420 0.369947 -0.520405 0.290050 0.790959 0.406936 0.746182 -0.439567
sent_114 -0.189641 -0.331542 -0.402297 0.836441 0.443109 0.130113 0.161909 0.705582 0.272808 0.210001 0.069043 -0.554993 0.236600 -0.034949 -0.123961 0.264450 -0.459624 -0.328825 -0.181362 -0.242906 0.804736 0.483069 0.041562 -0.407649 0.384204 0.409651 0.000521 0.157832 0.544878 0.354926 0.098433 -0.183146 0.115424 0.689434 -0.322929 0.224669 0.466395 0.339338 0.475494 0.457406 -0.256000 0.071428 -0.285060 -0.077096 -0.113908 -0.109916 0.137282 -0.334173 0.052429 -0.505642
sent_115 -0.292660 -0.394799 -0.790172 0.115802 0.152942 0.656835 0.177589 0.475403 0.504269 0.371347 -0.209342 -1.026158 -0.111440 -0.766125 -0.125484 0.237074 -0.043348 -0.339566 0.222097 -0.364205 0.640933 0.044809 -0.451633 -0.936471 0.237966 0.056589 -0.013226 0.775115 0.693525 0.196611 0.117535 0.237872 -0.472681 0.516298 -0.893235 0.109493 0.467259 0.261119 0.260843 0.835580 -0.302974 -0.218585 -0.486990 0.140462 -0.103492 -0.321720 0.439826 0.423040 0.042716 -0.261835
sent_116 -0.487120 -0.451015 -0.025970 0.232168 0.286704 0.208126 0.391903 0.301338 -0.105144 0.474054 0.577914 -0.534025 -0.584956 -0.400661 0.418969 0.220626 -0.768553 -0.816381 0.063253 0.376601 0.412860 0.247534 0.034888 -0.460667 0.084210 0.440505 0.191528 -0.259279 0.531354 0.592579 -0.093014 0.155913 -0.134601 0.694396 -0.202364 0.458908 0.235862 0.478325 0.877378 0.462644 -0.323874 0.034749 -0.288345 0.099915 -0.662049 -0.029540 0.409994 -0.153487 0.030622 0.000146
sent_117 -0.566358 0.285841 -0.402345 -0.057063 -0.233809 -0.026027 0.024376 0.403067 -0.008407 0.270109 -0.405926 -0.919880 -0.487387 -0.379810 0.253324 -0.387305 -0.464907 -0.573045 -0.195936 0.272379 1.004772 -0.238456 0.221858 -1.017679 0.313051 0.187957 -0.176353 0.179701 0.351959 0.842896 -0.222679 0.174328 -0.420031 0.620591 -0.491302 0.286655 0.506770 0.309109 0.212582 0.793720 -0.452819 0.182609 -0.140606 0.463421 -0.195016 0.095973 0.381283 -0.542479 -0.018496 0.047339
sent_118 0.040645 0.760994 0.929566 0.067011 0.278549 0.431564 -0.113980 -0.268081 0.190262 0.378242 -1.322365 0.000434 -0.468133 0.126358 -0.175099 0.047682 -0.050680 0.144752 -0.275140 1.191185 0.083660 0.091691 -0.886909 0.100993 0.709036 0.644429 -0.811064 0.072785 -0.311339 0.422542 -0.365910 -0.445413 0.067803 0.668753 -0.808826 0.500679 0.566455 0.603519 -0.319033 -0.143063 0.537492 -0.042326 0.179949 -0.294692 -0.486250 -0.790646 -0.103329 0.134271 -0.170545 -0.250224
sent_119 0.468299 0.851637 1.061950 -0.301027 -0.205244 0.676836 0.205410 -0.308252 0.761503 -0.058727 -1.009144 -0.041370 -0.498501 0.422801 -0.026788 -0.043799 0.325386 0.331062 0.098280 0.600067 -0.184263 0.461916 -0.836469 0.007609 0.171558 0.515415 -0.220359 -0.236540 -0.094428 0.616656 -0.259065 -0.636237 -0.024638 0.295483 -1.059768 0.107281 0.833163 0.163341 -0.097979 -0.158499 0.699942 -0.340394 0.020098 0.140343 0.280601 -0.513847 -0.627889 0.120336 0.158936 0.290423
sent_120 0.464645 -0.022690 0.884393 0.190659 -0.142229 0.355977 -0.035705 -0.017868 0.670601 -0.912673 -1.002061 -0.047035 0.106671 0.677331 -0.232455 -0.580431 0.218551 0.449872 -0.252520 0.168463 -0.254905 -0.426299 -0.052542 -0.062322 0.394476 -0.079398 -0.474829 -0.733580 0.097374 0.547949 -0.256148 0.008742 0.381144 -0.447576 -0.628484 0.273138 0.768384 0.312216 -0.449758 0.268524 0.991287 -0.153259 -0.467486 0.577559 -0.139415 -0.761998 -0.096547 -0.451283 0.353621 0.291255
sent_121 0.090813 0.539714 1.150388 0.187259 0.577235 0.425900 -0.298361 -0.116237 0.198371 0.536456 -1.213101 0.202958 -0.691208 0.416317 0.166868 -0.133659 0.130068 0.260664 0.120751 1.092083 0.176043 0.080635 -0.710784 -0.037854 0.573197 0.428566 -0.662359 -0.325330 0.048536 0.491516 -0.383554 -0.398236 0.057978 0.719023 -0.969943 0.604310 0.295559 0.668770 -0.434639 -0.273871 0.642457 -0.011783 0.161582 -0.574963 -0.959246 -0.976224 -0.349564 0.022940 0.034111 -0.463515
sent_122 0.638090 0.391814 1.036525 -0.022182 -0.138833 -0.307124 0.044117 0.056632 0.205039 -0.323130 -0.428827 0.161686 -0.325102 0.129111 0.251609 -0.154257 -0.030505 0.020304 -0.287447 0.685336 0.080095 -0.042567 -0.808869 -0.141517 0.684501 -0.020448 -0.222591 -0.349016 -0.254338 0.327651 -0.076405 -0.221717 -0.338372 0.148084 -0.508909 0.138248 0.039335 0.379369 -0.133546 -0.120793 0.864207 0.375485 0.313309 -0.107661 -0.288390 -0.326529 -0.746138 0.456560 0.237467 0.368675
sent_123 0.331027 0.651772 0.769874 0.047879 0.101664 0.255021 -0.123872 0.029709 0.303385 -0.611894 -0.957026 0.302008 -0.046619 0.527321 0.091233 -0.302449 0.120233 0.025235 0.173424 0.386619 0.104971 0.390528 -1.158302 -0.105406 0.408946 0.181398 -0.207230 -0.422847 0.129753 0.777214 -0.091169 -0.109971 -0.379927 0.178627 -0.679811 0.285475 0.515807 0.157439 -0.388107 -0.213768 0.680692 0.098305 0.375461 -0.098840 -0.473889 -0.741490 -0.266982 0.061127 0.185992 0.626654
sent_124 0.495393 0.069248 0.758482 0.149975 0.326314 0.168463 0.279633 -0.066590 0.224216 -0.521639 -0.712201 0.035703 -0.511610 0.756099 0.070908 -0.179382 -0.154381 0.018220 0.014270 0.142440 0.370251 0.128840 -0.418589 -0.132562 -0.027500 -0.069432 -0.275048 -0.521531 -0.046711 0.254336 -0.048803 -0.632233 -0.660369 0.758355 -0.379385 0.760374 0.216451 0.430207 -0.179463 -0.375044 0.783353 -0.426691 -0.028391 -0.221188 -0.009516 -0.720642 -0.100808 -0.256067 0.324213 0.072138
sent_125 0.369447 0.526830 0.766127 -0.015209 0.581023 0.136050 0.308527 0.192341 0.049659 -0.172400 -0.680873 0.096419 -0.867409 0.357092 0.053983 -0.067573 -0.275720 0.510387 0.133545 0.099530 0.394621 0.076922 -0.370301 -0.495363 0.295241 0.059763 -0.008607 -0.457365 -0.258320 0.410273 -0.036677 0.051696 -0.240901 0.344528 -0.276092 0.389052 0.030949 0.343995 0.130123 0.022307 0.282074 0.561003 0.073274 -0.779569 -0.418507 -0.526172 -0.700292 -0.023123 0.004938 -0.047810
sent_126 0.766083 0.846896 0.967901 -0.687273 0.361746 1.239946 -0.610901 -0.074273 0.567895 0.246933 -1.204104 -0.097586 -0.693133 0.015032 0.032637 -0.480980 0.200997 0.435390 0.369534 0.857456 -0.045554 0.678793 -0.870035 -0.262906 -0.150124 -0.394305 -0.330290 -0.548418 -0.498183 0.273783 -0.248998 -0.127933 -0.597295 0.313915 -0.651195 0.524868 0.426910 0.484364 0.293958 -0.708342 0.803128 -0.545881 -0.147381 -0.343301 -0.377531 -0.694639 -0.420478 0.340757 -0.033996 0.472885
sent_127 0.583396 0.551877 0.976920 0.305930 0.442090 0.185113 -0.616068 -0.488767 0.603537 0.401951 -0.922144 0.080038 -0.953867 0.729646 0.260804 0.016100 0.650253 0.477361 0.515832 0.649814 -0.126672 -0.096072 -0.593751 0.115026 0.083412 -0.301431 -0.157358 -0.329385 -0.547830 0.939135 -0.364969 -0.316447 -0.502798 0.330449 -0.822287 0.195006 0.594285 0.060888 -0.036473 -0.807649 0.600232 -0.068347 0.259832 -0.281052 -0.007446 -1.063508 -0.528912 0.152026 0.423699 0.221317
sent_128 0.165480 0.391466 1.497948 -0.069089 0.287083 -0.299919 0.249147 -0.380785 0.087674 0.042785 -0.938675 0.408432 -0.443293 0.325884 -0.287156 -0.845007 -0.239970 -0.555597 0.145781 1.266353 -0.717525 0.073441 0.033437 -0.292120 0.263015 0.173295 -0.436205 -0.636626 -0.573117 0.809505 -0.199193 0.372789 0.154440 0.170989 -0.395743 0.576001 1.139408 -0.167099 -0.105921 -0.323823 1.013271 0.014781 0.260442 -1.176411 -0.429622 -1.041305 -0.444714 -0.567120 -0.313570 -0.284983
sent_129 -0.475668 0.528214 1.351017 0.255275 0.217056 0.552733 -0.925303 -0.498580 0.515533 0.589666 -1.257327 0.143347 -0.075173 1.111478 0.834384 -0.236422 0.692499 -0.079475 -0.125469 0.423948 0.018055 -0.502555 -0.328768 0.169554 -0.132174 -0.233234 -0.359144 -0.846004 -0.317937 0.872242 -0.529405 -0.246869 -0.753619 0.935883 -0.722181 0.644619 0.351460 0.104574 0.132893 0.009433 1.161460 -0.485602 0.049304 -0.083749 -0.072423 -0.814709 -0.298604 0.398553 0.002786 0.537815
sent_130 0.223421 -0.100270 0.167402 -0.121519 -1.096440 -0.215021 -0.378518 -0.637583 -0.336841 0.471419 -0.743643 -0.226159 0.001940 -0.461534 -0.560304 -0.226527 0.188005 -0.553192 0.848093 0.261623 -0.105815 0.664323 0.066607 -0.036980 0.049388 0.732393 -0.218533 0.780584 -0.242931 -0.183639 -0.443498 0.078686 -0.009572 -0.441837 0.331063 0.243672 0.147683 -1.280120 -0.331815 -0.188663 -0.189417 0.187964 -0.031469 0.265735 0.293628 -0.550120 0.118938 0.639690 0.463316 -0.389679
sent_131 0.418304 -0.314547 0.131520 -0.276470 -0.879261 0.104522 -0.088737 -0.997339 -0.516513 0.608773 -0.533646 0.267959 -0.432768 0.327901 -0.396539 -0.203435 1.007352 -0.658819 0.635539 -0.244356 -0.509693 0.267317 0.481335 -0.736575 0.988912 0.241245 -0.085138 0.273313 -0.527325 -0.114137 -0.278287 -0.175528 0.420150 -0.996981 0.417405 -0.498566 0.672461 -1.032869 -0.051799 0.342190 -0.102265 -0.177404 0.424017 0.659778 0.114832 -0.370668 -0.410517 0.096019 -0.336897 -0.248073
sent_132 0.579358 -0.282208 0.311520 -0.178407 -0.754785 0.050521 0.181188 -0.826672 -0.642496 0.419543 -0.422014 -0.001684 -0.455256 0.209371 -0.649306 -0.585013 1.238729 -0.696301 0.718660 -0.211222 -0.387042 0.226704 0.380171 -0.691536 1.077667 0.248138 -0.542413 0.285664 -0.379953 -0.061222 -0.389433 0.134471 0.288112 -1.123072 0.504465 -0.652821 0.904237 -0.993278 -0.155382 0.156908 -0.097757 -0.158961 0.741653 0.910606 -0.178274 -0.251551 -0.526648 -0.053203 -0.074246 -0.348508
sent_133 0.609723 -0.321474 0.356273 -0.168323 -0.660376 0.074041 -0.113125 -0.613872 -0.344738 0.531326 -0.867560 0.210096 -0.171190 -0.216414 -0.254316 -0.352287 0.152816 -0.542322 0.239533 -0.255648 -0.129025 0.367019 0.103459 -0.198580 -0.188925 0.499632 0.108243 0.555282 -0.223585 0.040197 -0.635267 0.033401 0.221825 -0.207827 0.138914 0.249542 0.125306 -0.825329 -0.678153 0.092434 -0.339837 -0.145303 -0.072425 0.505898 0.364368 -0.600341 0.173019 0.690569 -0.002226 -0.024598
sent_134 0.835770 0.339594 0.569386 -0.149632 -0.544840 0.139018 -0.381884 -0.097248 0.160190 1.180576 -0.918167 0.159312 0.086575 0.490733 -0.281562 -0.898723 -0.099735 -0.195574 0.551099 -0.908340 -0.797380 -0.106733 0.593097 -0.285367 0.165679 -0.066188 -0.436823 0.353901 0.421734 0.148166 -0.684073 0.644304 0.149541 0.628623 0.010412 -0.684184 0.637585 -1.090613 -0.701151 -0.378384 -0.297179 -0.086911 0.552545 0.405689 -0.018521 -0.142248 0.030577 0.067739 -0.014935 0.237149
sent_135 0.390151 0.190240 0.429612 -0.028933 -0.402332 0.131253 0.223907 -0.413038 -0.264689 0.152304 -0.320636 0.000920 0.209479 -0.426246 -0.388513 -0.209480 -0.214167 -0.437353 0.207313 -0.257922 0.134592 0.534610 0.166418 -0.388014 -0.126514 0.685159 0.134980 0.404182 0.038900 -0.009528 -0.267572 0.324858 -0.342941 -0.222764 -0.103600 0.415450 0.382528 -0.547700 -0.267141 -0.195801 0.250937 0.446425 0.030883 0.350703 -0.022781 -0.288884 -0.135389 0.462672 -0.110893 0.378383
sent_136 0.386878 -0.181750 -0.061730 -0.257061 -0.769147 0.143937 0.020253 -0.960015 -0.473449 0.569698 -0.705265 0.125051 -0.571029 0.325909 -0.690349 -0.391094 1.231118 -0.646372 0.646548 -0.418991 -0.429031 0.271788 0.520958 -0.548532 1.000139 0.283862 0.016654 0.202715 -0.493764 0.157366 -0.291538 -0.267764 0.271659 -1.015299 0.330373 -0.389555 0.802817 -0.965579 -0.053584 0.351942 -0.112165 -0.006064 0.267844 0.659629 -0.071546 -0.347420 -0.494054 0.090293 -0.097215 -0.275804
sent_137 0.610533 0.448604 0.608963 -0.069247 -0.553655 0.119999 -0.250316 -0.069741 0.201120 0.944319 -0.812363 0.268471 0.122536 0.274654 -0.493391 -0.903503 0.152687 -0.335918 0.090837 -0.784634 -0.662919 -0.291450 0.393327 -0.516240 0.106091 -0.060406 -0.365743 0.385729 0.029622 0.191008 -0.491927 0.531964 0.051693 0.426338 0.083122 -0.652457 0.470464 -1.296509 -0.562270 -0.311277 -0.233030 -0.130257 0.374209 0.429399 0.230420 -0.357479 0.048770 0.163344 -0.010048 0.131891
sent_138 0.460279 0.041378 0.416040 -0.173925 -1.064466 0.270270 0.047961 -0.468064 -0.073439 0.082977 -0.800464 0.311832 -0.075910 -0.643921 -0.331736 0.078344 -0.647747 -0.632461 0.576550 -0.341672 -0.118537 0.501356 0.150899 -0.358671 0.105535 0.922260 0.112649 0.510757 -0.498971 0.244246 -0.597798 0.467025 -0.288174 0.125172 -0.091708 0.333823 0.242420 -1.020134 -0.482363 -0.133787 -0.160948 0.347458 0.005209 0.433282 0.269917 -0.354195 0.078104 0.551320 0.023829 0.255596
sent_139 0.539195 -0.027215 0.389098 -0.065742 -0.503239 0.282746 0.335778 -0.489895 -0.141440 0.366585 -0.794187 -0.000179 -0.565519 -0.470641 -0.698518 -0.301473 -0.427681 -0.137655 -0.038148 0.251546 -0.226342 0.197533 0.167194 -0.478110 -0.432527 0.362378 0.840459 0.287039 -0.184517 0.249535 -0.420148 0.150034 -0.250130 0.090451 0.253676 0.313529 0.675061 -0.819386 -0.726574 0.217879 0.560166 0.238972 -0.351819 0.316727 0.095612 -0.074841 0.281397 -0.070221 -0.352250 0.185946
sent_140 0.515002 -0.078456 0.313540 -0.394298 -0.706755 0.351694 0.031174 -0.409297 -0.345281 0.334969 -0.839945 0.427271 -0.017565 -0.359587 -0.536055 -0.528588 0.083860 -0.390368 0.131872 -0.211709 -0.275490 0.256423 0.188213 -0.047724 -0.076642 0.666353 0.058080 0.580295 -0.178905 -0.139185 -0.593136 -0.101891 0.222858 -0.218826 0.196201 0.148435 0.445594 -0.967666 -0.451417 0.020024 -0.169778 -0.139799 0.040329 0.400046 0.170916 -0.368239 0.443252 0.600962 0.008308 0.162515
sent_141 0.902948 -0.394230 0.408735 0.483527 -0.308805 0.364262 0.394241 -0.734186 -0.281531 0.341126 -0.874488 0.877353 -0.359227 -0.382666 -0.418556 -0.100710 0.062767 -0.802218 0.514708 0.032763 -0.115621 0.025529 -0.014442 -0.614634 -0.285382 0.948091 0.316150 0.184319 -0.034992 0.210950 -0.610988 0.563758 -0.032434 0.020994 0.043050 0.376130 0.346998 -0.719357 -0.522810 0.546143 0.075973 -0.082822 -0.047475 0.031084 0.406011 -0.239451 -0.008486 0.718079 -0.253421 -0.002324
sent_142 0.831101 -0.434405 0.238169 0.245284 -0.348569 0.391939 0.774379 -0.821296 -0.899716 0.786883 -1.012643 0.926548 -0.226377 -0.696615 -0.957665 -0.653609 -0.258835 -0.835935 0.695234 -0.243533 0.017352 0.121786 -0.324091 -0.742967 -0.229979 0.725412 0.321616 0.588168 -0.362266 -0.033710 -0.727649 0.763143 -0.139028 -0.161491 0.393847 0.365908 0.639645 -0.840978 -0.251205 0.620773 -0.620547 0.179238 -0.196741 0.048123 -0.013813 -0.092001 -0.327345 0.652014 -0.646198 0.038096
sent_143 -0.247576 0.220386 0.578100 0.192448 0.075365 -0.026342 -0.267861 0.254379 0.307011 0.047776 -0.361425 -0.386405 -0.101591 0.389653 -0.462828 -1.541457 0.248990 0.264728 -0.415297 0.595744 -0.590259 0.385789 -0.093381 -0.368708 0.689124 0.007873 -0.760588 -1.116270 0.258218 0.465472 0.250613 0.349498 0.475178 0.022081 -0.121747 0.127235 0.547008 0.114415 -0.058242 -0.098230 0.275844 -0.507421 -0.050471 -0.875327 -0.246272 -1.093001 -0.154799 -0.173329 -0.796703 0.183553
sent_144 -0.236874 0.248742 0.648675 0.268712 0.366667 0.264959 -0.635108 0.841310 -0.493360 -0.416018 -0.648202 -0.368075 -1.008597 0.011537 -0.443808 -0.956963 0.421685 0.871576 -0.573569 0.347904 -0.414637 -0.198698 0.211620 0.164516 0.464797 0.172106 -0.940261 -0.756509 -0.055157 0.394039 -0.089270 0.092604 0.215028 0.028726 -0.201899 1.376136 0.325589 0.349127 0.552414 -0.160956 0.547577 -0.078810 -0.313318 -0.658783 -0.440325 -0.577079 -0.871397 0.578083 -0.540604 -0.280160
sent_145 0.192035 0.503083 0.471914 -0.136880 0.661935 0.204511 0.313013 0.189351 -0.142594 0.138142 -0.460774 -0.264608 -0.980749 0.167811 -0.165054 -1.008672 -0.344288 0.877366 -0.330098 0.150486 -0.076411 0.179236 0.021285 -0.264467 0.204015 0.123941 -0.126385 -0.923034 -0.269828 0.294839 -0.287788 0.736536 0.126352 0.633317 -0.208959 0.468252 0.069646 0.348862 0.551700 0.010617 0.311375 0.027362 -0.325343 -1.189477 -0.547738 -0.632144 -0.607239 0.075799 -0.365905 -0.054816
sent_146 -0.030004 0.263101 0.266885 0.050847 0.361414 0.275217 0.008577 0.193992 0.280045 -0.100321 -0.566238 -0.704494 -0.486305 0.434631 -0.266254 -1.024580 -0.198523 0.162011 -0.322426 0.593031 -0.251152 0.423355 -0.412785 0.097782 0.627238 0.229569 -0.523313 -0.929117 -0.062030 0.265000 -0.507494 0.338461 0.238646 0.299951 -0.499830 0.794219 0.044475 0.014722 0.123220 -0.374963 0.292735 -0.459552 -0.420495 -0.802668 -0.348302 -1.139933 -0.278240 0.045579 -0.393727 -0.054048
sent_147 0.087132 0.265549 0.554612 0.001612 0.326542 0.014967 -0.019284 -0.210650 0.187471 -0.271620 -0.317575 -0.096321 -0.509517 0.205820 -0.246127 -1.033392 0.023750 0.327591 -0.265848 0.761289 -0.240544 0.364336 -0.284964 0.055198 0.480086 0.220231 -0.403056 -0.619391 -0.135169 0.195994 -0.369792 0.526070 -0.059297 0.435957 -0.814277 0.830245 0.691048 0.209460 0.188284 -0.384499 0.681454 -0.216059 0.095867 -0.536102 -0.171832 -0.708920 -0.438904 0.413232 -0.408953 0.195187
sent_148 -0.369821 0.242091 0.806397 0.411526 -0.028984 -0.118841 -0.559090 0.145344 -0.135474 -0.443339 -0.104235 -0.177642 -0.361825 0.088091 -0.495320 -1.184267 0.213898 0.682379 -0.243517 0.352750 -0.480249 0.479138 0.003934 0.248338 0.548281 0.018390 -0.384078 -0.883948 0.100673 0.339842 -0.133167 0.077955 0.151089 0.381736 -0.514448 0.516245 0.329706 0.236916 0.306278 0.049688 0.744827 0.019483 -0.547807 -0.310347 0.279703 -0.457941 0.165272 0.334747 -0.622419 0.066677
sent_149 -0.054345 0.438019 0.455518 0.045284 0.231729 0.268247 -0.161326 -0.132454 0.151148 -0.277040 -0.318468 -0.253437 -0.392817 0.136753 -0.367980 -1.079535 0.026334 0.417556 -0.476459 0.509654 -0.251374 0.416791 -0.315548 0.150482 0.504165 0.250066 -0.347887 -0.624716 -0.112647 0.071842 -0.430104 0.611538 -0.115295 0.400031 -0.711735 0.592078 0.573391 0.049509 0.147214 -0.211650 0.456183 -0.423397 -0.070152 -0.557718 -0.476383 -0.759000 -0.215017 0.393097 -0.497275 0.309582
sent_150 -0.007684 0.434981 0.587237 0.064445 0.204080 0.100696 -0.083601 0.083550 0.203260 -0.008300 -0.366714 -0.478324 -0.351912 0.292574 -0.280771 -0.895845 0.052672 0.353571 -0.530911 0.647534 -0.085670 0.501292 -0.283506 0.242185 0.292565 0.103082 -0.607696 -0.792523 -0.265589 0.128944 -0.410897 0.390684 -0.043082 0.437554 -0.784353 0.785565 0.385030 0.224808 0.133712 -0.213882 0.456002 -0.457252 -0.237607 -0.605514 -0.361506 -0.853306 -0.290065 0.333971 -0.378252 0.163296
sent_151 -0.129608 0.634092 0.593516 0.268487 -0.068063 0.326665 0.228578 -0.153277 0.186621 0.115536 -0.201670 -0.498447 -0.497836 0.312553 -0.308166 -1.001676 -0.513635 0.293543 -0.778348 0.839202 -0.426332 -0.017146 -0.092951 0.056490 0.024540 -0.269124 -0.330659 -1.080600 -0.298864 -0.219066 -0.409091 0.334948 0.467071 -0.519294 -0.193864 0.394714 0.693624 0.475671 0.443970 0.064740 0.165447 -0.740269 0.389515 -0.655327 -0.461220 -0.868017 -0.036506 0.139168 -0.513950 -0.246588
sent_152 0.143255 -0.204599 0.674943 0.218654 0.174793 0.333268 -0.139640 0.249857 0.473232 -0.330654 -0.176091 -0.230817 -0.280947 0.232201 -0.339081 -1.218811 -0.090177 0.363978 -0.068258 0.564834 -0.169631 0.242126 0.105784 0.139383 0.824891 0.232621 -0.645940 -0.937691 -0.028842 0.517248 -0.202046 0.588794 -0.046173 0.387511 -0.396292 0.624990 0.382006 0.288703 0.235683 -0.233272 0.517777 -0.721504 -0.305642 -0.687181 -0.340152 -0.652080 -0.269042 0.015822 -0.604091 0.024156
sent_153 0.095200 0.066223 0.378840 0.295572 0.268049 0.006561 0.160207 0.422766 0.070490 -0.479227 -0.736096 0.252889 0.087676 0.053390 -0.163627 -1.515073 -0.319390 0.041918 -0.483479 0.444389 -0.173341 0.233215 -0.175223 0.396769 0.317678 -0.054145 -0.483999 -0.460961 -0.207244 0.500369 -0.070098 0.178737 0.016900 0.535689 -0.309039 0.688592 0.807354 0.073347 0.317165 -0.244217 -0.139020 -0.527614 -0.163088 -0.720580 0.013748 -0.854439 -0.005835 0.251908 -0.421565 0.293704
sent_154 -0.122134 0.788682 0.630185 0.073787 0.433333 0.500455 -0.052867 -0.446319 0.181098 0.324806 -1.084850 -0.458387 -0.524633 -0.116817 -0.459905 -0.992104 -0.074069 0.493286 -0.790936 1.195437 -0.155163 0.184919 -0.505453 0.351736 0.736101 0.539869 -0.995517 -0.525878 -0.322116 0.159268 -0.641293 0.221127 0.198188 0.826324 -0.675387 0.687670 0.668635 0.384988 -0.103389 -0.019165 0.215354 -0.461142 -0.102469 -0.727883 -0.667641 -1.040999 0.057132 0.109656 -0.558391 -0.177436
sent_155 0.067361 0.795090 0.672254 -0.088480 -0.090575 0.655631 0.283588 -0.344870 0.627918 -0.070869 -0.616461 -0.542868 -0.395855 0.245139 -0.430721 -1.035478 0.295357 0.591885 -0.428695 0.610068 -0.434925 0.664772 -0.426427 0.292764 0.393469 0.449492 -0.201351 -0.556260 -0.051284 0.394931 -0.407254 0.285212 0.164469 0.642555 -1.016732 0.403004 0.869699 0.049870 0.289060 -0.080798 0.433187 -0.797862 -0.310703 -0.352156 0.097490 -0.698563 -0.503619 0.203435 -0.316207 0.227366
sent_156 0.132614 0.423139 0.477398 -0.137539 -0.494740 -0.223528 -0.298435 -0.742969 0.619638 0.733418 0.201804 -0.380939 0.097591 0.042030 0.272168 -1.092667 0.157605 0.108944 0.072103 -0.399332 0.045066 0.551700 0.020488 -0.770444 -0.503393 -0.249575 -0.237590 -0.000892 0.226934 0.472462 -0.561536 0.218185 0.151728 0.019023 -0.518062 0.618678 0.158185 0.516110 0.255612 -0.361287 -0.083614 -0.434598 -1.136536 0.262315 -0.500557 -0.086711 0.176232 0.272204 -0.295962 -0.007577
sent_157 -0.348980 0.579922 0.014895 0.001768 -0.827244 -0.291624 0.068798 -0.497865 0.208454 0.358174 0.367777 -0.878818 0.072553 -0.044569 0.503462 -0.925097 0.185701 -0.179540 -0.169455 -0.281657 0.403238 0.431488 -0.005828 -0.959216 -0.322754 -0.206791 -0.650406 -0.205872 0.051688 0.417441 -0.657916 0.452704 0.259476 0.206821 -0.202474 0.365802 0.181853 0.677645 0.327705 -0.359204 -0.271878 -0.091721 -0.939323 0.125486 -0.168727 -0.294476 0.214541 -0.128380 -0.487341 -0.059089
sent_158 -0.394055 0.486393 0.230153 0.205479 -1.211032 0.225474 0.045850 -0.376096 0.131235 0.411529 0.284433 -0.308403 0.637517 0.148080 0.362173 -0.889452 0.002767 0.452156 -0.366638 -0.354826 -0.189005 0.582886 0.006438 -0.896387 -0.223368 -0.072945 -0.379417 -0.164781 -0.275539 0.413632 -0.371443 0.385957 0.378926 -0.559882 0.353736 1.053136 0.086453 1.235796 0.142682 -0.224824 -0.223568 -0.260595 -0.846823 0.032105 -0.679624 -0.286262 0.892310 0.395827 -1.246412 -0.698599
sent_159 0.243266 0.505753 0.810830 -0.369451 -0.827753 0.110445 0.103200 -0.331590 -0.096603 0.477186 -0.062785 -1.097965 0.455403 0.480597 -0.264119 -0.454202 -0.280289 0.666433 -0.346107 -0.842396 0.004603 0.112593 -0.004980 -1.556566 -0.342670 0.106276 -0.237078 -0.143174 0.068041 0.270982 -0.999446 0.569040 0.443441 0.332812 0.460591 0.533238 -0.181812 0.879386 -0.005228 -0.071729 -0.086492 0.185281 -0.844576 -0.129127 -0.466551 -0.301988 0.009768 0.267215 -0.930183 -0.558172
sent_160 0.333023 0.149761 0.107900 -0.326427 -0.576723 -0.514918 0.133758 -0.306614 -0.054847 0.412095 -0.235288 0.161442 0.438679 -0.101304 0.366766 -0.983910 0.353245 0.364124 0.038232 -0.610502 -0.085537 0.750031 0.184478 -0.597564 -0.541442 -0.059862 0.261846 -0.188383 0.516293 0.701159 -0.100664 0.359220 0.199102 -0.087651 -0.133721 0.741902 0.572669 0.626482 0.037920 -0.252068 0.046595 -0.835714 -0.901005 0.694655 -0.703776 -0.397063 0.392113 0.206753 -0.357700 -0.093815
sent_161 -0.344051 0.533213 0.169432 -0.211209 0.043739 -0.546643 0.484045 -0.250264 0.166461 0.777809 0.144511 -0.962051 -0.045416 0.065049 0.408737 -1.308337 0.118983 0.080508 -0.134281 -0.334325 0.215761 0.233411 0.021475 -1.457339 0.002746 -0.210889 -0.458828 -0.456394 0.330547 0.549604 -0.649098 0.234521 0.176138 0.463797 -0.298656 0.474685 -0.085238 0.817490 0.100924 -0.091509 -0.019816 -0.024627 -1.030350 0.249201 -0.235822 -0.244192 0.072687 -0.264863 -0.838344 -0.217994
sent_162 0.296897 0.191776 -0.481551 -0.251575 -0.216300 -0.543365 -0.098629 -0.458386 -0.132603 0.044515 0.215186 -0.469775 0.005509 0.129489 -0.231921 -0.754320 0.351196 0.118123 0.159402 -0.085419 -0.052146 0.579082 0.360639 -0.849261 -0.431381 -0.121465 -0.589188 -0.350634 0.702961 0.653416 -0.313581 0.336302 -0.127969 -0.406554 -0.168754 0.691333 0.036968 0.327804 0.189273 0.082430 0.677019 -0.891826 -0.862580 0.636302 -0.169650 -0.073526 0.252361 -0.257152 -0.504293 -0.049616
sent_163 -0.047759 0.529872 0.006579 -0.233924 -0.547947 -0.084878 -0.106164 -0.320892 0.267785 0.202914 0.251032 -0.376098 0.163014 -0.051668 0.083569 -0.428881 0.264623 0.280990 -0.040688 -0.291796 0.058689 0.716679 0.121434 -0.521080 -0.351073 -0.217306 -0.256872 -0.093596 0.260031 0.267449 -0.612032 0.196428 0.256034 -0.403635 -0.234290 0.423599 0.220660 0.710660 0.348036 -0.123760 0.119414 -0.209746 -0.824157 0.262145 -0.164520 -0.009412 -0.084069 0.255366 -0.263592 -0.301447
sent_164 0.458799 0.478808 0.024036 0.084296 -0.884264 -0.154978 -0.201079 -0.501252 -0.160381 0.453661 0.745881 -0.276882 0.766633 -0.222454 0.105596 -0.557024 0.306187 0.576858 0.132954 -0.276623 0.028800 0.632108 -0.075782 -0.501332 -0.225510 -0.056164 -0.391239 0.049070 0.489681 0.029754 -0.649349 0.077514 0.520284 -0.475163 -0.285335 0.570363 0.335887 0.557264 0.304173 -0.104252 -0.044729 -0.100984 -1.064736 0.500859 -0.365387 0.140899 -0.221973 0.233972 -0.436864 -0.174505
sent_165 0.009090 0.685427 0.464008 -0.804941 0.249840 -0.071264 0.161276 -0.101502 0.634724 0.592465 0.277469 -0.663774 0.331307 0.362662 0.245870 -0.504524 0.372609 0.635668 -0.330299 0.129219 0.059079 0.398436 -0.354706 -0.807253 -0.405226 -0.157740 -0.322847 -0.524092 -0.167216 0.401797 -1.015364 0.287799 0.297607 -0.311398 -0.414533 0.488415 0.364117 0.820903 0.477570 -0.159217 0.785356 -0.386192 -1.568724 0.327004 -0.322936 -0.497104 -0.343909 0.534294 -0.746005 0.076819
sent_166 -0.021654 -0.015335 0.537864 -0.347256 -0.575769 0.879986 -0.400117 -0.604796 -0.885234 1.271350 -0.066864 -0.843320 -0.387002 0.314790 0.815404 -0.744633 0.541642 0.027002 -0.418147 -0.705546 0.461997 0.206608 -0.176793 -0.991406 -0.591329 0.229680 -0.403533 0.116476 0.295618 -0.136363 -0.899807 0.671797 0.198303 -0.606384 -0.256823 0.999876 -0.911523 0.607448 0.035220 -0.881361 -0.416687 -0.347075 -0.599083 0.356492 -0.820875 -0.884253 0.050994 0.205903 -0.702603 -0.662212
sent_167 0.042724 0.455614 -0.045541 -0.449317 -0.396035 -0.392469 0.100200 -0.412547 0.108578 0.396761 0.127295 -0.442764 0.162964 0.404784 0.125206 -0.915896 0.308268 0.352367 0.137644 -0.287786 0.048712 0.866868 0.038695 -1.116852 -0.461727 -0.404072 -0.213437 -0.313107 0.228374 0.461562 -0.738788 0.393894 0.528003 -0.118332 0.052328 0.552080 0.368868 0.812255 0.061792 -0.141860 0.261766 -0.193588 -0.943214 -0.203464 -0.319319 -0.134695 0.276771 0.155859 -0.706104 -0.046474
sent_168 0.026561 0.372636 0.067693 -0.334818 -0.654080 -0.168234 -0.100778 -0.623331 -0.273946 0.715792 -0.117229 -1.368648 0.002503 0.344856 0.326255 -0.474205 0.644506 0.237050 -0.576819 -0.654145 0.365673 0.533163 -0.130967 -1.210646 -0.207181 -0.288792 -0.392017 -0.122025 0.231421 0.077051 -0.783082 0.214345 0.843167 -0.548036 0.265286 0.675063 -0.351271 0.828223 -0.069815 -0.275926 -0.187478 -0.344198 -0.557136 0.151499 -0.744583 -0.328283 0.115101 0.450856 -0.584124 -1.048445
sent_169 0.304092 0.543215 0.244433 -0.310060 -0.678139 -0.106037 -0.196107 -0.382901 0.446428 0.242409 0.206472 -0.634487 0.125842 0.212451 -0.150227 -0.605055 0.359712 0.260694 -0.025329 -0.168808 0.051850 0.940507 -0.256812 -0.878654 -0.136275 -0.120985 -0.400202 -0.083893 0.269334 0.373220 -0.803880 0.208693 0.347151 -0.137982 -0.112045 0.464174 0.276978 0.864324 0.341666 -0.257269 0.009337 -0.230405 -0.806356 0.150076 -0.494479 -0.164795 0.280825 0.115089 -0.526370 0.047474
sent_170 0.088198 0.418335 -0.100237 -0.073367 -0.332808 -0.372257 -0.185514 -0.453941 0.175059 -0.028980 -0.172849 -0.629545 0.947898 0.098299 0.201134 -1.499398 0.075234 0.432539 -0.339454 -0.401923 -0.004558 0.368500 0.222177 -0.837183 -0.904771 -0.259884 -0.837326 0.221412 0.567326 0.160061 -0.555502 -0.451126 0.324820 -0.023065 0.386733 0.185487 0.528574 0.889018 -0.251948 -0.036309 -0.047795 -0.594364 -0.750763 0.489396 -0.290002 -0.224191 0.068365 -0.322224 -0.414497 -0.205430
sent_171 0.226990 0.218606 0.123893 -0.080785 -0.842292 -0.498539 -0.227249 -0.975063 0.098134 0.186018 0.640408 -0.724378 0.372429 -0.186183 0.134387 -0.536792 0.203047 0.404924 0.034254 -0.196378 -0.463188 0.839146 -0.197523 -0.911131 -0.187524 -0.361525 -0.509494 -0.148668 0.427161 0.418172 -0.644378 0.300942 0.607510 -0.106263 -0.058831 0.430679 0.140761 0.559602 -0.072439 -0.204966 0.223167 0.068179 -1.074783 0.534383 -0.665121 0.010179 -0.101008 0.128262 -0.884317 -0.240329
sent_172 0.132970 0.407820 -0.054416 -0.476117 -0.433410 -0.402473 -0.035695 -0.599804 0.115206 0.317515 0.197676 -0.157148 0.447799 -0.024612 0.067112 -0.633075 0.074137 0.311377 -0.025972 -0.290043 -0.103390 0.789358 -0.158967 -0.930066 -0.051490 -0.030236 0.074873 -0.100747 0.097820 0.564123 -0.516830 0.229459 0.299543 -0.285748 -0.179542 0.828641 0.294724 0.718839 0.368748 -0.279015 -0.161542 -0.214368 -1.228491 0.280956 -0.486296 -0.451600 -0.044717 0.292844 -0.698561 0.314872
sent_173 0.069963 0.045585 0.088482 0.255927 -0.594018 -0.388949 0.138985 -0.324907 0.547448 -0.060630 0.497433 -0.751059 0.961993 0.429557 -0.031431 -0.775274 0.471033 0.403461 -0.791018 -0.280997 -0.192485 0.590187 0.110039 -0.465455 -0.380221 -0.332929 -0.135654 -0.397808 0.898215 0.212980 -0.934528 0.139901 0.238066 -0.924034 -0.219471 0.583067 0.460282 0.494315 0.075303 0.377794 0.667683 -0.441506 -1.757570 1.027992 -0.311803 -0.275945 0.188111 -0.435820 -0.435976 0.108538
sent_174 0.048794 0.230308 0.440786 -0.331267 -0.832851 -1.671414 0.340545 -0.106387 -0.185117 0.574946 0.678822 -0.861459 0.341460 -0.481563 0.798853 -0.289829 0.046347 0.222287 -1.003129 -0.065096 -0.499653 0.602740 -0.068888 -0.561367 0.382879 -0.350938 -0.251186 0.166255 0.514195 0.017738 -0.809215 0.610921 -0.278053 0.291997 0.438330 0.367164 -0.244290 0.599998 0.587250 0.188155 0.879238 0.271882 -1.618714 0.283921 -0.195699 -0.297750 -0.531886 0.422230 -0.348076 -0.206741
sent_175 -0.089139 0.248858 0.133734 -0.086576 -0.673640 -0.261623 0.088824 -0.437144 0.422780 0.463726 0.256764 -0.438966 0.493291 0.187204 0.257440 -0.799060 0.234159 0.380024 -0.314403 -0.291941 -0.402486 0.656500 -0.112669 -0.735572 -0.368747 -0.504985 -0.481503 -0.205950 0.489560 0.401071 -0.336230 0.522610 0.661190 -0.269391 0.131591 0.317982 0.667887 0.985550 0.086025 -0.385442 0.385138 -0.253643 -1.060136 0.343537 -0.344366 -0.101892 -0.166028 0.172477 -0.584525 -0.141784
sent_176 -0.251676 -0.144226 -0.490984 -0.121842 0.209769 0.523900 0.621383 0.203673 0.091535 -0.139120 0.516495 -0.193882 0.039868 0.172954 0.060369 -0.292064 -0.626818 -0.282281 0.295812 0.404308 0.027101 -0.234295 0.103206 0.028246 -0.041900 0.094946 0.050526 0.168034 0.219719 0.280081 -0.399988 0.041679 -0.344247 -0.172669 0.432182 -0.271350 0.473982 0.100605 0.022283 -0.116093 -0.299073 -0.253453 -0.028561 0.020147 0.243326 -0.292788 0.473093 -0.210951 -0.078062 0.036998
sent_177 -0.352636 0.171912 -0.730828 -0.030052 0.056601 0.322163 0.285145 0.244296 0.194207 -0.229728 0.199511 0.030119 -0.284603 -0.537809 0.182810 -0.113174 -0.240126 -0.415587 0.068271 0.298837 0.284491 -0.085921 0.094950 -0.149428 0.063744 0.248252 0.171746 0.025762 0.076076 0.844548 -0.326404 0.408372 -0.288516 0.051623 -0.123861 -0.260312 0.621052 0.019144 0.063309 0.007420 -0.382188 0.142103 -0.096180 -0.186238 0.173233 -0.126384 0.363208 -0.160123 -0.106560 -0.180460
sent_178 0.066915 0.568236 -0.123053 -0.561309 0.630574 0.650360 0.159077 -0.045085 0.102620 0.122464 0.359675 0.555408 -0.363372 -0.099217 -0.059920 -0.299515 -0.775788 -0.163626 0.138688 0.244423 -0.033908 0.265905 0.141055 0.233709 -0.717442 -0.354671 0.738252 0.099670 0.131320 0.135279 -0.867823 0.638505 0.365673 -0.978681 0.162849 -0.153929 0.343926 -0.050242 0.374884 0.641376 0.639805 -0.114569 0.164249 -0.207530 -0.203572 -0.039582 -0.203562 -0.227141 0.381238 0.078106
sent_179 -0.421809 -0.760949 -0.504467 0.830637 -0.277317 1.217274 0.467792 -0.094924 0.076963 0.123626 -0.490963 -0.980126 -0.399352 -1.556360 -0.524493 0.758805 0.329401 0.466441 -0.066368 -0.296770 0.077436 0.511213 -0.190771 -0.015697 0.865140 0.368413 -0.005951 0.789646 1.244318 0.027663 0.077644 0.862217 -0.689669 0.591598 -0.516528 -0.286909 1.211884 0.538429 0.589013 0.168130 0.347807 0.082177 -0.864766 -0.008451 -0.005920 -0.780315 0.583073 0.673701 -0.038393 -0.248968
sent_180 -0.439717 -0.126096 -0.893071 -0.177559 0.269984 0.677302 0.298070 0.013275 0.001340 -0.231067 0.074521 -0.099410 0.115207 -0.397916 -0.380134 0.333641 -0.327509 0.004572 0.321157 0.224012 0.147511 0.199047 0.199219 -0.066214 0.434494 0.071662 0.386462 0.162199 0.631997 0.609180 -0.390628 0.661344 -0.739548 0.304613 -0.007860 -0.592552 0.947044 0.175514 0.300830 0.186586 -0.084697 -0.363370 0.117912 -0.059535 -0.434327 -0.479809 0.686285 0.526883 -0.168551 0.110909
sent_181 0.391214 -0.435129 -0.393588 -0.296929 0.124569 0.131422 0.035758 0.034279 0.053006 -0.669967 0.532203 0.437815 -0.385540 0.240692 0.258518 -0.614423 -0.573315 0.139134 0.758362 -0.072579 -0.001676 -0.261050 0.175311 0.178481 0.600520 -0.156626 0.065932 -0.295579 0.303038 0.428197 -0.519736 -0.109206 -0.629609 0.061811 0.357591 -0.140296 0.254639 0.064844 -0.180667 -0.457904 -0.101199 -0.148686 -0.376946 0.183797 -0.121094 -0.580457 0.007294 -0.502248 -0.267522 0.127079
sent_182 0.162681 0.340224 -0.019704 -0.098390 0.277621 0.486000 -0.290366 0.250668 0.262690 0.499241 -0.208024 0.082992 0.048153 0.649088 0.223831 -0.675561 -0.099929 0.281419 0.307719 0.010701 -0.657173 -0.238143 0.556340 0.002015 0.185399 -0.531746 -0.458384 -0.057030 0.348168 0.072731 -0.601154 -0.041141 -0.253358 0.387190 0.150631 -0.968609 0.742425 -0.598912 0.123849 -0.470385 -0.040651 -0.781078 0.705052 0.321212 0.110201 -0.025864 -0.039285 -0.039594 0.094094 -0.231940
sent_183 -0.376310 -0.482448 -0.467758 -0.024419 0.380736 0.577711 0.352311 -0.064252 0.305216 0.194691 0.784746 -0.814095 -0.294836 -0.584198 -0.276821 0.231984 -0.820189 -0.465380 0.696414 0.171509 -0.500122 0.232940 0.425304 -0.021813 0.306107 0.349808 0.141972 0.041268 0.513398 0.218437 -0.505170 -0.096635 -0.494730 0.171536 0.223300 -0.421587 0.249189 0.431927 0.203572 0.086598 -0.425562 0.173657 -0.376069 0.053146 -0.145471 -0.484058 0.696000 0.122989 0.063488 -0.169733
sent_184 -0.167021 0.370886 -0.547169 -0.379878 0.578529 0.245303 0.202227 0.131212 0.269024 -0.011122 0.305564 0.189894 0.119917 -0.374995 -0.043400 0.376202 -0.266323 -0.134427 0.056339 0.374696 -0.131948 0.403367 -0.115257 0.076613 -0.437050 -0.154862 0.265781 -0.012594 0.151398 -0.153056 -0.290102 0.510438 -0.038559 -0.022433 -0.009236 -0.393891 0.284885 0.080009 0.336401 -0.031307 0.001155 -0.103558 -0.195325 -0.043490 -0.327463 -0.216794 0.326538 0.071026 0.059988 0.024678
sent_185 -0.460367 -0.253800 -0.988088 -0.317217 0.492978 0.126629 0.470721 -0.397624 -0.044588 0.255059 0.498018 -0.090149 -0.464766 -0.548224 0.059903 -0.074013 -0.462705 -0.247675 0.063168 0.680950 -0.081896 -0.067054 0.060239 -0.321742 0.430836 0.005195 -0.135368 0.172433 -0.273693 0.923535 0.031446 0.459943 -0.513295 0.558106 0.053575 -0.176291 1.555428 0.313519 0.529429 0.221880 -0.179782 -0.640972 -0.446598 -0.290405 -0.131665 -0.791629 0.943245 0.148977 -0.507129 -0.361192
sent_186 0.129765 -0.459597 -0.444388 0.030605 0.245285 0.307147 0.308980 0.249491 0.226137 -0.515484 -0.045820 0.326151 -0.110122 -0.061280 -0.158331 -0.414152 -0.007180 0.114963 -0.000942 0.175829 0.090111 0.118643 0.066635 -0.040148 -0.278596 -0.586446 0.539092 -0.013749 0.379317 0.182890 -0.393605 0.247920 -0.401294 -0.177127 0.550702 -0.375940 0.438588 0.012333 0.445171 0.104806 0.086585 -0.229926 -0.127474 0.037231 0.037553 -0.087084 0.018907 -0.289281 -0.018474 -0.179209
sent_187 0.426527 0.253403 0.262597 -1.158686 0.539645 1.833375 -0.479927 0.025191 0.573131 0.494431 -0.483921 -0.511775 -0.581800 -0.269474 -0.025616 -0.324850 -0.472580 0.424902 0.547890 0.689797 -0.357977 0.727277 -0.390454 -0.173762 -0.319214 -0.539166 -0.223418 -0.220501 -0.460951 0.030238 -0.346366 -0.187947 -0.511413 0.370020 0.171623 -0.252707 0.155853 0.549993 0.513923 -0.588194 0.278184 -0.342422 -0.525055 -0.282665 0.243441 -0.594298 0.293763 0.487242 -0.247451 0.235191
sent_188 0.011048 0.097356 -0.265772 -0.255205 0.368190 0.378426 0.239528 0.240094 0.516486 -0.024714 0.546853 -0.101894 0.098798 0.180286 0.106877 0.187975 -0.324872 0.057078 0.307888 0.655636 -0.366707 0.271448 -0.240407 -0.049357 0.241686 -0.441109 -0.134050 -0.146664 -0.128891 0.395325 -0.114695 0.104237 0.215907 -0.333939 -0.175874 -0.132502 0.418584 0.176132 0.069424 -0.034252 0.188127 0.018269 -0.034073 0.033139 0.134932 -0.445142 0.164115 0.191846 -0.050693 0.025306
sent_189 -0.348038 -0.295965 -0.298844 -0.407532 0.566449 0.054853 0.323796 0.105200 0.704394 -0.239449 -0.500132 -0.364159 0.661933 0.100196 0.261761 -0.818789 -0.534275 -0.161650 -0.044829 0.954238 -0.390791 -0.428360 0.439508 -0.183963 -0.001730 -0.465055 0.034540 -0.394947 0.400261 -0.149080 -0.541547 0.787199 -0.476952 -0.596635 0.527739 -0.227569 0.677314 -0.308790 -0.106073 -0.319460 0.167415 -0.248070 -0.130250 0.007109 -0.093019 -0.326049 -0.045064 -0.423923 -0.406367 -0.061702
sent_190 -0.657235 0.376623 1.148313 0.321136 0.139276 -0.658397 -0.452369 0.077103 0.330933 -0.165300 -0.512705 0.112425 -0.011556 0.956537 0.315541 -0.659403 0.546390 0.508784 0.391456 0.587281 -0.336149 0.019938 -0.814398 -0.149715 0.205869 0.487070 -1.183977 -0.414490 -0.480855 1.049483 0.299779 -0.511768 0.059315 -0.211805 -0.356745 1.280985 1.148710 0.199332 -0.107714 -0.006921 0.460197 0.259887 -0.208327 -0.334385 -0.084386 0.019909 -0.671855 0.437227 -0.512003 0.261391
sent_191 -0.409782 0.269843 0.689853 -0.026010 0.204396 -0.376287 0.069440 -0.031584 0.177770 -0.183253 -0.797717 -0.340006 0.047035 0.630255 0.261985 -0.565931 0.192949 -0.118728 0.479648 0.966936 -0.180108 0.292672 -0.591504 -0.799802 -0.326101 0.098372 -0.824489 -0.754097 -0.669282 0.684829 0.346435 -0.040074 -0.031036 0.328586 -0.673948 1.116211 0.852979 0.088612 -0.165481 -0.442456 0.563169 0.179785 -0.116254 -0.639910 -0.126504 -0.493338 -0.582605 -0.690175 -0.240280 0.282835
sent_192 -0.776161 0.323141 1.121582 0.172153 0.150066 -0.520926 -0.500240 0.310940 0.438617 -0.291958 -0.493419 -0.026318 -0.209009 0.848657 0.188344 -0.592251 0.518242 0.277100 0.327170 0.549226 -0.209349 0.047924 -0.774916 0.021367 0.094848 0.337011 -1.285580 -0.348471 -0.454733 0.981917 0.278427 -0.545076 0.194629 -0.192170 -0.193324 1.489911 1.038639 0.158807 0.175650 -0.234760 0.447614 0.238484 -0.300742 -0.322776 -0.050877 -0.259784 -0.459576 0.313800 -0.412943 0.111489
sent_193 -0.230820 0.473714 0.284387 0.123990 0.421042 0.220965 0.059903 -0.424704 0.445455 0.160309 -0.874406 -0.334536 -0.141185 0.599961 0.319794 -0.685403 0.394752 0.011249 0.163193 1.139098 -0.237106 0.463235 -0.747256 -0.915478 -0.150772 0.222676 -0.891294 -0.010852 -0.908188 0.791779 0.470504 0.748451 0.274137 0.269388 -0.638300 1.053244 0.582243 0.354728 0.170055 -0.501844 0.074274 0.073147 -0.693017 -0.283599 -0.010766 -0.701602 -0.213800 0.093253 -0.346079 0.353389
sent_194 0.366726 -0.263978 0.493104 0.732611 -0.451591 -0.363008 0.289604 -0.217725 -0.150688 -0.512071 -1.092333 0.160344 -0.743982 0.893166 0.352086 -0.930763 0.684358 -0.116364 0.519864 0.223501 -0.625593 0.593904 -0.353039 -0.892761 0.433998 -0.017471 -0.949878 -0.357243 -0.271989 1.501848 0.104982 0.890880 -0.908634 0.186892 -0.393454 0.921475 0.525985 0.116005 0.729863 0.331133 0.473808 -0.652176 0.198951 -0.347769 -0.351507 -0.694064 -1.188323 -0.570087 -0.990798 0.387083
sent_195 -0.269765 0.425286 0.802494 -0.304214 -0.071040 -0.038381 -0.669558 -0.179732 0.229649 -0.115138 -1.307930 -1.150339 -0.159194 0.771315 0.444772 -0.758062 -0.580797 0.488653 0.379604 0.920235 -0.797223 0.377135 -0.646659 -1.060600 0.026869 -0.168012 -0.886468 0.338716 -0.512814 0.464719 0.023608 0.032276 -0.259285 0.745620 -0.883519 0.541818 0.564829 -0.195889 0.109787 -0.066330 0.358463 0.014397 -0.010776 -0.505954 -1.055122 -0.772278 -0.843947 -0.262650 -1.464485 0.300528
sent_196 -0.490904 0.417234 0.862290 -0.151863 0.302284 -0.172894 0.132835 -0.126899 0.414708 -0.048877 -0.692884 -0.398688 -0.201153 0.986585 0.285642 -0.190201 0.484590 0.386993 0.227386 0.940341 -0.078608 0.090141 -1.006662 -0.292596 -0.068857 0.596350 -1.120417 -0.278935 -0.551566 1.097663 0.456859 -0.417651 0.947270 0.630060 -0.457982 1.034407 0.462249 0.264160 -0.266245 -0.246752 0.507621 0.055698 -0.239858 -0.248104 -0.205837 -0.629844 -0.102174 -0.049624 -0.503592 0.023254
sent_197 -0.309497 0.252745 0.545085 -0.106383 0.123218 -0.639853 0.245162 -0.284912 0.804755 0.076414 -0.630897 -0.377092 0.037881 0.784071 0.179171 -0.447646 0.667074 0.232305 0.105975 0.579363 0.216372 0.552570 -1.090022 -0.769467 -0.056014 0.627641 -0.891483 -0.622227 -0.605362 1.014406 0.630505 0.391376 -0.115852 0.165927 -0.733648 1.285932 0.608472 0.457711 -0.314892 -0.604415 0.384308 -0.012448 -0.221923 -0.273360 0.157116 -0.721279 -0.725737 -0.023106 -0.261903 0.798079
sent_198 -0.047157 0.184452 0.346263 0.602353 0.379065 0.015051 0.109928 -0.064673 0.799357 -0.354081 -0.849235 -0.125210 -0.230953 0.788098 0.412506 -0.393415 0.316738 0.353826 0.328644 0.598847 0.051417 0.209756 -0.766711 -0.749516 -0.172548 0.213287 -0.643690 -0.544600 -0.546806 1.008431 0.342290 0.370499 -0.236421 0.211783 -0.459208 0.925077 0.491081 -0.074663 0.236705 -0.617746 0.536181 -0.102206 -0.420122 -0.205377 -0.349671 -0.405177 -0.580970 -0.616909 -0.314551 0.294686
sent_199 -0.367855 0.670725 0.822390 0.346603 0.331875 -0.043478 -0.046593 -0.487098 0.412179 0.513719 -1.091885 -0.418350 -0.404300 0.257606 0.283182 -0.789730 0.543930 0.250071 0.117518 1.410065 -0.073833 -0.120502 -0.977076 -0.434428 0.116342 0.620583 -1.161585 -0.285928 -0.559176 0.753361 0.138866 -0.149324 0.137512 0.437176 -0.703557 1.337485 0.393219 0.662487 -0.286436 -0.278681 0.604778 -0.091546 -0.075497 -0.573089 -0.582626 -0.943561 -0.435002 -0.355850 -0.297168 0.082226
sent_200 -0.592789 0.759510 0.999192 0.179960 0.432772 -0.199316 -0.256179 -0.100931 0.400460 0.017661 -1.147656 -0.607397 -0.481732 0.822329 0.164066 -0.178396 0.416550 0.668323 0.061840 0.871361 -0.475234 0.055978 -0.458295 -0.668671 -0.036603 0.381067 -1.396469 -0.486955 -0.446545 0.985599 0.159137 -0.157984 0.245269 0.194273 -0.283864 1.322352 0.396809 0.632698 0.150426 -0.702588 0.498510 0.318272 -0.067722 -0.312195 -0.188231 -0.820347 -0.300980 -0.137364 -0.516082 -0.157868
sent_201 -0.282444 0.506136 0.689099 0.047352 0.364170 -0.483579 0.298391 -0.325672 0.928299 -0.273576 -0.802851 -0.521240 0.179098 0.770489 0.636137 -0.558099 0.395513 0.054551 0.435583 0.805883 -0.242000 0.573288 -1.355565 -0.586500 -0.104041 0.483136 -1.107523 -0.536003 -0.790849 1.060965 0.553363 0.060313 0.208964 0.224430 -0.631447 1.409964 0.359415 0.119398 -0.141809 -0.608451 0.351370 0.155683 -0.387883 -0.207394 -0.011194 -0.903183 -0.914659 -0.256171 -0.390013 0.561339
sent_202 -0.099593 0.134540 0.376933 0.342839 0.296015 -0.328434 0.379069 -0.132065 0.637829 -0.235211 -0.794900 -0.485283 -0.196082 0.890794 0.323523 -0.658656 0.207196 0.340469 0.130674 0.406057 0.124920 0.381832 -0.695398 -0.648825 -0.121179 0.167647 -0.790576 -0.282883 -0.586854 0.631984 0.323426 0.043295 -0.360891 0.717544 -0.404809 1.328301 0.570624 0.237900 -0.113799 -0.712687 0.697526 -0.305366 -0.359866 -0.097402 -0.078977 -0.685140 -0.288802 -0.548661 -0.166996 0.195103
sent_203 0.439547 0.598971 -0.796891 0.366966 0.707441 -0.177635 -0.389635 0.376911 -1.006747 -0.075747 -0.336218 -0.417892 0.392682 -0.000118 0.709610 0.301391 -1.370986 -0.688895 -0.698562 0.092893 -0.492658 0.119353 -0.535694 -1.242639 0.185374 0.340120 -1.113705 0.493343 0.285070 0.694224 -0.439092 0.174128 -0.191658 -0.125922 -0.532346 0.647665 -0.310301 0.147553 -0.028278 0.268351 -0.334179 1.039327 0.564324 0.834263 0.065252 0.607045 -0.724525 -0.092427 0.018653 -0.850092
sent_204 0.489853 0.453827 -0.716537 0.710276 0.637545 -0.124370 -0.197697 0.481575 -0.821592 -0.056125 -0.549207 -0.346574 0.742540 0.256301 0.684967 0.175143 -0.980753 -0.510405 -0.704998 -0.142726 -0.620261 0.303495 -0.537544 -1.207148 0.043708 0.391825 -1.338919 0.313304 0.353693 0.513718 -0.650119 0.146899 -0.145457 -0.150110 -0.351285 0.729352 0.067311 -0.032818 -0.146320 0.347693 -0.418261 0.933285 0.235889 0.553868 -0.036987 0.326194 -0.701364 -0.153652 -0.058695 -0.691997
sent_205 0.241987 0.389025 -1.105142 0.586411 0.741715 0.185735 -0.774155 0.600771 -1.371639 -0.065545 -0.287875 -0.240181 1.044226 0.341125 0.584394 0.131550 -1.668339 -0.760359 -0.981226 -0.217197 -0.787620 0.495189 -0.870828 -1.294833 -0.045648 0.288385 -1.474911 0.566991 0.682906 0.027731 -0.278560 -0.020174 -0.223225 0.416455 -0.276548 0.376753 0.101053 0.112325 -0.270838 0.412779 -0.269007 1.252959 0.392566 0.466682 0.013353 1.112724 -0.445659 -0.528114 0.037082 -0.211770
